tree
version=v3
num_class=1
num_tree_per_iteration=1
label_index=0
max_feature_idx=14
objective=binary sigmoid:1
feature_names=p_1 p_2 p_3 p_4 p_5 p_6 p_7 p_8 p_9 p_10 p_11 p_12 p_13 p_14 cluster
feature_infos=2:4:0:1:9:3:5:7:6:8 1:2:7:9:0:3:5:4:8:6 1:2:4:0:7:9:5:3:8:6 1:2:4:7:0:9:3:5:6:8 2:1:4:7:0:9:3:5:8:6 2:1:4:7:3:0:5:9:8:6 2:4:1:7:3:0:9:6:8:5 2:1:7:4:9:3:8:0:5:6 2:1:7:4:9:3:0:8:5:6 2:1:7:4:9:8:0:5:3:6 2:4:7:1:3:9:0:8:5:6 2:7:1:4:3:9:5:0:8:6 2:7:1:4:3:9:8:0:5:6 2:7:1:4:9:3:0:8:5:6 57:141:12:27:29:30:0:67:71:79:81:161:175:38:58:63:78:86:93:191:21:42:64:77:84:125:129:131:137:6:13:43:50:61:65:122:134:152:153:179:180:184:3:10:11:19:24:35:68:69:70:75:76:106:113:118:145:146:170:181:182:7:9:44:45:51:82:83:133:144:150:151:165:168:169:178:183:185:193:8:15:33:34:39:40:66:94:96:99:109:119:128:135:147:155:163:164:171:172:173:187:190:1:4:5:14:17:18:28:32:46:54:60:80:90:100:107:120:123:126:127:136:140:157:158:162:166:194:196:22:26:36:37:47:59:73:91:101:114:121:130:148:154:176:186:188:192:195:197:2:48:53:55:62:74:87:95:98:102:104:111:116:117:132:138:142:143:156:159:160:167:177:189:198:20:23:25:31:41:72:89:92:97:108:112:115:124:139:149:174:200:16:49:52:56:85:103:105:110:199
tree_sizes=542 713 716 801 714 711 716 803 888 844 891 757 846 805 903 944 812 761 800 983 948 855 899 957 1084 1084 951 988 993 964 1036 901 899 998 1038 903 1055 997 940 900 1339 1092 1083 1046 994 1050 993 998 987 1239 896 999 1180 1153 946 1087 989 1244 999 982 992 990 1088 1156 1143 1148 990 1230 906 1051 1086 1088 1083 1140 1086 993 948 991 1141 1091 990 989 1433 1153 996 993 1048 1247 1134 994 1083 1086 1051 902 1144 1142 1084 1001 1144 1240

Tree=0
num_leaves=5
num_cat=4
split_feature=0 4 2 3
split_gain=558.668 61.283 31.5493 30.9962
threshold=0 1 2 3
decision_type=1 1 1 1
left_child=1 -1 -2 -3
right_child=2 3 -4 -5
leaf_value=-0.22186495176848875 0.012280701754385963 0.078947368421052627 0.21199999999999999 -0.10666666666666667
leaf_weight=145.5 32.75 28 158.75 35
leaf_count=582 131 112 635 140
internal_value=0 -1.10755 1.20099 -0.164384
internal_weight=0 208.5 191.5 63
internal_count=1600 834 766 252
cat_boundaries=0 1 2 3 4
cat_threshold=214 150 132 553
shrinkage=0.15


Tree=1
num_leaves=6
num_cat=5
split_feature=0 3 2 4 4
split_gain=417.15 53.1076 29.3042 36.0267 23.1653
threshold=0 1 2 3 4
decision_type=1 1 1 1 1
left_child=1 -1 3 -2 -3
right_child=2 4 -4 -5 -6
leaf_value=-0.19292951588546203 -0.066374810590599298 -0.086641573938941271 0.20425420858358079 0.13544188155564635 0.077597820152907629
leaf_weight=148.96744763851166 28.623875379562378 30.201306268572807 124.34758737683296 36.756860211491585 27.412352964282036
leaf_count=602 115 122 503 148 110
internal_value=0 -0.961903 1.04176 0.333346 -0.0571864
internal_weight=0 206.581 189.728 65.3807 57.6137
internal_count=1600 834 766 263 232
cat_boundaries=0 1 2 3 4 5
cat_threshold=214 150 198 22 149
shrinkage=0.15


Tree=2
num_leaves=6
num_cat=5
split_feature=0 3 1 4 4
split_gain=318.302 49.7233 19.4059 17.3521 2.97059
threshold=0 1 2 3 4
decision_type=1 1 1 1 1
left_child=2 4 -1 -3 -2
right_child=1 3 -4 -5 -6
leaf_value=0.0056963231632381839 -0.041004180903666247 -0.067222295723219694 0.1695587737120352 0.071936518449102468 -0.19109502610148008
leaf_weight=29.715468689799309 26.15174500644207 31.159422114491463 147.67120572924614 29.522958859801292 123.32376788556576
leaf_count=121 107 127 612 119 514
internal_value=0 -0.814069 0.959185 0.00719776 -1.12702
internal_weight=0 210.158 177.387 60.6824 149.476
internal_count=1600 867 733 246 621
cat_boundaries=0 1 2 3 4 5
cat_threshold=553 150 134 149 809
shrinkage=0.15


Tree=3
num_leaves=7
num_cat=6
split_feature=0 4 2 4 2 4
split_gain=246.13 41.1105 28.9389 30.4845 12.1939 6.32757
threshold=0 1 2 3 4 5
decision_type=1 1 1 1 1 1
left_child=1 4 3 5 -1 -2
right_child=2 -3 -4 -5 -6 -7
leaf_value=-0.054895341880754803 0.019893500733275404 -0.15649889454199195 0.17854363297748602 0.1411115325466874 0.066866304792094086 -0.077376508104066391
leaf_weight=27.880310222506523 25.081554234027863 141.85368902981281 101.35085083544254 28.973937019705772 26.33871565759182 24.734970316290855
leaf_count=114 104 613 440 121 107 101
internal_value=0 -0.757485 0.820123 0.263534 0.0363738 -0.221764
internal_weight=0 196.073 180.141 78.7905 54.219 49.8165
internal_count=1600 834 766 326 221 205
cat_boundaries=0 1 2 3 4 5 6
cat_threshold=214 809 214 214 22 194
shrinkage=0.15


Tree=4
num_leaves=6
num_cat=5
split_feature=0 4 2 3 2
split_gain=191.019 37.792 17.1634 11.0337 7.92467
threshold=0 1 2 3 4
decision_type=1 1 1 1 1
left_child=2 3 -1 -2 -3
right_child=1 4 -4 -5 -6
leaf_value=-0.0041005682109689313 0.069267514483783613 -0.014780175158757708 0.14029375664773089 -0.045308612978994849 -0.16043894930120384
leaf_weight=29.939103484153748 26.92231422662735 23.624074071645737 135.82650223374367 29.634324058890343 117.11512365937233
leaf_count=122 110 104 611 122 531
internal_value=0 -0.647366 0.769767 0.0763 -0.923944
internal_weight=0 197.296 165.766 56.5566 140.739
internal_count=1600 867 733 232 635
cat_boundaries=0 1 2 3 4 5
cat_threshold=553 809 132 537 801
shrinkage=0.15


Tree=5
num_leaves=6
num_cat=5
split_feature=0 2 4 3 11
split_gain=154.489 44.6674 30.3915 24.9821 8.93277
threshold=0 1 2 3 4
decision_type=1 1 1 1 1
left_child=3 -2 4 -1 -3
right_child=1 2 -4 -5 -6
leaf_value=-0.14526468971624248 0.15576743118376959 -0.10979100219184999 0.10947099122696609 0.003874961781136505 0.0013106733122635898
leaf_weight=113.60144150257111 98.36676262319088 24.15973524749279 32.666827797889709 40.483375906944275 40.224832221865654
leaf_count=535 472 105 143 170 175
internal_value=0 0.579832 0.0614145 -0.72155 -0.33023
internal_weight=0 195.418 97.0514 154.085 64.3846
internal_count=1600 895 423 705 280
cat_boundaries=0 1 2 3 4 5
cat_threshold=22 809 214 214 556
shrinkage=0.15


Tree=6
num_leaves=6
num_cat=5
split_feature=0 2 4 3 11
split_gain=120.476 36.8735 24.4303 20.5613 7.18537
threshold=0 1 2 3 4
decision_type=1 1 1 1 1
left_child=3 -2 4 -1 -3
right_child=1 2 -4 -5 -6
leaf_value=-0.1326865343274104 0.14322665915900565 -0.098610788595395946 0.099191171302943401 0.0034080942780887998 0.001153252187567364
leaf_weight=107.18205854296684 92.296604752540588 24.008863463997841 31.754437074065208 40.493739157915115 40.223556265234947
leaf_count=535 472 105 143 170 175
internal_value=0 0.521057 0.0532111 -0.650127 -0.295982
internal_weight=0 188.283 95.9869 147.676 64.2324
internal_count=1600 895 423 705 280
cat_boundaries=0 1 2 3 4 5
cat_threshold=22 809 214 214 556
shrinkage=0.15


Tree=7
num_leaves=7
num_cat=6
split_feature=1 4 3 4 12 7
split_gain=104.565 23.5489 17.9647 17.3056 15.7329 7.61433
threshold=0 1 2 3 4 5
decision_type=1 1 1 1 1 1
left_child=3 2 5 -1 -5 -2
right_child=1 -3 -4 4 -6 -7
leaf_value=-0.14171845620870385 0.01548338297048542 0.12335317541328722 0.08689988100708626 0.04389203957089885 -0.084228122287470994 -0.094415914282874283
leaf_weight=74.975320845842361 26.143773436546326 98.825691074132919 29.225798428058624 33.098776608705521 36.494593530893326 23.80997571349144
leaf_count=380 132 500 147 150 170 121
internal_value=0 0.503537 0.0580212 -0.606722 -0.169567 -0.292734
internal_weight=0 178.005 79.1795 144.569 69.5934 49.9537
internal_count=1600 900 400 700 320 253
cat_boundaries=0 1 2 3 4 5 6
cat_threshold=134 22 150 148 14 650
shrinkage=0.15


Tree=8
num_leaves=8
num_cat=7
split_feature=0 3 7 1 3 4 1
split_gain=84.6478 27.2063 18.2976 17.0539 10.0624 8.13696 3.41027
threshold=0 1 2 3 4 5 6
decision_type=1 1 1 1 1 1 1
left_child=3 -2 6 -1 -5 -4 -3
right_child=1 2 5 4 -6 -7 -8
leaf_value=0.029856346205559856 0.13285699253172131 0.10850042495955194 -0.10067704669284336 -0.005706533127989002 -0.13858885967724091 0.018635115518759994 0.013887543871072206
leaf_weight=24.552732855081558 74.400569066405296 23.86669048666954 24.94101120531559 26.836029276251793 86.1372150182724 21.943628177046776 30.606111153960228
leaf_count=116 407 119 119 114 475 106 144
internal_value=0 0.44966 0.0787844 -0.564969 -0.733696 -0.342504 0.43827
internal_weight=0 175.758 101.357 137.526 112.973 46.8846 54.4728
internal_count=1600 895 488 705 589 225 263
cat_boundaries=0 1 2 3 4 5 6 7
cat_threshold=22 617 650 353 553 148 53
shrinkage=0.15


Tree=9
num_leaves=7
num_cat=6
split_feature=14 1 0 3 7 2
split_gain=74.828 49.4409 15.6107 12.0032 3.128 0.213856
threshold=0 1 2 3 4 5
decision_type=9 1 1 1 1 1
left_child=-1 3 -3 -2 -5 -4
right_child=1 2 5 4 -6 -7
leaf_value=0.14055845941318276 0.015383806085557426 -0.03760991937132576 0.021944571208950592 -0.010472821146997954 -0.12086283939567599 0.11634826316836987
leaf_weight=57.621547490358353 25.825487405061722 27.892244905233383 21.759841054677963 20.289778962731361 110.27894848585129 38.359528258442879
leaf_count=309 123 145 103 109 590 221
internal_value=0 -0.246456 0.333184 -0.57307 -0.704494 0.601213
internal_weight=0 244.406 88.0116 156.394 130.569 60.1194
internal_count=1600 1291 469 822 699 324
cat_boundaries=0 6 7 8 9 10 11
cat_threshold=1764234313 2751466568 1052762 0 0 17825792 398 26 552 776 212
shrinkage=0.15


Tree=10
num_leaves=8
num_cat=7
split_feature=0 2 8 7 2 9 4
split_gain=60.3635 19.6627 14.7055 11.9198 8.54755 6.87624 2.30348
threshold=0 1 2 3 4 5 6
decision_type=1 1 1 1 1 1 1
left_child=2 -2 4 5 -1 -3 -4
right_child=1 3 6 -5 -6 -7 -8
leaf_value=0.059780971997218595 0.057984162158336967 0.044386352698149265 0.021843693539192164 -0.1172761892349248 -0.050695642520044583 -0.050378372211436907 0.13339493975560801
leaf_weight=17.72265799343586 22.416070029139519 19.325520560145378 23.9009680300951 84.042954802513123 26.631765395402908 34.89244432747364 63.829781889915466
leaf_count=115 106 103 122 467 120 191 376
internal_value=0 -0.394872 0.487466 -0.539093 -0.0245038 -0.099656 0.722328
internal_weight=0 160.677 132.085 138.261 44.3544 54.218 87.7307
internal_count=1600 867 733 761 235 294 498
cat_boundaries=0 1 2 3 4 5 6 7
cat_threshold=553 97 804 810 553 50 20
shrinkage=0.15


Tree=11
num_leaves=6
num_cat=5
split_feature=14 1 2 7 0
split_gain=55.8112 39.5016 20.7134 8.69565 8.33666
threshold=0 1 2 3 4
decision_type=9 1 1 1 1
left_child=-1 -2 3 -3 -4
right_child=1 2 4 -5 -6
leaf_value=0.12659944778185059 0.086016070701959629 0.086460987612732007 -0.0001589661845148325 -0.027784805653525518 -0.10965426840953547
leaf_weight=53.304269462823868 42.852200970053673 18.526020526885986 27.969598710536957 26.798169627785683 114.0588638484478
leaf_count=310 246 102 141 148 653
internal_value=0 -0.211473 -0.410962 0.174 -0.596801
internal_weight=0 230.205 187.353 45.3242 142.028
internal_count=1600 1290 1044 250 794
cat_boundaries=0 6 7 8 9 10
cat_threshold=1764234313 2214857800 1060954 0 0 16777216 97 865 904 672
shrinkage=0.15


Tree=12
num_leaves=7
num_cat=6
split_feature=14 0 7 4 4 12
split_gain=44.9493 31.98 12.219 10.9992 4.69368 2.2653
threshold=0 1 2 3 4 5
decision_type=9 1 1 1 1 1
left_child=-1 3 -3 -2 -4 -5
right_child=1 2 4 5 -6 -7
leaf_value=0.11401267191057556 -0.031228068665139976 0.024852642611812907 -0.0083250046291984143 0.003407494365323031 -0.11683351717715339 0.097051679072791108
leaf_weight=53.262775957584381 30.261703133583069 23.93583969771862 23.478857070207596 18.241408497095108 84.380354374647141 41.364230431616306
leaf_count=323 158 133 116 100 529 241
internal_value=0 -0.19103 -0.491889 0.255267 -0.639492 0.486667
internal_weight=0 221.662 131.795 89.8673 107.859 59.6056
internal_count=1600 1277 778 499 645 341
cat_boundaries=0 6 7 8 9 10 11
cat_threshold=1764234313 2214857800 1056859 0 0 17825792 929 776 20 808 928
shrinkage=0.15


Tree=13
num_leaves=7
num_cat=6
split_feature=1 6 6 0 7 4
split_gain=40.3245 17.9587 9.05021 8.04769 6.59764 1.82199
threshold=0 1 2 3 4 5
decision_type=1 1 1 1 1 1
left_child=1 4 -2 -3 -1 -4
right_child=2 3 5 -5 -6 -7
leaf_value=0.082865610085397112 -0.023246952175884159 0.0060040283341102263 0.031982571683399783 -0.10042596117231911 -0.017266979013598378 0.12105750276278385
leaf_weight=18.968915268778801 20.122134737670422 26.618138514459133 36.277617312967777 84.842666953802109 29.029120594263077 51.167337357997894
leaf_count=105 123 140 201 517 173 341
internal_value=0 -0.298133 0.464109 -0.510717 0.198468 0.607854
internal_weight=0 159.459 107.567 111.461 47.998 87.445
internal_count=1600 935 665 657 278 542
cat_boundaries=0 1 2 3 4 5 6
cat_threshold=398 25 392 808 904 148
shrinkage=0.15


Tree=14
num_leaves=8
num_cat=7
split_feature=2 7 1 7 4 11 4
split_gain=34.637 16.9235 17.0521 6.6284 11.5863 1.82419 0.983877
threshold=0 1 2 3 4 5 6
decision_type=1 1 1 1 1 1 1
left_child=1 2 5 4 -2 -1 -3
right_child=3 6 -4 -5 -6 -7 -8
leaf_value=-0.0044336764541373485 -0.057418214380211705 -0.018594085869021195 0.074437191823328516 0.095854089359133046 0.075671266908421714 -0.074236000482432229 -0.11636826169126266
leaf_weight=24.433533631265163 21.209238730370998 21.493231728672981 35.31455621868372 65.239358559250832 18.042069427669048 26.705063223838806 48.296055093407631
leaf_count=136 126 121 196 436 122 158 305
internal_value=0 -0.275654 0.0342539 0.439162 0.0446689 -0.313768 -0.615738
internal_weight=0 156.242 86.4532 104.491 39.2513 51.1386 69.7893
internal_count=1600 916 490 684 248 294 426
cat_boundaries=0 1 2 3 4 5 6 7
cat_threshold=150 906 906 116 150 262 897
shrinkage=0.15


Tree=15
num_leaves=8
num_cat=7
split_feature=14 0 7 7 2 6 4
split_gain=32.8324 22.0832 10.2316 9.38087 8.33872 2.70911 0.388284
threshold=0 1 2 3 4 5 6
decision_type=9 1 1 1 1 1 1
left_child=-1 3 4 -2 -3 -5 -4
right_child=1 2 6 5 -6 -7 -8
leaf_value=0.10321477997107019 -0.030881245931443421 -0.056648895885620054 -0.021271937486712602 0.00045720711565599655 0.050982244082851839 0.091156272498013363 -0.11855654139740301
leaf_weight=47.059697411954403 30.497581794857979 21.021494254469872 21.244134791195393 19.036171771585941 23.891170419752598 37.020864643156528 55.079456247389317
leaf_count=318 166 129 109 109 135 235 399
internal_value=0 -0.164096 -0.427204 0.210513 -0.00357968 0.43392 -0.647194
internal_weight=0 207.791 121.236 86.5546 44.9127 56.057 76.3236
internal_count=1600 1282 772 510 264 344 508
cat_boundaries=0 6 7 8 9 10 11 12
cat_threshold=1764234313 2147486792 1060987 0 0 16778240 929 904 20 134 4 809
shrinkage=0.15


Tree=16
num_leaves=7
num_cat=6
split_feature=1 3 6 5 0 0
split_gain=27.0387 20.8183 8.89326 8.69244 2.49979 1.74367
threshold=0 1 2 3 4 5
decision_type=1 1 1 1 1 1
left_child=5 2 -2 -3 -5 -1
right_child=1 3 -4 4 -6 -7
leaf_value=0.0073516295509023846 -0.016464193776428906 0.030970631628944673 0.09035152042312368 -0.0097409205681791844 -0.098195127942095575 0.098076348402150237
leaf_weight=18.937014847993851 32.642737992107868 17.489605382084846 28.661609649658203 22.969903722405434 79.293793924152851 48.146220803260803
leaf_count=101 186 102 180 122 556 353
internal_value=0 -0.190063 0.260952 -0.423265 -0.539763 0.511612
internal_weight=0 181.058 61.3043 119.753 102.264 67.0832
internal_count=1600 1146 366 780 678 454
cat_boundaries=0 1 2 3 4 5 6
cat_threshold=113 617 652 104 672 146
shrinkage=0.15


Tree=17
num_leaves=6
num_cat=5
split_feature=14 2 1 5 4
split_gain=24.7319 16.3512 13.1406 8.35775 2.75502
threshold=0 1 2 3 4
decision_type=9 1 1 1 1
left_child=-1 -2 -3 -4 -5
right_child=1 2 3 4 -6
leaf_value=0.090897500020526753 0.067525897526782355 0.044909712179651104 0.023200919781023437 -0.013268255583280068 -0.093725230092903067
leaf_weight=45.606887340545654 29.528407081961632 27.784540057182312 22.950503937900066 28.781525373458862 87.297572515904903
leaf_count=321 198 181 136 183 581
internal_value=0 -0.145494 -0.270432 -0.396759 -0.509405
internal_weight=0 196.343 166.814 139.03 116.079
internal_count=1600 1279 1081 900 764
cat_boundaries=0 6 7 8 9 10
cat_threshold=1764234305 2147486792 1061114 0 0 17826816 544 97 105 770
shrinkage=0.15


Tree=18
num_leaves=7
num_cat=6
split_feature=4 7 0 9 2 6
split_gain=22.4995 12.5843 10.1526 8.93963 5.865 4.4523
threshold=0 1 2 3 4 5
decision_type=1 1 1 1 1 1
left_child=1 4 -2 -3 -1 -5
right_child=2 3 -4 5 -6 -7
leaf_value=-0.024814178972490917 -0.012535571949691647 0.025025503194441384 0.09214678623655663 -0.0015052103404723835 0.069362355051253238 -0.11216018268960955
leaf_weight=22.465740464627743 33.617511928081512 20.396014653146267 59.391393013298512 19.95044070482254 24.21687263250351 56.748963162302971
leaf_count=139 171 142 448 134 166 400
internal_value=0 -0.225573 0.378441 -0.421492 0.18439 -0.57914
internal_weight=0 143.778 93.0089 97.0954 46.6826 76.6994
internal_count=1600 981 619 676 305 534
cat_boundaries=0 1 2 3 4 5 6
cat_threshold=150 648 84 3 134 112
shrinkage=0.15


Tree=19
num_leaves=9
num_cat=8
split_feature=7 8 0 0 6 1 4 3
split_gain=20.1573 14.0565 10.1987 9.61701 4.6615 4.34075 3.90216 1.58625
threshold=0 1 2 3 4 5 6 7
decision_type=1 1 1 1 1 1 1 1
left_child=3 -2 -3 6 5 -5 -1 -4
right_child=1 2 7 4 -6 -7 -8 -9
leaf_value=-0.067157139587846276 -0.09888741963126127 -0.059501382168358055 0.001757739340040564 -0.024763590561178998 0.10375927011760169 0.054009132552420923 0.014544560437220641 0.089907953513590225
leaf_weight=13.255208157002924 47.67828580737114 19.149506069719791 16.557279907166958 21.86665653437376 42.399882428348064 27.13852072507143 27.71122195571661 16.177666731178761
leaf_count=101 322 146 107 129 309 198 168 120
internal_value=0 -0.306542 0.0717278 0.264117 0.437431 0.137467 -0.13254 0.374442
internal_weight=0 99.5627 51.8845 132.371 91.4051 49.0052 40.9664 32.7349
internal_count=1600 695 373 905 636 327 269 227
cat_boundaries=0 1 2 3 4 5 6 7 8
cat_threshold=906 852 148 338 964 394 132 134
shrinkage=0.15


Tree=20
num_leaves=8
num_cat=7
split_feature=14 1 10 4 6 9 13
split_gain=18.3216 13.075 10.8666 6.55263 4.70044 1.36412 1.15538
threshold=0 1 2 3 4 5 6
decision_type=9 1 1 1 1 1 1
left_child=-1 3 4 -2 -3 -4 -6
right_child=1 2 5 -5 6 -7 -8
leaf_value=0.083849906166334379 0.010509750688024889 -0.022535461021613534 0.0036498985600652615 -0.084947555005329703 0.0037995715988735058 -0.070501879910105134 0.091894087046202722
leaf_weight=39.461456310003996 25.756498239934444 15.039238102734089 14.597295328974722 60.522062487900257 15.517367951571941 18.699457220733166 37.954258807003498
leaf_count=315 161 100 108 449 104 115 248
internal_value=0 -0.121465 0.119599 -0.388794 0.33451 -0.297726 0.473037
internal_weight=0 188.086 101.808 86.2786 68.5109 33.2968 53.4716
internal_count=1600 1285 675 610 452 223 352
cat_boundaries=0 6 7 8 9 10 11 12
cat_threshold=1764234305 2214595656 1060954 0 8192 16778240 134 87 522 960 147 137
shrinkage=0.15


Tree=21
num_leaves=7
num_cat=6
split_feature=14 4 1 9 7 7
split_gain=16.6591 17.6518 10.6749 9.82795 4.67916 3.10672
threshold=0 1 2 3 4 5
decision_type=9 1 1 1 1 1
left_child=-1 2 -2 -3 -4 -5
right_child=1 3 4 5 -6 -7
leaf_value=-0.088019501156966398 -0.080102619710919823 -0.03848724732043507 -0.03573049517028358 -0.0063696326739091265 0.048143376307919851 0.093139583961536057
leaf_weight=28.890953171998262 39.199090287089348 17.074376352131367 15.995233699679375 15.018207114189863 31.457302294671535 75.670001212507486
leaf_count=208 320 121 102 104 206 539
internal_value=0 0.127323 -0.198231 0.383704 0.123821 0.517764
internal_weight=0 194.414 86.6516 107.763 47.4525 90.6882
internal_count=1600 1392 628 764 308 643
cat_boundaries=0 6 7 8 9 10 11
cat_threshold=0 33554432 4374528 537001984 131658 2154332160 148 134 833 20 113
shrinkage=0.15


Tree=22
num_leaves=8
num_cat=7
split_feature=0 3 5 1 3 6 13
split_gain=14.9129 9.00615 8.38544 8.03991 5.30686 4.1445 2.45946
threshold=0 1 2 3 4 5 6
decision_type=1 1 1 1 1 1 1
left_child=3 2 -2 -1 -5 6 -4
right_child=1 -3 5 4 -6 -7 -8
leaf_value=0.033718938214815003 0.068014132878875561 0.08262175975647848 -0.025183551190741445 0.0012980400625251908 -0.094354257020074481 -0.063704783405560128 0.039953838193670328
leaf_weight=20.74783194065094 19.593572810292244 44.31817439943552 16.582981068640947 26.193710152059793 47.428995810449123 26.835406865924597 17.482437741011381
leaf_count=116 113 407 100 166 423 169 106
internal_value=0 0.226617 0.00698125 -0.276892 -0.428248 -0.180347 0.0648392
internal_weight=0 124.813 80.4944 94.3705 73.6227 60.9008 34.0654
internal_count=1600 895 488 705 589 375 206
cat_boundaries=0 1 2 3 4 5 6 7
cat_threshold=22 406 361 353 537 52 147
shrinkage=0.15


Tree=23
num_leaves=8
num_cat=7
split_feature=14 2 13 6 8 13 1
split_gain=14.1646 11.6724 7.56774 6.61829 4.68051 4.33959 2.98923
threshold=0 1 2 3 4 5 6
decision_type=9 1 1 1 1 1 1
left_child=-1 5 3 4 -3 -2 -4
right_child=1 2 6 -5 -6 -7 -8
leaf_value=0.074853224515866623 -0.022781115996989947 0.028541115678317217 0.0028494404159637569 0.065338292243769552 -0.067137761653529499 0.071116861282288335 -0.085166381689108964
leaf_weight=36.925147518515587 14.449204321950674 14.581188876181839 18.432494267821312 16.859545700252056 19.862690802663565 31.033596847206354 62.043925195932388
leaf_count=324 106 110 124 113 140 228 455
internal_value=0 -0.115413 -0.263464 0.0491128 -0.195503 0.283716 -0.446135
internal_weight=0 177.263 131.78 51.3034 34.4439 45.4828 80.4764
internal_count=1600 1276 942 363 250 334 579
cat_boundaries=0 6 7 8 9 10 11 12
cat_threshold=1764230209 2214595656 537931898 0 33562624 16777216 616 589 646 146 516 353
shrinkage=0.15


Tree=24
num_leaves=10
num_cat=9
split_feature=7 8 0 6 9 2 0 0 3
split_gain=13.6332 10.3688 7.3004 6.87032 6.49892 3.99012 1.12482 0.761513 0.529278
threshold=0 1 2 3 4 5 6 7 8
decision_type=1 1 1 1 1 1 1 1 1
left_child=3 -2 -3 4 7 -6 -5 -1 -4
right_child=1 2 8 6 5 -7 -8 -9 -10
leaf_value=0.069188906804141206 -0.086702936889866702 -0.051079834896891593 0.082065577142544421 0.011866321585131694 0.019506971771488576 -0.074382354117261421 0.093456364954012494 -0.00085261444220174724 0.008143853870350326
leaf_weight=14.414287101477383 43.903701361268759 16.987377546727657 11.856861408799885 21.304852195084095 15.074330598115919 21.373409662395716 34.534485019743443 13.51422653719783 17.929661005735401
leaf_count=104 322 146 102 156 118 148 279 100 125
internal_value=0 -0.266923 0.0754619 0.223125 -0.0157178 -0.264743 0.459047 0.293385 0.338666
internal_weight=0 90.6776 46.7739 120.216 64.3763 36.4477 55.8393 27.9285 29.7865
internal_count=1600 695 373 905 470 266 435 204 227
cat_boundaries=0 1 2 3 4 5 6 7 8 9
cat_threshold=906 852 148 708 59 805 26 15 569
shrinkage=0.15


Tree=25
num_leaves=10
num_cat=9
split_feature=9 3 5 6 8 12 0 2 1
split_gain=12.6817 12.4167 11.2471 5.00972 4.46671 3.44977 3.01058 2.25731 1.03552
threshold=0 1 2 3 4 5 6 7 8
decision_type=1 1 1 1 1 1 1 1 1
left_child=-1 2 3 5 7 -2 -7 -3 -4
right_child=1 4 8 -5 -6 6 -8 -9 -10
leaf_value=-0.08807311762504888 -0.05008541435850556 0.034110361487975936 0.00093040496721862173 -0.081837863271845446 0.089903780364166408 -0.022657738722537669 0.054434643676210974 -0.03083954393572547 0.077861231075288861
leaf_weight=20.661009598523378 13.469577107578514 14.062122989445923 15.178348958492277 36.343715682625771 44.739900417625904 15.047149125486611 17.403553448617458 14.175880182534458 17.102124247699976
leaf_count=157 103 101 102 295 374 140 112 101 115
internal_value=0 0.104163 -0.102257 -0.292202 0.401434 -0.0299584 0.145139 0.0131099 0.336425
internal_weight=0 187.522 114.544 82.264 72.9779 45.9203 32.4507 28.238 32.2805
internal_count=1600 1443 867 650 576 355 252 202 217
cat_boundaries=0 1 2 3 4 5 6 7 8 9
cat_threshold=768 150 150 564 844 784 54 674 644
shrinkage=0.15


Tree=26
num_leaves=8
num_cat=7
split_feature=14 0 1 4 2 10 13
split_gain=12.4541 11.2886 7.38276 5.41954 4.70596 1.30426 0.243688
threshold=0 1 2 3 4 5 6
decision_type=9 1 1 1 1 1 1
left_child=-1 3 4 -2 -3 -5 -6
right_child=1 2 -4 5 6 -7 -8
leaf_value=-0.076977782316390492 -0.006614560681442506 0.020346409401922526 0.039744520880815405 0.011802302383459522 -0.0051395711363758168 0.10030932829711083 -0.091156581985842325
leaf_weight=27.955147460103035 29.318969361484051 16.752864714711905 24.392644718289375 20.409388761967421 13.301250334829092 41.161564934998751 31.613003123551607
leaf_count=216 187 121 143 169 106 370 288
internal_value=0 0.115147 -0.138928 0.345644 -0.313369 0.511463 -0.475051
internal_weight=0 176.95 86.0598 90.8899 61.6671 61.571 44.9143
internal_count=1600 1384 658 726 515 539 394
cat_boundaries=0 6 7 8 9 10 11 12
cat_threshold=0 33554432 4376576 537003008 16908362 2153807872 681 654 20 480 905 260
shrinkage=0.15


Tree=27
num_leaves=9
num_cat=8
split_feature=7 8 5 6 4 0 10 2
split_gain=10.397 6.56132 5.86693 8.01254 4.02239 2.87662 2.40779 1.78314
threshold=0 1 2 3 4 5 6 7
decision_type=1 1 1 1 1 1 1 1
left_child=1 4 3 7 -1 -4 -5 -2
right_child=2 -3 5 6 -6 -7 -8 -9
leaf_value=-0.03586195604910692 -0.0084432616531546333 -0.073424433951754034 -0.0098708201993021414 -0.069997459861071212 0.050326804488314815 0.080376557360742035 0.013649200048152059 0.074019610857055856
leaf_weight=13.29898067191243 12.788921870291231 44.324321057647467 14.618388503789902 25.459714826196432 18.130991723388437 42.759358048439026 12.672377325594423 17.404092062264684
leaf_count=113 101 344 108 206 151 317 106 154
internal_value=0 -0.264985 0.179854 -0.0286501 0.0933617 0.395542 -0.300926 0.304535
internal_weight=0 75.7543 125.703 68.3251 31.43 57.3777 38.1321 30.193
internal_count=1600 608 992 567 264 425 312 255
cat_boundaries=0 1 2 3 4 5 6 7 8
cat_threshold=84 130 658 306 92 17 646 116
shrinkage=0.15


Tree=28
num_leaves=9
num_cat=8
split_feature=9 4 12 7 0 8 7 1
split_gain=10.1709 10.3525 6.87479 5.60672 5.08603 2.52715 3.27749 1.887
threshold=0 1 2 3 4 5 6 7
decision_type=1 1 1 1 1 1 1 1
left_child=-1 3 -3 4 -2 6 -4 -5
right_child=1 2 5 7 -6 -7 -8 -9
leaf_value=-0.080346277377528433 0.066200170342438566 -0.026921074771880413 -0.031298728414900591 -0.081548447581668126 -0.030032140803743057 0.089733617997691084 0.047860171806479272 -0.0034630870795774923
leaf_weight=19.804969310760498 15.988581877201794 21.18898518383503 13.909580308943985 26.940617442131042 17.386923808604479 48.545617412775755 15.004039440304043 20.855826079845428
leaf_count=157 112 173 106 264 139 404 105 140
internal_value=0 0.0927503 0.298347 -0.162429 0.138013 0.434631 0.0768126 -0.359804
internal_weight=0 179.82 98.6482 81.1719 33.3755 77.4592 28.9136 47.7964
internal_count=1600 1443 788 655 251 615 211 404
cat_boundaries=0 1 2 3 4 5 6 7 8
cat_threshold=768 148 528 936 676 868 532 182
shrinkage=0.15


Tree=29
num_leaves=8
num_cat=7
split_feature=14 2 0 10 6 9 12
split_gain=9.49823 9.15432 5.98765 4.65495 3.35543 5.4853 0.210791
threshold=0 1 2 3 4 5 6
decision_type=9 1 1 1 1 1 1
left_child=-1 6 3 -3 5 -4 -2
right_child=1 2 4 -5 -6 -7 -8
leaf_value=0.064324085744517992 0.072809240534235251 -0.027997783816613341 0.046805872785164598 0.049543294616280022 -0.079798418643801092 -0.05456280837795862 0.0085572127237125359
leaf_weight=32.376037633046508 14.560465376824141 28.594999443739653 14.769689034670591 22.630127228796482 53.098244100809097 13.39184507355094 17.584044504910707
leaf_count=310 109 189 107 153 472 117 143
internal_value=0 -0.0989447 -0.215979 0.0583671 -0.376369 -0.0204321 0.320211
internal_weight=0 164.629 132.485 51.2251 81.2598 28.1615 32.1445
internal_count=1600 1290 1038 342 696 224 252
cat_boundaries=0 6 7 8 9 10 11 12
cat_threshold=1764230209 2214594632 536879226 4194304 33562624 16778240 608 680 652 121 38 132
shrinkage=0.15


Tree=30
num_leaves=9
num_cat=8
split_feature=14 7 0 1 4 0 2 6
split_gain=9.40999 8.49347 6.09189 5.18285 3.37405 2.0975 1.71777 1.38571
threshold=0 1 2 3 4 5 6 7
decision_type=9 1 1 1 1 1 1 1
left_child=-1 2 6 4 -3 -5 -2 -4
right_child=1 3 7 5 -6 -7 -8 -9
leaf_value=-0.070062602342149158 -0.011082341381997251 -0.050945502218733889 0.0043059774582345448 0.0047794337063992451 0.023588378354520163 0.090231100902387826 0.056622845527617677 -0.077767422921964868
leaf_weight=25.016888789832592 14.813992278650401 11.926421165466307 12.977284938096998 20.055480886250734 26.947542183101177 41.73618046939373 12.508274644613268 28.35893134586513
leaf_count=210 105 108 106 151 194 369 103 254
internal_value=0 0.0996962 -0.159733 0.275083 -0.0334902 0.446836 0.178532 -0.374542
internal_weight=0 169.324 68.6585 100.666 38.874 61.7917 27.3223 41.3362
internal_count=1600 1390 568 822 302 520 208 360
cat_boundaries=0 6 7 8 9 10 11 12 13
cat_threshold=8192 0 4376576 537003008 16908362 2153807872 85 865 138 132 280 135 25
shrinkage=0.15


Tree=31
num_leaves=8
num_cat=7
split_feature=4 7 0 8 0 2 13
split_gain=8.25189 6.81996 5.25044 4.85975 4.20486 3.03443 1.6334
threshold=0 1 2 3 4 5 6
decision_type=1 1 1 1 1 1 1
left_child=3 2 -2 -1 -3 -6 -5
right_child=1 4 -4 6 5 -7 -8
leaf_value=-0.016403078633535725 0.055700578271687472 -0.079803574822880821 -0.030723260999500832 0.099179453350736163 0.037748160539442251 -0.032437374394752069 0.0082626953039268841
leaf_weight=22.71218228712678 28.489475017413497 39.582840699702501 20.388993706554174 23.829754719510674 14.012724570930002 23.080552592873573 19.661241130903363
leaf_count=159 208 419 163 226 107 147 171
internal_value=0 -0.143276 0.137032 0.268031 -0.317158 -0.0235858 0.448711
internal_weight=0 125.555 48.8785 66.2032 76.6761 37.0933 43.491
internal_count=1600 1044 371 556 673 254 397
cat_boundaries=0 1 2 3 4 5 6 7
cat_threshold=809 904 684 516 30 680 271
shrinkage=0.15


Tree=32
num_leaves=8
num_cat=7
split_feature=1 3 10 0 5 8 12
split_gain=8.07245 7.30822 5.85177 5.05862 3.7627 1.67599 1.04143
threshold=0 1 2 3 4 5 6
decision_type=1 1 1 1 1 1 1
left_child=-1 5 3 -3 -4 -2 -6
right_child=1 2 4 -5 6 -7 -8
leaf_value=0.05518426888704369 -0.0081210457733716483 0.057244307121434267 0.016811819262365524 -0.031542556425227103 -0.0070121148222539167 0.061107474872179636 -0.09384737961057113
leaf_weight=37.611197378486395 14.881040532141922 18.682616289705038 14.409895386546848 21.042681813240051 16.933274021372199 21.650487707927823 43.861943151801825
leaf_count=360 103 147 105 192 141 187 365
internal_value=0 -0.100685 -0.222552 0.088855 -0.378169 0.24815 -0.493787
internal_weight=0 151.462 114.93 39.7253 75.2051 36.5315 60.7952
internal_count=1600 1240 950 339 611 290 506
cat_boundaries=0 1 2 3 4 5 6 7
cat_threshold=97 521 83 547 360 269 68
shrinkage=0.15


Tree=33
num_leaves=9
num_cat=8
split_feature=9 6 13 2 10 4 12 8
split_gain=7.83728 7.2172 5.93591 9.29906 3.04159 2.89405 2.52076 1.41064
threshold=0 1 2 3 4 5 6 7
decision_type=1 1 1 1 1 1 1 1
left_child=-1 7 5 6 -5 -3 -4 -2
right_child=1 2 3 4 -6 -7 -8 -9
leaf_value=-0.072039788879941918 -0.074712131953607097 -0.0094072627522534952 0.0067100191446388159 -0.01192161650148451 0.087036532638732109 0.090428863441046226 -0.062407706479679699 -0.0024033008721400509
leaf_weight=18.408850962296128 13.468431200832129 13.53809230029583 22.010016303509474 13.471617581322787 20.712952276691794 35.750393267720938 28.779324613511562 20.049689754843712
leaf_count=157 109 104 177 110 217 310 240 176
internal_value=0 0.0854282 0.189641 0.0131958 0.361111 0.440302 -0.241856 -0.279668
internal_weight=0 167.781 134.262 84.9739 34.1846 49.2885 50.7893 33.5181
internal_count=1600 1443 1158 744 327 414 417 285
cat_boundaries=0 1 2 3 4 5 6 7 8
cat_threshold=768 960 836 150 772 36 140 772
shrinkage=0.15


Tree=34
num_leaves=9
num_cat=8
split_feature=14 6 1 12 4 9 2 12
split_gain=7.87505 8.09357 6.58305 6.09938 4.92208 2.12938 0.809954 3.06017
threshold=0 1 2 3 4 5 6 7
decision_type=9 1 1 1 1 1 1 1
left_child=-1 -2 3 4 -3 -5 7 -4
right_child=1 2 6 5 -6 -7 -8 -9
leaf_value=-0.066491436522875258 -0.06000372118194168 -0.032593029262566429 -0.030394417693239556 0.012381187900353292 0.071873248586055608 -0.058449369625768743 0.082116352596593709 0.049721779375674437
leaf_weight=22.974130503833294 19.350813917815685 11.242908917367457 11.859575526788829 14.681719101965426 23.151923613622785 29.524041062220931 36.9890719614923 14.168501673266293
leaf_count=207 164 111 100 129 170 246 348 125
internal_value=0 0.0904846 0.179472 -0.0236417 0.253838 -0.246538 0.401354 0.0994209
internal_weight=0 160.969 141.618 78.6006 34.3948 44.2058 63.0171 26.0281
internal_count=1600 1393 1229 656 281 375 573 225
cat_boundaries=0 6 7 8 9 10 11 12 13
cat_threshold=8200 0 4376576 537003008 16908362 6324224 128 142 262 133 18 197 139
shrinkage=0.15


Tree=35
num_leaves=8
num_cat=7
split_feature=0 10 3 4 13 5 4
split_gain=6.67907 5.68197 4.29681 3.33558 3.16688 1.62126 0.757599
threshold=0 1 2 3 4 5 6
decision_type=1 1 1 1 1 1 1
left_child=2 -2 3 -1 -3 -6 -4
right_child=1 4 6 -5 5 -7 -8
leaf_value=-0.032453573747484907 -0.032062027728097936 -0.010592325365662689 -0.0016276868677003791 0.043977413843973454 0.017728287302132779 0.096148487006323252 -0.07324933708477166
leaf_weight=14.222596993669866 23.279143305495381 20.095606843009591 14.598048269748686 19.785393560305238 30.553969597443938 25.847168067470193 33.676692826673388
leaf_count=108 197 150 101 128 275 236 405
internal_value=0 0.168818 -0.196176 0.0793454 0.296491 0.418226 -0.370581
internal_weight=0 99.7759 82.2827 34.008 76.4967 56.4011 48.2747
internal_count=1600 858 742 236 661 511 506
cat_boundaries=0 1 2 3 4 5 6 7
cat_threshold=86 896 793 133 136 134 841
shrinkage=0.15


Tree=36
num_leaves=9
num_cat=8
split_feature=14 5 3 0 11 13 4 1
split_gain=6.36076 6.57972 5.35567 5.17957 3.76419 2.59831 5.22708 1.27413
threshold=0 1 2 3 4 5 6 7
decision_type=9 1 1 1 1 1 1 1
left_child=7 2 4 -3 -2 6 -4 -1
right_child=1 3 5 -5 -6 -7 -8 -9
leaf_value=-0.0038369606301430102 -0.024884098998079241 -0.029691792537984627 0.050153752067382144 0.078894321294661271 0.056405598886243039 -0.07094690397790808 -0.04720672712477398 0.081995582575355427
leaf_weight=12.53868538700044 18.457122035324574 12.359082113951443 12.582289837300776 19.598330538719896 16.906366623938084 51.809058574959636 17.751895518973473 17.25217312946916
leaf_count=123 148 114 112 143 143 468 147 202
internal_value=0 -0.0870353 -0.196231 0.265548 0.118971 -0.330113 -0.0293365 0.359895
internal_weight=0 149.464 117.507 31.9574 35.3635 82.1432 30.3342 29.7909
internal_count=1600 1275 1018 257 291 727 259 325
cat_boundaries=0 6 7 8 9 10 11 12 13
cat_threshold=1762133057 2147486792 537927768 4194304 33563136 17826818 662 872 530 664 613 538 644
shrinkage=0.15


Tree=37
num_leaves=9
num_cat=8
split_feature=9 3 5 6 6 1 2 1
split_gain=6.34705 5.55369 5.26531 4.5164 4.03345 3.7977 3.48638 0.704255
threshold=0 1 2 3 4 5 6 7
decision_type=1 1 1 1 1 1 1 1
left_child=-1 2 4 6 5 -2 -3 -4
right_child=1 3 7 -5 -6 -7 -8 -9
leaf_value=-0.065852285277290631 -0.039187766334702272 -0.041283910800978034 -0.0022761716842308807 0.081947797210668472 -0.067351628975122563 0.036823088176540612 0.036209537160965991 0.058446074124517612
leaf_weight=17.519834447652102 16.868903553113341 15.219958107918499 13.448158379644154 29.053399840369821 30.130920469760895 23.093669047579169 17.126907046884298 14.885535560548307
leaf_count=157 168 118 102 307 295 187 151 115
internal_value=0 0.0787191 -0.0698542 0.293315 -0.211187 0.0221071 -0.00927668 0.243666
internal_weight=0 159.827 98.4272 61.4003 70.0935 39.9626 32.3469 28.3337
internal_count=1600 1443 867 576 650 355 269 217
cat_boundaries=0 1 2 3 4 5 6 7 8
cat_threshold=768 150 150 908 564 138 23 644
shrinkage=0.15


Tree=38
num_leaves=8
num_cat=7
split_feature=14 7 4 11 10 0 8
split_gain=6.4172 7.15344 5.22231 3.81214 2.65469 1.67413 1.04927
threshold=0 1 2 3 4 5 6
decision_type=9 1 1 1 1 1 1
left_child=-1 2 -2 -3 -4 -5 -7
right_child=1 3 4 5 -6 6 -8
leaf_value=-0.060689267457856723 -0.060026540593669298 -0.027517631364221608 0.055295126040398698 -0.011291679562465497 -0.019036345718784112 0.0080482623076991878 0.080093541516190025
leaf_weight=21.914516363292933 32.268430035561323 13.521103430539368 13.133720291778445 11.592261616140604 16.328798670321703 20.227235451340679 46.268377248197794
leaf_count=207 316 116 109 101 141 170 440
internal_value=0 0.0856987 -0.163504 0.25319 0.131429 0.341038 0.413968
internal_weight=0 153.34 61.7309 91.609 29.4625 78.0879 66.4956
internal_count=1600 1393 566 827 250 711 610
cat_boundaries=0 6 7 8 9 10 11 12
cat_threshold=10248 0 4376576 537001984 16908362 6324224 85 156 105 6 80 929
shrinkage=0.15


Tree=39
num_leaves=8
num_cat=7
split_feature=10 0 1 8 2 10 13
split_gain=5.88918 5.24569 4.57872 3.33161 2.4839 4.06345 2.1517
threshold=0 1 2 3 4 5 6
decision_type=1 1 1 1 1 1 1
left_child=-1 2 3 -2 5 -3 -7
right_child=1 4 -4 -5 -6 6 -8
leaf_value=-0.066966661225947396 0.024033203886617522 0.049546937519334033 0.026926485523889751 -0.066786871508806411 0.057472555296507487 -0.057838717989304247 0.015031816443290486
leaf_weight=15.332836100831628 10.705622598528862 15.534741092473267 25.298779223114252 34.155838463455439 43.813723519444466 14.766716878861187 14.023702483624222
leaf_count=138 100 157 179 385 430 109 102
internal_value=0 0.0707347 -0.124828 -0.297891 0.223264 0.0237843 -0.184127
internal_weight=0 158.299 70.1602 44.8615 88.1389 44.3252 28.7904
internal_count=1600 1462 664 485 798 368 211
cat_boundaries=0 1 2 3 4 5 6 7
cat_threshold=768 86 142 48 71 82 146
shrinkage=0.15


Tree=40
num_leaves=12
num_cat=11
split_feature=14 10 7 13 1 2 3 4 3 4 0
split_gain=5.12241 5.93654 4.33603 3.38239 3.35445 6.476 3.14222 1.90305 1.62146 0.728635 0.0318487
threshold=0 1 2 3 4 5 6 7 8 9 10
decision_type=9 1 1 1 1 1 1 1 1 1 1
left_child=9 -2 3 6 10 -6 -3 -8 -5 -1 -4
right_child=1 2 4 8 5 -7 7 -9 -10 -11 -12
leaf_value=-0.0051618419602313106 -0.084765479167725921 -0.041668005573297626 0.085154016460587442 -0.075067374184785582 0.054458617827512927 -0.05215875953690928 -0.012235246754948227 0.06600994962895225 0.0057627693171484569 0.072851744836729626 0.0045281021205314277
leaf_weight=10.222042465582488 11.800675252452491 8.7696264460682851 15.312322877347468 23.705774918198586 12.737582189962266 19.953181145712733 12.421775400638579 13.374604731798174 13.481402395293115 17.101156693883244 12.486665012314917
leaf_count=106 105 100 127 233 117 144 112 110 116 204 126
internal_value=0 -0.0788997 0.00116448 -0.15562 0.182836 -0.0506063 0.0727801 0.236266 -0.338353 0.334016 0.398118
internal_weight=0 144.044 132.243 71.7532 60.4898 32.6908 34.566 25.7964 37.1872 27.3232 27.799
internal_count=1600 1290 1185 671 514 261 322 222 349 310 253
cat_boundaries=0 6 7 8 9 10 11 12 13 14 15 16
cat_threshold=1762133057 2147485768 536883320 4194304 33563136 16778242 768 86 596 229 617 578 148 150 22 645
shrinkage=0.15


Tree=41
num_leaves=10
num_cat=9
split_feature=9 7 4 11 0 12 2 7 3
split_gain=5.00674 4.55576 3.88726 3.68772 2.93464 1.71502 0.526291 0.187757 0.0523095
threshold=0 1 2 3 4 5 6 7 8
decision_type=1 1 1 1 1 1 1 1 1
left_child=-1 6 3 -3 -5 -4 -2 -6 -7
right_child=1 2 5 4 7 8 -8 -9 -10
leaf_value=-0.059678349307478118 -0.063367069641960594 -0.043761396308432059 -0.0088952618246106487 -0.033638836352049041 0.0062679650416249174 0.084429568314195527 -0.0018730708297465697 0.064504099630177669 0.018237393894720757
leaf_weight=16.833268964663148 11.031612205319105 22.809993060305715 13.83840208686888 9.3351796241477114 16.370655773207545 25.684042340144519 15.158642921596767 13.881719261407854 24.378699189983305
leaf_count=157 126 196 136 115 142 256 141 116 215
internal_value=0 0.0684115 0.149048 -0.0350348 0.141883 0.309216 -0.254182 0.282511 0.403996
internal_weight=0 152.489 126.299 62.3975 39.5876 63.9011 26.1903 30.2524 50.0627
internal_count=1600 1443 1176 569 373 607 267 258 471
cat_boundaries=0 1 2 3 4 5 6 7 8 9
cat_threshold=768 113 212 76 18 528 134 6 665
shrinkage=0.15


Tree=42
num_leaves=10
num_cat=9
split_feature=6 9 3 7 0 13 0 1 8
split_gain=4.99789 4.24017 3.94255 3.90254 3.43839 3.01047 1.17581 0.960363 0.535839
threshold=0 1 2 3 4 5 6 7 8
decision_type=1 1 1 1 1 1 1 1 1
left_child=2 5 3 -1 -3 -2 -7 -5 -4
right_child=1 4 8 7 -6 6 -8 -9 -10
leaf_value=0.038164775509071817 -0.033423452675881163 0.021798513059599626 0.078496384492410809 0.0063792134311760939 -0.07101326625854365 0.066734587437958043 -0.0070983717260464912 -0.062386560253871404 0.0066466759535513658
leaf_weight=15.731398055329917 11.730514293536542 11.44942728243768 22.365283927880228 11.447997556999328 38.281876418739557 13.189887930639086 11.726941218599679 14.718588025309144 16.84261092171073
leaf_count=121 107 102 265 101 350 119 114 175 146
internal_value=0 -0.158684 0.167989 -0.0543699 -0.33049 0.0953299 0.266031 -0.25904 0.368365
internal_weight=0 86.3786 81.1059 41.898 49.7313 36.6473 24.9168 26.1666 39.2079
internal_count=1600 792 808 397 452 340 233 276 411
cat_boundaries=0 1 2 3 4 5 6 7 8 9
cat_threshold=59 59 390 648 864 648 46 313 658
shrinkage=0.15


Tree=43
num_leaves=9
num_cat=8
split_feature=14 6 1 12 3 8 0 9
split_gain=4.76111 5.26814 4.31562 4.52278 2.45644 1.95793 1.74972 1.01305
threshold=0 1 2 3 4 5 6 7
decision_type=9 1 1 1 1 1 1 1
left_child=-1 -2 3 6 -5 -4 -3 -8
right_child=1 2 5 4 -6 -7 7 -9
leaf_value=-0.052940282849133942 -0.050087991389427718 0.016680112702516594 -0.0070841861989750024 0.062942699537408844 -0.012274814426378348 0.068641972082331637 0.0030498196262434382 -0.084398452644365241
leaf_weight=21.351857100613415 17.474196538329124 10.042170908302067 14.927786749787627 17.075210031121969 16.726915734820068 41.960396002978086 11.858039282262324 14.465378104709091
leaf_count=208 163 100 140 153 161 436 112 127
internal_value=0 0.0744706 0.150903 -0.0239292 0.209445 0.337884 -0.239239 -0.366738
internal_weight=0 144.53 127.056 70.1677 33.8021 56.8882 36.3656 26.3234
internal_count=1600 1392 1229 653 314 576 339 239
cat_boundaries=0 6 7 8 9 10 11 12 13
cat_threshold=8200 262144 4376576 537001984 16908362 6324224 128 142 696 572 784 642 538
shrinkage=0.15


Tree=44
num_leaves=9
num_cat=8
split_feature=5 3 12 11 11 4 0 2
split_gain=4.44564 4.23869 4.19203 4.90995 2.99394 2.84733 0.366349 0.130676
threshold=0 1 2 3 4 5 6 7
decision_type=1 1 1 1 1 1 1 1
left_child=6 4 -3 -4 5 -2 -1 -6
right_child=1 2 3 -5 7 -7 -8 -9
leaf_value=0.0048747908230128978 -0.036930123800185531 0.05446339769976493 0.035599988594336031 -0.056562467025178198 -0.0034304459735372858 0.036342820028713467 0.068673857604888283 -0.071714080073675551
leaf_weight=15.820891812443731 11.157840903848408 24.820540937595069 15.598064472898839 19.4936678474769 12.757655099034308 18.177506780251864 13.773116215132179 33.057928266003728
leaf_count=139 120 240 143 174 132 175 135 342
internal_value=0 -0.0819753 0.10866 -0.111912 -0.228867 0.0411315 0.296082 -0.378142
internal_weight=0 135.063 59.9123 35.0917 75.1509 29.3353 29.594 45.8156
internal_count=1600 1326 557 317 769 295 274 474
cat_boundaries=0 1 2 3 4 5 6 7 8
cat_threshold=105 135 7 263 400 28 660 816
shrinkage=0.15


Tree=45
num_leaves=9
num_cat=8
split_feature=14 10 8 9 5 2 5 1
split_gain=4.09169 4.33862 3.8772 5.3282 3.4812 3.0539 2.10243 1.40234
threshold=0 1 2 3 4 5 6 7
decision_type=9 1 1 1 1 1 1 1
left_child=7 4 3 -3 5 -2 -4 -1
right_child=1 2 6 -5 -6 -7 -8 -9
leaf_value=-0.0070873065688301555 -0.051453298196438561 -0.047230357483164856 0.0075151853255470942 0.054001609160561778 0.058391870778228341 0.025527007369204279 -0.069865285096914226 0.073741020704425286
leaf_weight=12.012874558567999 12.838628670200704 11.040704347193239 15.058363340795038 18.423526074737314 21.037521732971072 16.202307118102912 42.313770799897611 14.412739341147246
leaf_count=128 132 106 117 175 188 168 391 195
internal_value=0 -0.0734829 -0.201401 0.0914172 0.144931 -0.0864488 -0.34303 0.300925
internal_weight=0 136.915 86.8364 29.4642 50.0785 29.0409 57.3721 26.4256
internal_count=1600 1277 789 281 488 300 508 323
cat_boundaries=0 6 7 8 9 10 11 12 13
cat_threshold=1762133057 2147485768 537931864 4194304 33563136 17826818 83 26 936 722 22 617 644
shrinkage=0.15


Tree=46
num_leaves=9
num_cat=8
split_feature=0 7 5 4 7 11 12 2
split_gain=4.20782 5.07146 3.77654 3.48101 2.85269 1.4753 1.33803 0.9774
threshold=0 1 2 3 4 5 6 7
decision_type=1 1 1 1 1 1 1 1
left_child=1 2 -1 4 -2 -3 -5 -6
right_child=3 5 -4 6 7 -7 -8 -9
leaf_value=-0.0311212593571739 -0.044803243353717902 0.0056214341567477795 0.049773531334519006 -0.0038858007941074556 0.042519317535949792 -0.069035711815479128 0.079742864895948354 -0.0091070584307055471
leaf_weight=14.565567361190913 15.040131397545338 13.606072467751799 22.924096485599875 12.914044790901242 13.591748169623314 33.993168017826974 21.856626652181149 13.758663069456817
leaf_count=129 111 142 192 131 111 371 313 100
internal_value=0 -0.142334 0.122727 0.161857 -0.0426471 -0.336162 0.365016 0.140424
internal_weight=0 85.0889 37.4897 77.1612 42.3905 47.5992 34.7707 27.3504
internal_count=1600 834 321 766 322 513 444 211
cat_boundaries=0 1 2 3 4 5 6 7 8
cat_threshold=214 810 656 22 274 280 936 657
shrinkage=0.15


Tree=47
num_leaves=9
num_cat=8
split_feature=9 0 8 10 10 12 13 11
split_gain=3.71079 3.45468 4.75541 4.99599 3.42388 3.49478 1.44561 0.474746
threshold=0 1 2 3 4 5 6 7
decision_type=1 1 1 1 1 1 1 1
left_child=-1 2 6 -4 5 -3 -2 -7
right_child=1 4 3 -5 -6 7 -8 -9
leaf_value=-0.051992884804149611 0.010610673218480799 -0.047569039179393542 -0.040698298837637543 0.054657556520378618 0.064777141114653727 -0.003431298816524429 -0.060947733803564323 0.049889904967708523
leaf_weight=15.88045450579375 11.311569315381346 12.912197975441812 11.575904071331022 27.123023411259055 30.420337526127696 11.662740235216914 29.250607997179031 10.25712586194277
leaf_count=157 124 117 109 257 344 100 283 109
internal_value=0 0.0625422 -0.0758191 0.15756 0.218349 -0.0228432 -0.285603 0.195551
internal_weight=0 144.514 79.2611 38.6989 65.2524 34.8321 40.5622 21.9199
internal_count=1600 1443 773 366 670 326 407 209
cat_boundaries=0 1 2 3 4 5 6 7 8
cat_threshold=768 30 900 778 900 530 121 140
shrinkage=0.15


Tree=48
num_leaves=9
num_cat=8
split_feature=6 9 0 8 0 5 3 3
split_gain=3.57878 5.18161 2.72648 3.00108 2.44164 2.42696 1.87593 1.11448
threshold=0 1 2 3 4 5 6 7
decision_type=1 1 1 1 1 1 1 1
left_child=1 2 7 -4 -2 -6 -3 -1
right_child=4 6 3 -5 5 -7 -8 -9
leaf_value=-0.004219784971469135 0.056717363936940018 0.0021628886329817269 0.029770248138976493 -0.049401740953687615 0.034756911666465683 -0.031299839084061219 -0.071940145668894159 0.0698908464315358
leaf_weight=12.976557001471518 25.650808397680521 18.132675839588046 11.633253689855335 15.626696997322144 11.919136309996246 19.583371322602037 29.451178221032023 14.176981844939293
leaf_count=138 259 171 116 163 115 195 287 156
internal_value=0 -0.10753 0.100478 -0.111286 0.184444 -0.026362 -0.321534 0.285804
internal_weight=0 101.997 54.4135 27.26 57.1533 31.5025 47.5839 27.1535
internal_count=1600 1031 573 279 569 310 458 294
cat_boundaries=0 1 2 3 4 5 6 7 8
cat_threshold=902 147 523 145 165 121 524 7
shrinkage=0.15


Tree=49
num_leaves=11
num_cat=10
split_feature=14 10 5 2 12 0 0 6 9 1
split_gain=3.62874 3.96404 3.60283 4.70738 3.55618 3.11169 3.05781 0.694355 2.08361 0.659325
threshold=0 1 2 3 4 5 6 7 8 9
decision_type=9 1 1 1 1 1 1 1 1 1
left_child=9 -2 3 6 5 -4 -3 8 -5 -1
right_child=1 2 4 7 -6 -7 -8 -9 -10 -11
leaf_value=-0.0064050705557487453 -0.071369709781624463 -0.024241778318246348 -0.056964319845165132 0.028185708752065858 0.054419382391307836 0.025878329275643524 0.062474266246726785 -0.073886479917616654 -0.04080573534442572 0.064148312692111242
leaf_weight=9.5908769676461798 10.613297131843863 11.757952911779283 10.571267221122978 10.33024487365037 31.501393479295075 13.801300729624929 12.486491404473783 21.083006870932877 10.41030629258603 16.0448890067637
leaf_count=117 105 104 105 103 270 134 127 221 110 204
internal_value=0 -0.0677 0.00118821 -0.147155 0.172308 -0.107817 0.170806 -0.328866 -0.0563501 0.289083
internal_weight=0 132.555 121.942 66.068 55.874 24.3726 24.2444 41.8236 20.7406 25.6358
internal_count=1600 1279 1174 665 509 239 231 434 213 321
cat_boundaries=0 6 7 8 9 10 11 12 13 14 15
cat_threshold=1762133057 2147485768 536883320 4194304 33563136 17826818 768 658 992 752 21 150 370 38 648
shrinkage=0.15


Tree=50
num_leaves=8
num_cat=7
split_feature=7 8 0 11 1 0 12
split_gain=3.44556 3.97706 3.30696 2.57667 2.02163 3.14998 1.72506
threshold=0 1 2 3 4 5 6
decision_type=1 1 1 1 1 1 1
left_child=1 -1 -3 -2 5 -5 -7
right_child=3 2 -4 4 -6 6 -8
leaf_value=-0.060163888711352337 -0.030185836832123815 -0.03712196854785673 0.039712685097474075 -0.040008195865059132 0.058458343184222022 0.04829562852170486 -0.011370157133007489
leaf_weight=27.908827941864729 13.85121593531221 11.807866262271999 22.267739990726113 13.357813837006686 25.973099380731583 24.936755152419209 16.628714371472597
leaf_count=275 119 156 226 159 295 224 146
internal_value=0 -0.167523 0.0713755 0.11666 0.187242 0.04621 0.178998
internal_weight=0 61.9844 34.0756 94.7476 80.8964 54.9233 41.5655
internal_count=1600 657 382 943 824 529 370
cat_boundaries=0 1 2 3 4 5 6 7
cat_threshold=85 596 148 584 654 18 134
shrinkage=0.15


Tree=51
num_leaves=9
num_cat=8
split_feature=2 1 5 13 0 13 0 0
split_gain=3.43166 4.49266 4.84678 3.17174 2.14847 1.82754 1.81533 0.564986
threshold=0 1 2 3 4 5 6 7
decision_type=1 1 1 1 1 1 1 1
left_child=1 6 7 4 -2 -4 -1 -3
right_child=3 2 5 -5 -6 -7 -8 -9
leaf_value=0.0072512041626994119 0.028906824080077775 -0.058796682003101002 -0.01191819728659139 0.063255577344310879 -0.041187449207484989 0.060791991708115736 -0.067009191228194057 -0.00012004355997271355
leaf_weight=14.645702200010417 9.3715957477688772 9.7820526733994466 12.628161665052174 22.771591974422336 12.727391513995828 27.493633423466235 30.988591742701828 14.640363151207568
leaf_count=151 103 101 103 263 129 281 347 122
internal_value=0 -0.0956551 0.0754406 0.206167 -0.078115 0.267299 -0.307712 -0.225837
internal_weight=0 110.179 64.5442 44.8706 22.099 40.1218 45.6343 24.4224
internal_count=1600 1105 607 495 232 384 498 223
cat_boundaries=0 1 2 3 4 5 6 7 8
cat_threshold=151 642 400 388 517 672 515 21
shrinkage=0.15


Tree=52
num_leaves=11
num_cat=10
split_feature=6 9 5 5 12 11 12 8 4 6
split_gain=3.35269 3.67684 4.88387 3.41516 3.3417 2.54269 1.96452 1.90776 1.75655 0.947944
threshold=0 1 2 3 4 5 6 7 8 9
decision_type=1 1 1 1 1 1 1 1 1 1
left_child=8 2 5 4 -3 -2 -5 -8 -1 -4
right_child=1 3 9 6 -6 -7 7 -9 -10 -11
leaf_value=0.01533472180138481 0.057801039898156326 0.035170045200421288 0.0025213454619478757 0.088565943246095361 -0.048307160326131922 -0.022812027496125219 0.035171225596653727 -0.027769061354005756 -0.060663741012178397 -0.084177059548348004
leaf_weight=10.158272564411162 13.84468349535018 10.885757687501608 11.931707743555306 20.656782069243491 14.630481517873706 10.761754005216064 15.241803504526613 10.396974378265442 20.575504273176197 14.331949535757305
leaf_count=104 142 108 143 216 167 105 129 116 222 148
internal_value=0 0.0750159 -0.11919 0.210341 -0.0854587 0.17427 0.359593 0.0601181 -0.252976 -0.366371
internal_weight=0 122.682 50.8701 71.8118 25.5162 24.6064 46.2956 25.6388 30.7338 26.2637
internal_count=1600 1274 538 736 275 247 461 245 326 291
cat_boundaries=0 1 2 3 4 5 6 7 8 9 10
cat_threshold=960 912 141 130 400 402 326 29 673 18
shrinkage=0.15


Tree=53
num_leaves=10
num_cat=9
split_feature=14 10 3 5 0 5 9 1 10
split_gain=3.2285 3.72732 2.94088 3.87673 3.4868 2.59754 2.49996 0.812799 0.54984
threshold=0 1 2 3 4 5 6 7 8
decision_type=9 1 1 1 1 1 1 1 1
left_child=7 -2 3 -3 6 -4 -5 -1 -6
right_child=1 2 5 4 8 -7 -8 -9 -10
leaf_value=-0.0074930244574745895 -0.071450388699775713 0.039066160178664246 -0.016715943215848524 -0.028058954472648858 0.0046592145689933447 0.052041649555831453 0.041379270945802633 0.062748957828981627 -0.083389663027053723
leaf_weight=9.8228097883984429 9.7054385207593423 13.308702066540716 17.088801654055715 14.077214071527122 9.5460851378738898 26.604844410903752 13.769609650596978 14.768110132776203 23.791529926005747
leaf_count=117 103 122 181 105 125 250 122 195 280
internal_value=0 -0.0707811 -0.00291575 -0.119002 -0.22653 0.180302 0.0542516 0.270907 -0.419465
internal_weight=0 127.892 118.187 74.4931 61.1844 43.6936 27.8468 24.5909 33.3376
internal_count=1600 1288 1185 754 632 431 227 312 405
cat_boundaries=0 6 7 8 9 10 11 12 13 14
cat_threshold=1762132993 2147485768 536875256 4194304 33563136 17826818 768 167 360 744 50 532 648 225
shrinkage=0.15


Tree=54
num_leaves=8
num_cat=7
split_feature=14 7 9 2 1 6 6
split_gain=2.99859 3.41265 3.79577 3.06807 2.48486 2.15099 0.903446
threshold=0 1 2 3 4 5 6
decision_type=9 1 1 1 1 1 1
left_child=-1 3 4 -2 -3 -4 -5
right_child=1 2 5 6 -6 -7 -8
leaf_value=-0.042927440691285006 -0.047979311306971112 -0.043373181711206243 -0.014189737426341557 0.047716451878817928 0.021921490857308264 0.067939344963237516 -0.010228454479733915
leaf_weight=20.592889724299312 27.74233706574887 16.842080563306808 11.319558676797895 7.2802749099209905 18.46525623369962 38.420648697763681 10.55055512674153
leaf_count=207 283 203 145 100 184 368 110
internal_value=0 0.0592812 0.171628 -0.143534 -0.0794905 0.333349 0.147164
internal_weight=0 130.621 85.0475 45.5732 35.3073 49.7402 17.8308
internal_count=1600 1393 900 493 387 513 210
cat_boundaries=0 6 7 8 9 10 11 12
cat_threshold=10248 537133056 4376576 537003008 10 6324224 209 912 150 643 386 18
shrinkage=0.15


Tree=55
num_leaves=10
num_cat=9
split_feature=4 7 9 1 8 13 0 3 13
split_gain=2.82341 3.21578 3.6475 2.00056 1.9775 1.81667 1.3695 0.662585 0.58812
threshold=0 1 2 3 4 5 6 7 8
decision_type=1 1 1 1 1 1 1 1 1
left_child=1 3 7 -1 -2 -6 -4 -3 -5
right_child=4 2 6 8 5 -7 -8 -9 -10
leaf_value=-0.022580448747820059 -0.017636973102630557 -0.0015715404728840919 -0.016937449129247144 0.058409127261141128 -0.0099810909865000984 0.073854571005415912 0.043427057485110138 -0.070740744323113725 -0.0049504215820608136
leaf_weight=12.394688554108141 12.863804258406162 14.360871381126342 10.617232834920285 15.847943458706139 11.947238872759042 18.751052903011445 10.821535761468114 32.4889857028611 10.446622155606748
leaf_count=114 113 126 122 149 133 248 110 372 113
internal_value=0 -0.0903942 -0.211948 0.123621 0.186835 0.311944 0.117692 -0.356962 0.258723
internal_weight=0 106.978 68.2886 38.6893 43.5621 30.6983 21.4388 46.8499 26.2946
internal_count=1600 1106 730 376 494 381 232 498 262
cat_boundaries=0 1 2 3 4 5 6 7 8 9
cat_threshold=158 680 692 266 4 176 149 841 134
shrinkage=0.15


Tree=56
num_leaves=9
num_cat=8
split_feature=0 10 12 4 5 13 9 7
split_gain=2.8018 3.16137 2.76799 2.49552 2.41326 1.96261 1.91015 1.63135
threshold=0 1 2 3 4 5 6 7
decision_type=1 1 1 1 1 1 1 1
left_child=3 2 4 -1 -2 -5 -3 -7
right_child=1 6 -4 5 -6 7 -8 -9
leaf_value=0.024704873757743835 0.055897963356627035 -0.012943321204901022 -0.043017275210293526 0.02045550165730585 -0.018021949005686239 0.0072320371211256427 0.067407489275031943 -0.071117442098667868
leaf_weight=14.621653499081729 11.117204732261596 11.276894340291618 19.206950537860394 9.4497651811689121 15.28339876746759 13.012652692385016 25.892730576917529 29.519089900888503
leaf_count=175 118 105 176 105 140 108 319 354
internal_value=0 0.115861 -0.0637384 -0.142548 0.132736 -0.2416 0.303026 -0.335552
internal_weight=0 82.7772 45.6076 66.6032 26.4006 51.9815 37.1696 42.5317
internal_count=1600 858 434 742 258 567 424 462
cat_boundaries=0 1 2 3 4 5 6 7 8
cat_threshold=86 900 205 528 58 80 785 872
shrinkage=0.15


Tree=57
num_leaves=11
num_cat=10
split_feature=14 5 2 12 11 9 4 3 10 0
split_gain=2.77236 2.75972 2.70699 3.22339 3.09816 2.00511 0.734022 0.31531 0.20482 0.071493
threshold=0 1 2 3 4 5 6 7 8 9
decision_type=9 1 1 1 1 1 1 1 1 1
left_child=6 9 3 -3 5 -4 -1 -5 -6 -2
right_child=1 2 4 7 8 -7 -8 -9 -10 -11
leaf_value=-0.0070981833486084443 0.047991846818892549 -0.030185400661100748 0.042347652959615782 -0.0052536893524133283 3.2263382123473996e-05 -0.022154164038173316 0.061712210444235513 0.070446502566423139 -0.07086193246018728 -0.00057993741398625987
leaf_weight=9.7125622709281725 10.586654499173163 14.06205898337066 10.641892776824532 8.5584471374750155 10.917477963957934 14.857299253344538 13.150393345393242 10.410731623880563 34.868136255536228 10.21708190534264
leaf_count=121 100 146 101 101 118 157 188 108 358 102
internal_value=0 -0.0624146 -0.130707 0.0951311 -0.234183 0.0607419 0.261437 0.308458 -0.379879 0.211288
internal_weight=0 125.12 104.316 33.0312 71.2848 25.4992 22.863 18.9692 45.7856 20.8037
internal_count=1600 1291 1089 355 734 258 309 209 476 202
cat_boundaries=0 6 7 8 9 10 11 12 13 14 15
cat_threshold=1762132993 2214594568 1060984 4194304 33563136 17826818 105 816 282 144 19 14 135 99 45
shrinkage=0.15


Tree=58
num_leaves=9
num_cat=8
split_feature=0 5 3 13 9 1 12 2
split_gain=2.59347 3.28082 4.49574 2.97514 1.63301 1.53264 1.22255 1.15734
threshold=0 1 2 3 4 5 6 7
decision_type=1 1 1 1 1 1 1 1
left_child=6 -2 3 -3 -4 -5 -1 -6
right_child=1 2 4 5 7 -7 -8 -9
leaf_value=-0.075421784990486587 0.048664898463868476 -0.055383064235796399 -0.015345770066344334 -0.026511433635968751 -0.0042346804910497809 0.032410037587631176 0.0066681493269174054 0.068760305352751058
leaf_weight=7.1646453961730003 25.977022785693407 33.080731151159853 12.531840673647819 7.9565863916650414 13.232218024320899 16.570138432551179 11.482447850052269 19.016247302759439
leaf_count=106 273 352 123 100 127 161 133 225
internal_value=0 0.0626834 -0.0266839 -0.197302 0.188756 0.0743548 -0.267936 0.299306
internal_weight=0 128.365 102.388 57.6075 44.7803 24.5267 18.6471 32.2485
internal_count=1600 1361 1088 613 475 261 239 352
cat_boundaries=0 1 2 3 4 5 6 7 8
cat_threshold=16 361 135 154 568 51 530 334
shrinkage=0.15


Tree=59
num_leaves=9
num_cat=8
split_feature=0 10 4 12 2 10 9 9
split_gain=2.43799 2.38638 2.32766 2.30508 1.7112 1.7047 1.3146 1.13475
threshold=0 1 2 3 4 5 6 7
decision_type=1 1 1 1 1 1 1 1
left_child=2 3 -1 4 -2 -4 -3 -7
right_child=1 6 5 -5 -6 7 -8 -9
leaf_value=0.021347555386844182 -0.018341756821010389 -0.01097555930166663 0.017978473384938017 -0.037425951656045189 0.045738209307773184 0.0076438988702380193 0.06056938796340848 -0.068959163748032778
leaf_weight=17.395238186232746 11.670300343539564 10.458078528754411 9.6098285056650621 19.126994261518121 14.31416861061007 10.759588979184629 25.566002677194774 27.035357269458469
leaf_count=197 113 104 120 176 145 110 320 315
internal_value=0 0.11369 -0.129935 -0.0454219 0.132393 -0.237226 0.279516 -0.3341
internal_weight=0 81.1355 64.8 45.1115 25.9845 47.4048 36.0241 37.7949
internal_count=1600 858 742 434 258 545 424 425
cat_boundaries=0 1 2 3 4 5 6 7 8
cat_threshold=86 900 784 205 75 129 593 11
shrinkage=0.15


Tree=60
num_leaves=9
num_cat=8
split_feature=4 0 7 0 8 0 9 8
split_gain=2.42551 2.62105 2.38288 2.3796 1.98028 1.53004 1.47637 0.0940895
threshold=0 1 2 3 4 5 6 7
decision_type=1 1 1 1 1 1 1 1
left_child=2 7 4 -4 5 -1 -3 -2
right_child=1 6 3 -5 -6 -7 -8 -9
leaf_value=-0.030657019982462445 -0.0029312477027615613 0.01910785024777498 0.037068803639954781 -0.026159282926698911 -0.056164503054326305 0.027377948134165987 -0.035094955659917298 0.070937955601177119
leaf_weight=7.5096296654082835 8.8374329875223321 14.278302652761338 24.449783898890018 14.404276918619869 29.084648298099637 15.46933977212757 13.700314007699491 17.161093971226368
leaf_count=117 101 101 209 171 328 156 112 305
internal_value=0 0.156689 -0.0922237 0.0871458 -0.218557 0.032446 -0.0645724 0.346595
internal_weight=0 53.9771 90.9177 38.8541 52.0636 22.979 27.9786 25.9985
internal_count=1600 619 981 380 601 273 213 406
cat_boundaries=0 1 2 3 4 5 6 7 8
cat_threshold=150 555 87 173 170 134 52 516
shrinkage=0.15


Tree=61
num_leaves=9
num_cat=8
split_feature=6 5 9 0 13 4 9 3
split_gain=2.40166 2.70243 3.00594 2.73988 3.19262 1.49825 1.18537 0.838179
threshold=0 1 2 3 4 5 6 7
decision_type=1 1 1 1 1 1 1 1
left_child=5 6 7 -4 -5 -1 -2 -3
right_child=1 2 3 4 -6 -7 -8 -9
leaf_value=0.016053227097814201 -0.010187785876903954 -0.071860768939348951 -0.035973457570798298 -0.019610732560558147 0.055483047315148359 -0.052837786174934905 0.055438163945557263 0.0100096226519076
leaf_weight=9.4544084900990111 10.873861593194304 11.357297264505176 11.476932493038474 16.957384355831891 27.989717881660908 19.422583275940273 27.860144879668951 8.2465167730115372
leaf_count=104 103 119 121 195 330 222 283 123
internal_value=0 0.0716383 -0.0422793 0.0809478 0.191594 -0.213034 0.258032 -0.30449
internal_weight=0 114.762 76.0278 56.424 44.9471 28.877 38.734 19.6038
internal_count=1600 1274 888 646 525 326 386 242
cat_boundaries=0 1 2 3 4 5 6 7 8
cat_threshold=960 13 896 130 130 673 561 61
shrinkage=0.15


Tree=62
num_leaves=10
num_cat=9
split_feature=2 1 7 9 8 11 13 0 5
split_gain=2.35965 2.69939 3.47643 2.17169 1.8471 1.66418 1.19305 0.582267 0.0866562
threshold=0 1 2 3 4 5 6 7 8
decision_type=1 1 1 1 1 1 1 1 1
left_child=6 3 4 -2 -3 7 -1 -5 -6
right_child=1 2 -4 5 8 -7 -8 -9 -10
leaf_value=-0.014554433535719473 0.022462288658285593 0.02511519462615629 0.048605216162706001 -0.01872392420185336 -0.056178467677434819 -0.069139207162184607 0.048365965695663926 0.018056428693086095 -0.0010830913105999232
leaf_weight=9.0253081433475018 10.460005201399326 9.4738019667565805 22.356693014502525 8.3655746234580857 11.892028115689753 27.190988357178867 22.177131850738078 10.554938663728537 11.487622732762249
leaf_count=106 134 101 216 104 147 283 299 104 106
internal_value=0 -0.0698433 0.0826721 -0.208748 -0.118862 -0.302265 0.207006 0.00628692 -0.250279
internal_weight=0 111.782 55.2101 56.5715 32.8535 46.1115 31.2024 18.9205 23.3797
internal_count=1600 1195 570 625 354 491 405 208 253
cat_boundaries=0 1 2 3 4 5 6 7 8 9
cat_threshold=552 650 87 2 137 276 4 28 146
shrinkage=0.15


Tree=63
num_leaves=10
num_cat=9
split_feature=14 10 0 3 13 7 5 1 0
split_gain=2.39123 2.68516 2.31738 2.80443 3.25346 1.66229 1.48308 0.767556 0.551315
threshold=0 1 2 3 4 5 6 7 8
decision_type=9 1 1 1 1 1 1 1 1
left_child=7 -2 -3 4 8 -6 -5 -1 -4
right_child=1 2 3 6 5 -7 -8 -9 -10
leaf_value=-0.0091495341969329916 -0.061634823888622847 -0.043972134497037407 0.0031036411694832624 -0.0065645790441519235 0.055502325567525178 -0.014076473100716337 0.055839892134659418 0.057688787182036141 -0.054389329985831743
leaf_weight=8.8823845381848496 8.9445918290875834 12.406250430271029 11.917463946621863 16.26918020285666 10.83469146164134 12.098050196655096 25.291462214197963 13.475659776479008 21.887388114817441
leaf_count=115 103 175 106 180 111 128 253 197 232
internal_value=0 -0.060454 -0.000443167 0.0601565 -0.0820126 0.171119 0.232506 0.243426 -0.253596
internal_weight=0 119.649 110.704 98.2982 56.7376 22.9327 41.5606 22.358 33.8049
internal_count=1600 1288 1185 1010 577 239 433 312 338
cat_boundaries=0 6 7 8 9 10 11 12 13 14
cat_threshold=1762133057 2147485704 536883416 4194304 33563136 17826818 768 16 135 154 642 50 648 616
shrinkage=0.15


Tree=64
num_leaves=10
num_cat=9
split_feature=14 7 0 4 3 2 3 1 1
split_gain=2.34359 2.61022 3.06108 3.40024 2.67974 1.85571 0.750446 0.551655 0.123521
threshold=0 1 2 3 4 5 6 7 8
decision_type=9 1 1 1 1 1 1 1 1
left_child=8 4 6 -4 -2 -6 7 -3 -1
right_child=1 2 3 -5 5 -7 -8 -9 -10
leaf_value=0.0012723691903384195 0.030464353246392746 -0.018033633562843012 0.035430225654350493 -0.04442732159421707 0.016730088278077038 -0.062032211916234078 0.061421875276344837 0.019298688283145651 -0.059082726631149482
leaf_weight=9.9351049163378757 10.830745811574159 7.9501241380348802 11.963803180959074 19.130526123568419 9.6146171786822396 21.59684706479311 32.403367248829454 7.7088005654513818 9.573436086066069
leaf_count=109 141 101 143 200 130 217 352 104 103
internal_value=0 0.0563655 0.157516 -0.0837113 -0.127752 -0.263983 0.301119 0.0046899 -0.255539
internal_weight=0 121.199 79.1566 31.0943 42.0422 31.2115 48.0623 15.6589 19.5085
internal_count=1600 1388 900 343 488 347 557 205 212
cat_boundaries=0 6 7 8 9 10 11 12 13 14
cat_threshold=2105352 570687488 149505 537001984 16777226 6324224 209 647 929 514 553 642 138 173
shrinkage=0.15


Tree=65
num_leaves=10
num_cat=9
split_feature=14 10 7 2 1 8 2 4 1
split_gain=2.09634 2.6904 2.22256 1.55937 2.69827 1.50189 1.80758 1.42517 0.899153
threshold=0 1 2 3 4 5 6 7 8
decision_type=9 1 1 1 1 1 1 1 1
left_child=8 -2 5 -4 -5 6 -3 -7 -1
right_child=1 2 3 4 -6 7 -8 -9 -10
leaf_value=-0.0080514281518357551 -0.062403329929762608 -0.023577907932563525 0.048291121287568441 0.034692498123135795 -0.03519992369925596 0.011930601886053965 0.038386689789068694 -0.054761586969290281 0.05754156523818385
leaf_weight=10.478761715348808 8.393352182582019 12.08094577025622 18.936992114875466 13.395470053888856 16.71760204713792 11.391245659440754 12.548955621197821 24.011633615940809 11.867671503685417
leaf_count=127 100 142 215 139 146 104 173 264 190
internal_value=0 -0.0597016 0.000348564 0.143222 -0.0214079 -0.120169 0.0664084 -0.236009 0.225355
internal_weight=0 117.476 109.083 49.0501 30.1131 60.0328 24.6299 35.4029 22.3464
internal_count=1600 1283 1183 500 285 683 315 368 317
cat_boundaries=0 6 7 8 9 10 11 12 13 14
cat_threshold=688391233 2147485704 537923832 4194304 33825280 17826818 768 86 561 229 138 133 872 644
shrinkage=0.15


Tree=66
num_leaves=9
num_cat=8
split_feature=0 10 4 3 13 2 9 4
split_gain=1.99092 1.96775 1.90128 3.03054 1.8803 2.03292 1.10633 0.242669
threshold=0 1 2 3 4 5 6 7
decision_type=1 1 1 1 1 1 1 1
left_child=2 -2 6 -4 5 -3 -1 -6
right_child=1 4 3 -5 7 -7 -8 -9
leaf_value=0.0037334112457268437 -0.02408210416290147 -0.030087253780762113 0.049261125546165532 -0.025460481653659696 0.001705501834260768 0.030639289648165251 -0.065546173367036664 0.069479938394571616
leaf_weight=13.886543836910276 15.510871016420422 17.48538776114583 11.882998436223714 19.015597598161552 12.312412622850387 12.800087234005334 17.006363177904863 19.00957264285535
leaf_count=166 170 153 139 177 101 157 260 277
internal_value=0 0.100316 -0.124597 0.0552961 0.179242 -0.0212453 -0.274047 0.331323
internal_weight=0 77.1183 61.7915 30.8986 61.6075 30.2855 30.8929 31.322
internal_count=1600 858 742 316 688 310 426 378
cat_boundaries=0 1 2 3 4 5 6 7 8
cat_threshold=86 640 135 148 248 149 51 132
shrinkage=0.15


Tree=67
num_leaves=11
num_cat=10
split_feature=14 7 4 3 2 12 3 9 6 9
split_gain=1.99556 2.28238 2.51265 2.21061 2.11689 1.74925 1.42228 1.14015 1.01711 0.0088145
threshold=0 1 2 3 4 5 6 7 8 9
decision_type=9 1 1 1 1 1 1 1 1 1
left_child=-1 4 5 7 9 -3 -7 -4 -6 -2
right_child=1 2 3 -5 8 6 -8 -9 -10 -11
leaf_value=-0.035505086127153272 0.0019613487056016534 -0.040862514337622148 -0.029848038128123217 0.070891084282915059 0.045553854000327181 0.040994147106954155 -0.019186030047570544 0.021313930482766964 -0.013464656798480634 -0.0564472989242049
leaf_weight=19.163385034073144 8.750970693305133 11.881617459468542 8.5693380082957429 24.628975048195571 6.8228573994711041 11.368000008398665 10.038980065379294 11.213594092056157 9.4941233512945491 15.991785946302118
leaf_count=211 111 132 108 260 100 135 119 146 107 171
internal_value=0 0.0529979 0.148242 0.288267 -0.120973 -0.0620092 0.104328 -0.0228572 0.12764 -0.274472
internal_weight=0 118.76 77.7005 44.4119 41.0597 33.2886 21.407 19.7829 16.317 24.7428
internal_count=1600 1389 900 514 489 386 254 254 207 282
cat_boundaries=0 6 7 8 9 10 11 12 13 14 15
cat_threshold=8200 570687488 149505 537001984 16777290 6324224 209 204 738 150 522 716 788 18 274
shrinkage=0.15


Tree=68
num_leaves=8
num_cat=7
split_feature=7 8 0 10 12 11 9
split_gain=1.92307 3.39695 1.82291 1.65472 2.62822 1.50849 0.923168
threshold=0 1 2 3 4 5 6
decision_type=1 1 1 1 1 1 1
left_child=3 2 -2 -1 -5 -6 -7
right_child=1 -3 -4 4 5 6 -8
leaf_value=-0.02317293038962974 -0.024678077800132928 -0.048288972198402537 0.041095495607063735 -0.03311162129596576 -0.0095036863824051552 -0.0058108830825730311 0.066987178042541076
leaf_weight=14.382044418249277 8.8254131902940554 30.536199577152729 17.238267572596673 8.7690457915887254 14.570078175049273 11.012243603821842 31.989535766188055
leaf_count=181 125 359 211 101 152 126 345
internal_value=0 -0.130396 0.121044 0.0933742 0.160306 0.242424 0.338437
internal_weight=0 56.5999 26.0637 80.7229 66.3409 57.5719 43.0018
internal_count=1600 695 336 905 724 623 471
cat_boundaries=0 1 2 3 4 5 6 7
cat_threshold=906 170 134 514 521 593 624
shrinkage=0.15


Tree=69
num_leaves=9
num_cat=8
split_feature=14 10 8 9 0 11 5 1
split_gain=1.88529 1.91975 2.42547 3.15571 2.06935 2.30935 1.42227 0.669278
threshold=0 1 2 3 4 5 6 7
decision_type=9 1 1 1 1 1 1 1
left_child=7 4 3 -3 5 -2 -4 -1
right_child=1 2 6 -5 -6 -7 -8 -9
leaf_value=-0.0061699505725469807 0.032479507236525089 -0.037042779750236253 0.002846946376634078 0.045561420084063449 0.044662624087418806 -0.039631550270127804 -0.060769581153322996 0.054145307915541285
leaf_weight=10.57195741124451 8.1059290454722923 9.0469781849533302 17.706355055328459 16.083392818458382 17.451204548589885 16.313599352724854 30.052247022045776 11.177311359206216
leaf_count=132 106 106 177 175 200 192 320 192
internal_value=0 -0.0588315 -0.150582 0.0916289 0.0991266 -0.0880851 -0.27183 0.21412
internal_weight=0 114.76 72.889 25.1304 41.8707 24.4195 47.7586 21.7493
internal_count=1600 1276 778 281 498 298 497 324
cat_boundaries=0 6 7 8 9 10 11 12 13
cat_threshold=1762133057 2147485704 537931992 4194304 33563136 17826818 83 26 936 279 6 744 644
shrinkage=0.15


Tree=70
num_leaves=10
num_cat=9
split_feature=2 13 1 0 1 1 0 9 10
split_gain=1.85387 2.79253 2.53705 2.20309 1.99371 1.56704 0.354082 0.48281 0.326634
threshold=0 1 2 3 4 5 6 7 8
decision_type=1 1 1 1 1 1 1 1 1
left_child=1 2 -1 8 -5 -3 -7 -8 -2
right_child=3 5 -4 4 -6 6 7 -9 -10
leaf_value=-0.025551859567499949 0.0031914438303555889 0.015644414047846056 0.057541910605179977 -0.047005804728448196 0.020559627870852595 -0.059399147872724593 -0.023929824248028326 0.010648414286789268 0.062904009829894705
leaf_weight=9.145929526537655 14.682630236726252 12.236120092216877 12.639759847428651 10.01644118176773 13.257469478528948 26.430374344578013 10.292873697821049 11.162829870823773 15.938281528186055
leaf_count=101 173 113 139 104 137 355 101 107 270
internal_value=0 -0.0915986 0.170626 0.13018 -0.0927101 -0.1974 -0.279191 -0.0551578 0.280708
internal_weight=0 81.9079 21.7857 53.8948 23.2739 60.1222 47.8861 21.4557 30.6209
internal_count=1600 916 240 684 241 676 563 208 443
cat_boundaries=0 1 2 3 4 5 6 7 8 9
cat_threshold=150 4 386 613 532 336 213 532 549
shrinkage=0.15


Tree=71
num_leaves=10
num_cat=9
split_feature=4 12 5 11 12 1 12 13 7
split_gain=1.71769 2.58743 2.10505 1.61835 1.8862 3.2252 1.81326 1.31642 1.12465
threshold=0 1 2 3 4 5 6 7 8
decision_type=1 1 1 1 1 1 1 1 1
left_child=3 8 -3 6 5 -5 -1 -4 -2
right_child=1 2 7 4 -6 -7 -8 -9 -10
leaf_value=-0.026396450696828031 -0.0088691808264145591 0.031409551865091964 0.015675901346511711 -0.044236568987262512 -0.060764342403731006 0.038504705289464834 0.041106720735124148 -0.050485528326314859 0.059744996586260424
leaf_weight=8.0284047457389516 10.896533946739508 9.6056365594267827 8.8787406254559773 8.8542451479006541 19.196440006606281 14.377738819923254 12.603628991637381 19.152999266982079 22.975712949410081
leaf_count=102 164 108 105 141 227 129 143 223 258
internal_value=0 0.100171 -0.0783781 -0.110978 -0.212288 0.0209859 0.0986495 -0.20612 0.271212
internal_weight=0 71.5096 37.6374 63.0605 42.4284 23.232 20.632 28.0317 33.8722
internal_count=1600 858 436 742 497 270 245 328 422
cat_boundaries=0 1 2 3 4 5 6 7 8 9
cat_threshold=148 14 200 274 242 134 138 537 530
shrinkage=0.15


Tree=72
num_leaves=10
num_cat=9
split_feature=0 3 4 3 9 8 3 2 1
split_gain=1.6926 1.77884 1.54829 2.66339 1.47431 2.15134 1.32458 0.815331 0.722442
threshold=0 1 2 3 4 5 6 7 8
decision_type=1 1 1 1 1 1 1 1 1
left_child=2 8 3 -1 7 -6 -4 -3 -2
right_child=1 4 6 -5 5 -7 -8 -9 -10
leaf_value=0.046157402713931525 -0.0078267996641871816 -0.015211681862742873 0.012361160976070058 -0.028248147730787709 0.021950645540273529 -0.045900581340534048 -0.053901811725677123 0.044436078224245071 0.059816214398903084
leaf_weight=11.994643712416289 9.2906566872261447 6.3917368911206722 10.5567517534364 13.031893555074932 11.85480220383033 19.822783798910681 23.807670592330396 10.005253698676826 16.817064329516146
leaf_count=105 108 104 119 172 113 169 346 122 242
internal_value=0 0.0953141 -0.115633 0.0693964 -0.0286467 -0.142228 -0.235653 0.161536 0.268292
internal_weight=0 74.1823 59.391 25.0265 48.0746 31.6776 34.3644 16.397 26.1077
internal_count=1600 858 742 277 508 282 465 226 350
cat_boundaries=0 1 2 3 4 5 6 7 8 9
cat_threshold=86 586 856 564 91 152 137 169 772
shrinkage=0.15


Tree=73
num_leaves=10
num_cat=9
split_feature=14 6 0 5 2 5 12 4 2
split_gain=1.71782 2.22905 2.78867 2.67149 2.62744 2.35194 1.95003 1.03436 1.01224
threshold=0 1 2 3 4 5 6 7 8
decision_type=9 1 1 1 1 1 1 1 1
left_child=7 6 5 -4 -5 -3 8 -1 -2
right_child=1 2 3 4 -6 -7 -8 -9 -10
leaf_value=-0.01084290978010834 -0.0074499068637834355 0.022402684490948201 -0.040727542051501975 -0.022631710806884416 0.057339791985821481 -0.063950131802947702 -0.022522080596388574 0.0564852964569117 0.069213549145188707
leaf_weight=9.5915019582025689 10.425674193538724 8.3812441814225149 8.3152934894897026 11.030825193505732 18.708872020244602 31.982289818814024 10.696084482129661 11.192173375282438 12.141652645077558
leaf_count=130 102 108 110 112 215 367 122 190 144
internal_value=0 -0.0511996 -0.139392 0.0588576 0.19631 -0.300877 0.140876 0.213234 0.28256
internal_weight=0 111.682 78.4185 38.055 29.7397 40.3635 33.2634 20.7837 22.5673
internal_count=1600 1280 912 437 327 475 368 320 246
cat_boundaries=0 6 7 8 9 10 11 12 13 14
cat_threshold=1762133057 2214594568 1060952 4194304 33825280 17826818 113 149 322 70 266 398 14 172
shrinkage=0.15


Tree=74
num_leaves=10
num_cat=9
split_feature=6 5 6 3 0 4 9 0 12
split_gain=1.83621 2.13374 2.12744 1.8339 1.82038 1.32201 0.633787 0.584419 0.408314
threshold=0 1 2 3 4 5 6 7 8
decision_type=1 1 1 1 1 1 1 1 1
left_child=5 6 4 7 -3 -1 -2 -4 -5
right_child=1 2 3 8 -6 -7 -8 -9 -10
leaf_value=0.013797450722419996 -0.0071121182600710434 0.020161961285918389 -0.039122619399035434 -0.0081603174868405837 -0.053380813932310991 -0.050845225654398661 0.0494462944197612 0.0088767702553566724 0.053188230558559278
leaf_weight=10.277035055682061 9.9097385653294605 8.7172596482560021 7.0048532797954977 7.4750115419737995 20.337006953544918 16.040867678355429 25.613178484840319 9.6771285319700855 16.306466140318665
leaf_count=126 103 104 115 109 240 200 283 114 206
internal_value=0 0.0662542 -0.0399114 0.101194 -0.212019 -0.191693 0.237146 -0.122581 0.247985
internal_weight=0 105.041 69.5177 40.4635 29.0543 26.3179 35.5229 16.682 23.7815
internal_count=1600 1274 888 544 344 326 386 229 315
cat_boundaries=0 1 2 3 4 5 6 7 8 9
cat_threshold=960 13 5 14 356 674 561 19 587
shrinkage=0.15


Tree=75
num_leaves=9
num_cat=8
split_feature=7 8 0 5 9 12 11 0
split_gain=1.66999 2.64928 1.70163 1.54324 1.57684 1.4586 1.31853 1.20987
threshold=0 1 2 3 4 5 6 7
decision_type=1 1 1 1 1 1 1 1
left_child=3 2 -2 6 5 -5 7 -1
right_child=1 -3 -4 4 -6 -7 -8 -9
leaf_value=0.040559715880295798 -0.025498007323543685 -0.045890133838584472 0.035653116784255923 0.070848119552061675 -0.011920967969131184 -0.0048799273746953494 -0.038896017938256526 -0.017996328915700702
leaf_weight=7.571510238805784 9.0183971896767599 26.469711430370808 18.305681664496664 19.629365907981992 15.130968688521532 14.084658117033539 11.445542019093411 9.285345184151085
leaf_count=114 136 322 237 232 170 152 134 103
internal_value=0 -0.12011 0.0936401 0.0928352 0.190565 0.302215 -0.0815469 0.0907602
internal_weight=0 53.7938 27.3241 77.1474 48.845 33.714 28.3024 16.8569
internal_count=1600 695 373 905 554 384 351 217
cat_boundaries=0 1 2 3 4 5 6 7 8
cat_threshold=906 171 134 642 143 278 179 533
shrinkage=0.15


Tree=76
num_leaves=8
num_cat=7
split_feature=14 12 6 8 11 1 4
split_gain=1.58267 2.15054 3.0893 2.51833 2.12434 1.79125 1.21746
threshold=0 1 2 3 4 5 6
decision_type=9 1 1 1 1 1 1
left_child=-1 4 6 5 -2 -4 -3
right_child=1 2 3 -5 -6 -7 -8
leaf_value=-0.032164347049950449 0.058589025219632072 0.014620926125070842 -0.019311339266605009 -0.02337238193079642 -0.011063468057245479 0.059377890269945013 -0.060558409822573794
leaf_weight=17.461869935039431 21.894996370887384 7.9476661859080195 8.2277293715160322 17.407693719025701 16.396821988048032 21.503980484325442 19.319603326730434
leaf_count=210 288 116 114 194 184 245 249
internal_value=0 0.0511592 -0.0501605 0.102446 0.217657 0.254815 -0.270682
internal_weight=0 112.698 74.4067 47.1394 38.2918 29.7317 27.2673
internal_count=1600 1390 918 553 472 359 365
cat_boundaries=0 6 7 8 9 10 11 12
cat_threshold=2105352 262144 4376577 537003008 10 6324224 325 458 135 434 176 673
shrinkage=0.15


Tree=77
num_leaves=9
num_cat=8
split_feature=0 8 5 8 2 6 3 1
split_gain=1.59144 2.23743 1.84775 2.09331 1.45264 1.20178 1.1525 0.682756
threshold=0 1 2 3 4 5 6 7
decision_type=1 1 1 1 1 1 1 1
left_child=1 -1 4 5 -2 -4 -5 -3
right_child=2 7 3 6 -6 -7 -8 -9
leaf_value=0.026123948589779612 -0.0088640087115014875 0.0039280346404688441 0.010333757193467411 -0.013268317653764487 0.054808294582303928 -0.057276103652208088 0.041238145594311645 -0.057954491024874238
leaf_weight=10.775479614268988 14.211925646290181 11.863946571480481 10.90763367898762 11.995051437057553 22.564953841734678 13.700830360408874 13.906567795202138 19.723068550694737
leaf_count=111 122 109 136 147 300 138 221 316
internal_value=0 -0.139281 0.076941 -0.0492933 0.223788 -0.219876 0.128875 -0.262374
internal_weight=0 42.3625 87.287 50.5101 36.7769 24.6085 25.9016 31.587
internal_count=1600 536 1064 642 422 274 368 425
cat_boundaries=0 1 2 3 4 5 6 7 8
cat_threshold=84 48 109 308 452 282 134 817
shrinkage=0.15


Tree=78
num_leaves=10
num_cat=9
split_feature=14 10 5 2 12 1 13 4 1
split_gain=1.47164 1.937 1.84506 1.60315 2.37319 1.74851 2.24596 0.938756 0.523587
threshold=0 1 2 3 4 5 6 7 8
decision_type=9 1 1 1 1 1 1 1 1
left_child=8 -2 -3 4 -4 6 -5 -6 -1
right_child=1 2 3 5 7 -7 -8 -9 -10
leaf_value=-0.006836007523909669 -0.053753470839433347 0.0388152250106387 0.042520486807105004 0.04426137135889556 -0.043042219971064208 -0.043599586339209906 -0.028925557093312754 0.013317931880001462 0.049950519958945575
leaf_weight=9.2702373885549587 7.4751208191737533 13.007367900107054 18.85627329791896 10.153752690646796 9.5843109693378192 30.981371012283486 9.6012683552689904 9.0964047252200562 10.502447393722834
leaf_count=116 102 140 235 107 107 368 111 109 205
internal_value=0 -0.0488213 0.00417417 -0.0558551 0.089524 -0.160444 0.0728292 -0.136823 0.19982
internal_weight=0 108.756 101.281 88.2734 37.537 50.7364 19.755 18.6807 19.7727
internal_count=1600 1279 1177 1037 451 586 218 216 321
cat_boundaries=0 6 7 8 9 10 11 12 13 14
cat_threshold=688391233 2214594568 537932024 4194304 8704 17826818 768 73 817 645 85 132 27 896
shrinkage=0.15


Tree=79
num_leaves=10
num_cat=9
split_feature=0 10 5 13 1 4 3 4 9
split_gain=1.46176 1.53982 1.82055 1.84371 1.48389 1.23472 0.965245 0.700973 0.453376
threshold=0 1 2 3 4 5 6 7 8
decision_type=1 1 1 1 1 1 1 1 1
left_child=4 2 6 -4 5 -1 -2 -6 -3
right_child=1 8 3 -5 7 -7 -8 -9 -10
leaf_value=0.0099702703662173375 0.013136755347181587 -0.0059592155978381934 0.050207824315406109 -0.017686691067652031 -0.01225876729309002 -0.051946985611431525 -0.054259726471745998 0.030750419289113866 0.052052879680921378
leaf_weight=12.149766330607234 7.9128456399776042 9.1881207153201085 11.061876973602919 12.410417241044344 10.534203264396636 22.776252063689753 11.567785681458192 11.253151639830323 18.937018855009232
leaf_count=110 109 102 126 123 104 427 110 101 288
internal_value=0 0.0919335 -0.034476 0.131672 -0.107921 -0.219886 -0.211426 0.0842724 0.243393
internal_weight=0 71.0781 42.9529 23.4723 56.7134 34.926 19.4806 21.7874 28.1251
internal_count=1600 858 468 249 742 537 219 205 390
cat_boundaries=0 1 2 3 4 5 6 7 8 9
cat_threshold=86 901 518 518 142 616 523 141 849
shrinkage=0.15


Tree=80
num_leaves=9
num_cat=8
split_feature=7 8 0 10 12 11 3 4
split_gain=1.48226 2.11122 1.3581 1.1726 1.57509 1.01793 0.563 0.0349917
threshold=0 1 2 3 4 5 6 7
decision_type=1 1 1 1 1 1 1 1
left_child=3 2 -2 -1 -5 -6 -7 -4
right_child=1 -3 7 4 5 6 -8 -9
leaf_value=-0.01928032220428039 -0.023380920882419481 -0.04253286784888511 0.048479986317529963 -0.02508465313443755 -0.0078481885512688334 -0.0059997447673818876 0.057737941142180234 -0.0018583112234990813
leaf_weight=13.311679088743402 8.633144840365274 25.511461799032986 8.798529887339102 7.9424685768317449 13.699539866298435 9.5840645837597531 30.27943807374686 8.8699877636972833
leaf_count=181 136 322 122 101 152 104 367 115
internal_value=0 -0.115378 0.0809194 0.0882381 0.146569 0.212089 0.295226 0.211139
internal_weight=0 51.8131 26.3017 74.8172 61.5055 53.563 39.8635 17.6685
internal_count=1600 695 373 905 724 623 471 237
cat_boundaries=0 1 2 3 4 5 6 7 8
cat_threshold=906 171 134 514 521 593 34 675
shrinkage=0.15


Tree=81
num_leaves=9
num_cat=8
split_feature=2 13 13 1 4 1 5 10
split_gain=1.46928 2.296 2.04626 1.88982 1.33105 1.27114 2.22526 1.16312
threshold=0 1 2 3 4 5 6 7
decision_type=1 1 1 1 1 1 1 1
left_child=1 3 4 -1 -2 7 -7 -3
right_child=2 5 -4 -5 -6 6 -8 -9
leaf_value=-0.023030294718495506 -0.036517876021315926 0.013289142695659518 0.050132661283957138 0.048659040657690458 0.023811858807816767 0.032179486156398714 -0.029785144057023396 -0.059374627369419251
leaf_weight=8.5017624062020314 11.223446959396822 8.4398848107084614 17.946409403346479 15.432243399787696 6.761142005678269 15.700361770577729 16.489288218901493 25.427791651804
leaf_count=102 126 110 260 185 109 190 214 304
internal_value=0 -0.0672736 0.148789 0.159409 -0.0895544 -0.159566 0.00601051 -0.282434
internal_weight=0 89.9913 35.931 23.934 17.9846 66.0573 32.1896 33.8677
internal_count=1600 1105 495 287 235 818 404 414
cat_boundaries=0 1 2 3 4 5 6 7 8
cat_threshold=151 4 133 386 156 652 14 337
shrinkage=0.15


Tree=82
num_leaves=13
num_cat=12
split_feature=14 7 9 12 2 8 0 11 1 1 10 8
split_gain=1.43981 1.66663 1.84523 1.04443 2.55493 0.661557 0.592212 1.79076 0.664727 0.43835 0.427463 0.167759
threshold=0 1 2 3 4 5 6 7 8 9 10 11
decision_type=9 1 1 1 1 1 1 1 1 1 1 1
left_child=11 5 3 4 -3 -2 -5 -8 10 -4 -9 -1
right_child=1 2 9 6 -6 -7 7 8 -10 -11 -12 -13
leaf_value=-0.047346649558126674 0.010483968473556576 -0.044211478071783626 0.0090764876205694841 0.065167406876111417 0.036698426617839633 -0.045224329826304192 0.053698805949810947 0.0059523325355125382 0.01712812968891033 -0.03768582692570694 -0.034371835316589314 0.0055158888175285336
leaf_weight=9.7111879528965783 8.1813019737601262 9.1664387763012183 7.6332748823333532 14.561607981333507 7.0854132950771627 10.331634963047692 9.0430015982128662 11.274214598117394 10.710913178743793 9.5828334582038242 10.30020380811766 7.4095462050754604
leaf_count=108 110 107 103 233 111 153 110 122 121 108 112 102
internal_value=0 0.049751 0.107926 0.177453 -0.0559627 -0.170419 0.243519 0.104712 -0.034115 -0.14157 -0.120588 -0.205803
internal_weight=0 107.871 89.3579 72.1418 16.2519 18.5129 55.8899 41.3283 32.2853 17.2161 21.5744 17.1207
internal_count=1600 1390 1127 916 218 263 698 465 355 211 234 210
cat_boundaries=0 6 7 8 9 10 11 12 13 14 15 16 17
cat_threshold=2105352 537133056 4376576 537003008 16777226 4227072 113 151 514 660 184 641 290 662 518 664 388
shrinkage=0.15


Tree=83
num_leaves=10
num_cat=9
split_feature=14 10 7 4 13 12 1 5 1
split_gain=1.40916 1.38914 1.35977 1.39612 1.34167 1.3226 0.883223 0.720578 0.224289
threshold=0 1 2 3 4 5 6 7 8
decision_type=9 1 1 1 1 1 1 1 1
left_child=8 -2 4 6 -3 -5 -4 -6 -1
right_child=1 2 3 5 7 -7 -8 -9 -10
leaf_value=-0.0034826637317576627 -0.047229579252121824 -0.021280304147597635 -0.05413347799317466 0.033112749477054504 -0.0061553057177836743 -0.017679977115321977 0.0079195106442401259 0.04831545608570964 0.046587559579223392
leaf_weight=9.3562180590815824 7.0116233557928354 9.1674973415210825 17.0807993223425 13.670276945456861 11.685139266774057 15.074530540499838 10.780379859730603 20.373136339243501 10.077532106544824
leaf_count=113 101 106 265 150 131 183 113 227 211
internal_value=0 -0.0486614 -0.00215233 -0.0961812 0.120528 0.0585835 -0.229154 0.211455 0.196589
internal_weight=0 104.843 97.8318 56.606 41.2258 28.7448 27.8612 32.0583 19.4338
internal_count=1600 1276 1175 711 464 333 378 358 324
cat_boundaries=0 6 7 8 9 10 11 12 13 14
cat_threshold=1762133057 2214594568 537923800 4194304 270848 17826818 768 936 212 81 140 678 656 396
shrinkage=0.15


Tree=84
num_leaves=9
num_cat=8
split_feature=9 3 12 8 8 0 2 12
split_gain=1.30993 2.33255 1.43429 1.40564 1.24061 1.1322 0.498887 0.302278
threshold=0 1 2 3 4 5 6 7
decision_type=1 1 1 1 1 1 1 1
left_child=3 7 4 6 -3 -4 -1 -2
right_child=1 2 5 -5 -6 -7 -8 -9
leaf_value=0.0071243321574787164 -0.0044329219154801182 -0.015350337056534241 0.014208211783125754 0.015547097820232579 0.036331533802784179 -0.047827919909497037 -0.050045946726902275 0.058192731007695987
leaf_weight=8.8197848175186646 9.0099558229558152 13.484509136062114 8.9992432245053333 14.462907180422915 14.713128868490459 17.047880455967974 20.117345973150808 16.932078858604658
leaf_count=133 121 143 137 196 200 191 235 244
internal_value=0 0.0736733 -0.0504661 -0.123951 0.0937878 -0.189326 -0.235109 0.275069
internal_weight=0 80.1868 54.2448 43.4 28.1976 26.0471 28.9371 25.942
internal_count=1600 1036 671 564 343 328 368 365
cat_boundaries=0 1 2 3 4 5 6 7 8
cat_threshold=936 553 204 790 644 38 556 792
shrinkage=0.15


Tree=85
num_leaves=9
num_cat=8
split_feature=0 10 13 3 4 5 11 9
split_gain=1.44945 1.40634 1.34077 1.32999 2.60719 0.428291 0.528258 0.222721
threshold=0 1 2 3 4 5 6 7
decision_type=1 1 1 1 1 1 1 1
left_child=3 -2 -3 4 -1 6 -4 -5
right_child=1 2 5 7 -6 -7 -8 -9
leaf_value=0.043924874700353785 -0.020911425994298221 -0.011298619712004463 0.02041776340772709 0.0055516973410153405 -0.027870367955793476 0.055577579061094229 -0.016116982947549572 -0.048319450000346646
leaf_weight=12.16143339849077 13.626695097889749 16.181459624320269 7.7536185695789754 7.8174916720017791 14.527205691905694 22.590663762995973 8.3370079587912205 20.060917205410082
leaf_count=143 170 158 103 111 184 320 107 304
internal_value=0 0.0924438 0.162646 -0.109835 0.0526695 0.257219 0.0171075 -0.238238
internal_weight=0 68.4894 54.8627 54.567 26.6886 38.6813 16.0906 27.8784
internal_count=1600 858 688 742 327 530 210 415
cat_boundaries=0 1 2 3 4 5 6 7 8
cat_threshold=86 640 136 409 562 6 29 42
shrinkage=0.15


Tree=86
num_leaves=9
num_cat=8
split_feature=14 6 1 3 2 3 4 0
split_gain=1.28008 1.43168 2.30564 2.22828 2.32862 1.38982 1.04516 0.258872
threshold=0 1 2 3 4 5 6 7
decision_type=9 1 1 1 1 1 1 1
left_child=-1 2 -2 -3 7 -4 -7 -5
right_child=1 3 5 4 -6 6 -8 -9
leaf_value=-0.029769683678167378 -0.043657998361193599 0.051240124272959098 -0.021673320359250205 0.0032740665762952333 0.034259158925941328 0.060833410137072691 -0.0084956067026639246 -0.04343195333024201
leaf_weight=16.225015344796702 17.762356957187876 22.514158824691549 9.7367762180510891 10.053101971745489 12.10277582821436 9.152116412296893 10.829922075849028 13.80636664433405
leaf_count=211 230 336 124 124 167 106 131 171
internal_value=0 0.0461816 -0.0755824 0.14165 -0.0306163 0.0940552 0.219715 -0.190651
internal_weight=0 105.958 47.4812 58.4764 35.9622 29.7188 19.982 23.8595
internal_count=1600 1389 591 798 462 361 237 295
cat_boundaries=0 6 7 8 9 10 11 12 13
cat_threshold=2109448 537133056 4343808 537001984 16777226 6324224 388 153 561 398 225 539 688
shrinkage=0.15


Tree=87
num_leaves=11
num_cat=10
split_feature=14 10 6 12 0 4 8 12 10 4
split_gain=1.24605 1.28352 1.53943 1.78678 1.96591 1.36138 1.47526 0.592772 0.427274 0.275474
threshold=0 1 2 3 4 5 6 7 8 9
decision_type=9 1 1 1 1 1 1 1 1 1
left_child=9 -2 7 -4 8 6 -6 -3 -5 -1
right_child=1 2 3 4 5 -7 -8 -9 -10 -11
leaf_value=-0.0064226055120269535 -0.04090592895855194 0.0091170024682304465 -0.034009911306493133 -0.036864447733541729 0.028471978400685508 0.056737076713455563 -0.027653761906742635 -0.04589174668682431 0.0077376825436296249 0.045762136033330528
leaf_weight=7.6567919051740319 10.618284313706679 8.4815068389289063 7.7619233472505602 7.5395328341983259 10.519796645268796 26.264041466172785 11.666356608737262 12.473630124703051 8.8141165170818585 9.7875790434191021
leaf_count=117 135 105 114 108 136 289 114 178 113 191
internal_value=0 -0.0449018 0.0048075 0.075698 0.13739 0.232973 -0.00308975 -0.18583 -0.12674 0.192418
internal_weight=0 104.139 93.5209 72.5658 64.8038 48.4502 22.1862 20.9551 16.3536 17.4444
internal_count=1600 1292 1157 874 760 539 250 283 221 308
cat_boundaries=0 6 7 8 9 10 11 12 13 14 15
cat_threshold=688391233 2214595592 537923672 4194304 33563136 17826818 520 904 545 274 165 146 772 20 14
shrinkage=0.15


Tree=88
num_leaves=10
num_cat=9
split_feature=14 11 12 1 4 8 6 5 1
split_gain=1.14089 1.71884 2.2081 1.87456 2.05598 1.89735 1.75042 1.05156 0.328721
threshold=0 1 2 3 4 5 6 7 8
decision_type=9 1 1 1 1 1 1 1 1
left_child=8 2 6 -3 -5 -6 -2 -8 -1
right_child=1 3 -4 4 5 -7 7 -9 -10
leaf_value=-0.04964273337238452 -0.039377876667435099 0.037162235641825685 0.060640258909104662 -0.043975298645131909 -0.022139053694257081 0.040493051825092365 -0.016862099312238706 0.040564998276666653 0.0050815342943366475
leaf_weight=6.9525243190582824 8.5497099377680552 6.7257035556249338 15.540226452518253 28.502610821276903 13.768694680416955 12.184261249378325 7.8657751632854342 11.758548503043135 8.9709653351455909
leaf_count=109 116 103 230 369 156 153 100 164 100
internal_value=0 0.0406277 0.173722 -0.0655142 -0.136639 0.0689961 -0.0260329 0.130834 -0.191633
internal_weight=0 104.896 43.7143 61.1813 54.4556 25.953 28.174 19.6243 15.9235
internal_count=1600 1391 610 781 678 309 380 264 209
cat_boundaries=0 6 7 8 9 10 11 12 13 14
cat_threshold=2105352 0 182273 537003008 16777290 4751360 786 186 65 212 532 130 20 531
shrinkage=0.15


Tree=89
num_leaves=9
num_cat=8
split_feature=7 4 8 8 6 13 2 1
split_gain=1.17953 1.44074 1.38917 1.10661 1.43356 1.34827 1.12307 0.481362
threshold=0 1 2 3 4 5 6 7
decision_type=1 1 1 1 1 1 1 1
left_child=3 2 -2 4 -1 -6 -5 -3
right_child=1 7 -4 6 5 -7 -8 -9
leaf_value=-0.019739509215141948 -0.024491550137308193 0.0052117417215323683 0.030017601877879281 0.019443934037780979 -0.016315859145121892 0.050783898095062965 -0.033246886097455748 -0.057751897430761499
leaf_weight=9.7167562684044224 9.2589827962219697 9.6282979975221661 16.163067425368357 8.7230158138554525 8.4810278534423578 30.476305256248448 13.735395680181684 13.828552244929599
leaf_count=121 103 145 228 110 104 414 156 219
internal_value=0 -0.108718 0.0590348 0.0772179 0.155073 0.238849 -0.0873074 -0.253829
internal_weight=0 48.8789 25.4221 71.1325 48.6741 38.9573 22.4584 23.4569
internal_count=1600 695 331 905 639 518 266 364
cat_boundaries=0 1 2 3 4 5 6 7 8
cat_threshold=906 899 13 30 705 17 649 43
shrinkage=0.15


Tree=90
num_leaves=10
num_cat=9
split_feature=0 7 1 3 9 2 4 4 1
split_gain=1.175 1.30893 1.68003 1.23481 1.41751 0.824735 0.738885 0.569077 0.470865
threshold=0 1 2 3 4 5 6 7 8
decision_type=1 1 1 1 1 1 1 1 1
left_child=1 2 -1 8 5 -5 -3 -6 -2
right_child=3 6 -4 4 7 -7 -8 -9 -10
leaf_value=0.038683966547198557 -0.0075443639642091866 0.0067517592382597622 -0.020807111343347624 -0.011692657016380522 -0.042555771252454203 0.038481598132152711 -0.053187309923830417 0.010066456780987866 0.051580802309197364
leaf_weight=11.033524785190819 8.2825568970292789 10.683868386782704 13.893036886118354 10.220369904302059 13.719147597439585 11.745244140969591 17.279562245006677 7.8314536407124278 14.720823175506668
leaf_count=109 108 107 175 116 131 159 351 102 242
internal_value=0 -0.10545 0.0604154 0.079079 -0.0285926 0.12521 -0.23027 -0.175356 0.229712
internal_weight=0 52.89 24.9266 66.5196 43.5162 21.9656 27.9634 21.5506 23.0034
internal_count=1600 742 284 858 508 275 458 233 350
cat_boundaries=0 1 2 3 4 5 6 7 8 9
cat_threshold=86 810 306 586 71 226 872 30 772
shrinkage=0.15


Tree=91
num_leaves=10
num_cat=9
split_feature=2 1 7 13 4 9 0 0 9
split_gain=1.14515 1.942 2.16441 1.51652 1.21859 1.16438 1.99303 0.984986 0.290371
threshold=0 1 2 3 4 5 6 7 8
decision_type=1 1 1 1 1 1 1 1 1
left_child=1 5 4 7 -3 6 -1 -2 -6
right_child=3 2 -4 -5 8 -7 -8 -9 -10
leaf_value=0.039352750836871848 0.019699969095865893 0.020286164287463191 0.042229043377826715 0.044228890556166411 0.0063339766054250476 -0.050966982931666065 -0.028792604404618838 -0.03306595002662522 -0.052821952549503101
leaf_weight=7.940369329880923 6.99378696619533 8.6754201403819007 17.672516672639176 16.694098128587939 7.813482099911198 22.149103558855131 11.167183190817015 9.8684345295187104 9.6283149941591599
leaf_count=100 103 100 202 263 102 296 176 129 129
internal_value=0 -0.0644273 0.0772714 0.131394 -0.100621 -0.200559 0.0221121 -0.0799615 -0.224469
internal_weight=0 85.0464 43.7897 33.5563 26.1172 41.2567 19.1076 16.8622 17.4418
internal_count=1600 1105 533 495 331 572 276 232 231
cat_boundaries=0 1 2 3 4 5 6 7 8 9
cat_threshold=151 650 87 388 904 203 515 517 132
shrinkage=0.15


Tree=92
num_leaves=9
num_cat=8
split_feature=14 5 3 7 10 6 2 12
split_gain=1.13128 1.24936 1.20389 1.15114 1.29766 1.3701 1.11854 0.169429
threshold=0 1 2 3 4 5 6 7
decision_type=9 1 1 1 1 1 1 1
left_child=7 -2 -3 -4 5 -5 -7 -1
right_child=1 2 3 4 -6 6 -8 -9
leaf_value=-0.002286133589217477 0.029595470609338745 0.020838617325673946 0.017166856479914169 0.030345285470773309 -0.051074604635989763 0.013868911423678227 -0.037948890862795945 0.042929010759592053
leaf_weight=9.9426336246542615 8.7281847987323982 12.448143223067744 11.246854609344153 8.2530403130222094 27.969361198367544 11.747996506979701 18.843505752156485 8.5196605115197617
leaf_count=169 101 177 120 113 362 159 253 146
internal_value=0 -0.0483069 -0.089266 -0.137299 -0.189057 -0.0326293 -0.130234 0.17554
internal_weight=0 99.2371 90.5089 78.0608 66.8139 38.8445 30.5915 18.4623
internal_count=1600 1285 1184 1007 887 525 412 315
cat_boundaries=0 6 7 8 9 10 11 12 13
cat_threshold=1762133057 2248149000 536875128 4194304 8704 17826818 72 520 520 211 48 11 900
shrinkage=0.15


Tree=93
num_leaves=8
num_cat=7
split_feature=0 10 13 4 13 1 5
split_gain=1.12597 1.21292 1.15076 1.09746 1.8429 0.568843 0.0678172
threshold=0 1 2 3 4 5 6
decision_type=1 1 1 1 1 1 1
left_child=3 -2 -3 -1 5 -5 -4
right_child=1 2 6 4 -6 -7 -8
leaf_value=0.017571719433875119 -0.019825518334894966 -0.010757371124843278 0.0047771025921151391 -0.013375114378445442 -0.04713826092090919 0.032490832956686783 0.050282736248269053
leaf_weight=12.142047761008142 13.123660296667365 15.588358364999293 15.464750532875767 6.4925815531751141 25.119765773648396 8.0260343683185038 21.262526473030448
leaf_count=175 170 158 210 115 342 110 320
internal_value=0 0.0848286 0.151738 -0.0972606 -0.173306 0.099269 0.241631
internal_weight=0 65.4393 52.3156 51.7804 39.6384 14.5186 36.7273
internal_count=1600 858 688 742 567 225 530
cat_boundaries=0 1 2 3 4 5 6 7
cat_threshold=86 640 136 528 90 22 6
shrinkage=0.15


Tree=94
num_leaves=10
num_cat=9
split_feature=14 7 9 0 1 5 0 12 3
split_gain=1.15647 1.14703 1.48115 1.3899 0.394837 1.57349 0.313134 0.0896568 0.0424738
threshold=0 1 2 3 4 5 6 7 8
decision_type=9 1 1 1 1 1 1 1 1
left_child=-1 6 -3 -4 5 -5 -2 -6 -7
right_child=1 2 3 4 7 8 -8 -9 -10
leaf_value=-0.028650460861018596 0.0071401604466458926 -0.028786566075461935 -0.022127358485205598 -0.026335191351505301 -0.0052107761855423838 -0.00087281623805700282 -0.037718232525233396 0.052377939028356212 0.041470686067384736
leaf_weight=14.99054567911662 7.687937053386122 7.8793213439639658 9.0769720431417227 10.709473727969451 7.1806243329774571 9.7177915133070218 8.5344719230197423 29.331416655448265 11.423207935411485
leaf_count=208 104 102 125 159 112 101 150 420 119
internal_value=0 0.0470266 0.0950917 0.142902 0.195366 0.051905 -0.145624 0.282446 0.186512
internal_weight=0 101.541 85.3188 77.4395 68.3625 31.8505 16.2224 36.512 21.141
internal_count=1600 1392 1138 1036 911 379 254 532 220
cat_boundaries=0 6 7 8 9 10 11 12 13 14
cat_threshold=2107400 536870912 182272 537001984 16777290 4751360 113 544 16 394 50 568 35 7
shrinkage=0.15


Tree=95
num_leaves=10
num_cat=9
split_feature=14 10 8 3 2 0 12 7 4
split_gain=1.0515 1.2297 1.58797 1.76038 1.62597 1.25055 1.20153 0.615795 0.311921
threshold=0 1 2 3 4 5 6 7 8
decision_type=9 1 1 1 1 1 1 1 1
left_child=8 5 3 4 -3 -2 -4 -8 -1
right_child=1 2 6 -5 -6 -7 7 -9 -10
leaf_value=0.047996849237337137 0.015069060014628219 -0.042511355583012993 0.019573089739835375 0.044531150427548967 0.02413257331602647 -0.052687580051198495 0.006159996772918736 -0.050358880098666396 -0.0012485929160218994
leaf_weight=5.6365762688219547 8.6197287861723435 8.813875283347441 9.1372976785060001 22.429272695677355 8.0202193106524664 15.04904424864799 10.491916858358307 15.321834996808322 12.345038997824306
leaf_count=125 108 128 106 287 110 237 119 185 195
internal_value=0 -0.0453812 0.0241297 0.146043 -0.090663 -0.205768 -0.114847 -0.213875 0.172162
internal_weight=0 97.8832 74.2144 39.2634 16.8341 23.6688 34.951 25.8138 17.9816
internal_count=1600 1280 935 525 238 345 410 304 320
cat_boundaries=0 6 7 8 9 10 11 12 13 14
cat_threshold=1762133057 67111944 536883320 4194304 33563136 17826818 778 154 195 7 41 323 138 609
shrinkage=0.15


Tree=96
num_leaves=10
num_cat=9
split_feature=9 3 13 7 7 3 1 2 12
split_gain=0.977821 1.75839 1.39962 2.0281 1.09669 1.0744 1.60023 0.793956 0.428077
threshold=0 1 2 3 4 5 6 7 8
decision_type=1 1 1 1 1 1 1 1 1
left_child=5 8 3 -3 -4 6 -1 -7 -2
right_child=1 2 4 -5 -6 7 -8 -9 -10
leaf_value=-0.025852554064525114 0.054820684354420807 -0.026857257921671963 -0.045977286310717652 0.04248674472098906 0.012799238360684443 0.010615162381450492 0.035953552508846486 -0.05698659253884205 -0.00556528392979038
leaf_weight=8.8145160116255266 14.77074319613166 8.792473799781872 16.756608270807192 15.027248625410722 10.128337405156346 8.2084930348210019 10.853827045881191 12.618233368732037 9.1674660103162768
leaf_count=129 234 115 236 194 126 107 184 144 131
internal_value=0 0.0659492 -0.0454613 0.110116 -0.175784 -0.109883 0.05918 -0.236948 0.245795
internal_weight=0 74.6429 50.7047 23.8197 26.8849 40.4951 19.6683 20.8267 23.9382
internal_count=1600 1036 671 309 362 564 313 251 365
cat_boundaries=0 1 2 3 4 5 6 7 8 9
cat_threshold=936 553 21 176 342 658 664 680 135
shrinkage=0.15


Tree=97
num_leaves=9
num_cat=8
split_feature=4 0 8 7 3 9 1 12
split_gain=0.978314 1.15598 0.839949 1.50471 1.48109 0.767987 0.539387 0.0209517
threshold=0 1 2 3 4 5 6 7
decision_type=1 1 1 1 1 1 1 1
left_child=2 -2 3 6 -4 -3 -1 -6
right_child=1 5 4 -5 7 -7 -8 -9
leaf_value=-0.008521271457420973 0.037421675551310096 0.014553865668685948 0.021449698149316913 -0.024564072817795535 0.00074063711984119777 -0.027528747123977928 0.043139861312754615 -0.050865845169026237
leaf_weight=8.6686142254620808 19.156034943647683 11.524851040914653 8.3654425316490215 12.720868377364239 9.6074349053669703 10.681799391750248 13.455049904063342 20.285220479476269
leaf_count=113 406 101 123 192 130 112 135 288
internal_value=0 0.108379 -0.0671762 0.0438032 -0.156385 -0.0530065 0.176976 -0.255011
internal_weight=0 41.3627 73.1026 34.8445 38.2581 22.2067 22.1237 29.8927
internal_count=1600 619 981 440 541 213 248 418
cat_boundaries=0 1 2 3 4 5 6 7 8
cat_threshold=150 555 28 898 841 52 15 456
shrinkage=0.15


Tree=98
num_leaves=10
num_cat=9
split_feature=14 2 1 9 11 12 0 12 9
split_gain=1.00429 1.3645 1.69728 2.4191 1.08201 0.685501 0.552828 0.529032 0.454186
threshold=0 1 2 3 4 5 6 7 8
decision_type=9 1 1 1 1 1 1 1 1
left_child=7 2 4 6 -2 -3 -4 -1 -6
right_child=1 5 3 -5 8 -7 -8 -9 -10
leaf_value=0.0095235356319133668 0.013781491035336555 -0.012821528462806254 -0.0092315495194408691 -0.027251975816671083 0.0037688306915325356 0.046736206676390078 0.056290981449927835 -0.045784520691031012 -0.059227923710768855
leaf_weight=7.6723683185409755 10.346377778798342 6.7059017107822001 7.6682005026377755 12.253887086408211 10.346745453542097 17.702587792067792 17.052048788638785 8.770956774940716 15.21365858463105
leaf_count=100 128 104 106 160 169 304 196 114 219
internal_value=0 0.043339 -0.030811 0.106898 -0.165011 0.209351 0.261074 -0.174238 -0.265589
