tree
version=v3
num_class=1
num_tree_per_iteration=1
label_index=0
max_feature_idx=14
objective=binary sigmoid:1
feature_names=p_1 p_2 p_3 p_4 p_5 p_6 p_7 p_8 p_9 p_10 p_11 p_12 p_13 p_14 cluster
feature_infos=2:4:0:1:9:3:5:7:6:8 2:1:7:0:9:3:5:4:8:6 1:2:4:0:7:9:5:3:6:8 1:2:4:7:0:9:3:5:6:8 2:4:1:7:0:9:3:5:8:6 2:1:4:7:3:0:9:5:8:6 2:4:1:7:3:0:9:6:5:8 2:1:7:4:9:3:8:0:5:6 2:1:7:4:9:3:0:8:5:6 2:1:7:4:9:8:0:5:3:6 2:4:7:1:3:9:0:5:8:6 2:1:7:4:9:3:5:0:8:6 2:7:1:4:3:9:8:0:5:6 2:7:1:4:9:3:0:8:5:6 132:160:58:31:0:29:71:94:23:59:88:107:178:22:36:68:69:72:85:164:3:15:35:41:57:66:77:84:91:135:154:180:12:30:54:74:76:118:143:157:173:177:183:185:6:7:20:25:34:38:45:65:81:90:103:128:145:149:152:179:187:188:5:9:13:32:43:44:50:60:62:73:83:93:112:148:151:153:181:192:10:16:37:82:86:89:100:101:125:130:131:133:134:139:142:147:156:166:189:1:4:8:11:14:19:26:27:46:55:70:79:80:106:108:119:122:123:127:129:137:159:162:163:165:169:171:184:186:193:21:33:48:49:52:53:61:63:64:67:75:87:96:104:110:150:158:161:167:170:172:174:191:2:24:28:39:40:78:98:99:102:109:116:120:121:126:138:140:146:155:168:175:17:18:42:47:51:92:95:105:113:114:117:124:141:176:182:194:97:111:136:190
tree_sizes=546 619 713 892 803 807 804 801 848 804 842 715 858 852 954 811 855 1032 944 905 1038 811 962 900 950 989 807 1080 1035 1144 994 1128 901 810 1142 1120 997 1037 995 1143 1084 952 1086 810 955 1088 1231 1091 1209 1000 1145 1029 1093 809 896 1145 1236 1085 1137 1045 992 1088 988 1084 1186 1132 1050 902 1050 994 902 1001 907 996 1142 955 995 906 1053 997 950 998 1088 1043 990 898 1091 994 1146 1003 1141 995 1043 1047 903 1185 1144 998 1140 817

Tree=0
num_leaves=5
num_cat=4
split_feature=0 3 1 4
split_gain=566.534 99.6114 21.4919 19.5366
threshold=0 1 2 3
decision_type=1 1 1 1
left_child=2 3 -1 -2
right_child=1 -3 -4 -5
leaf_value=0.030177514792899408 0.09483870967741935 -0.21873198847262249 0.22018779342723005 -0.060839160839160834
leaf_weight=32.25 28.75 163.5 149.75 25.75
leaf_count=129 115 654 599 103
internal_value=0 -1.06579 1.26562 0.155039
internal_weight=0 218 182 54.5
internal_count=1600 872 728 218
cat_boundaries=0 1 2 3 4
cat_threshold=553 809 390 553
shrinkage=0.15


Tree=1
num_leaves=5
num_cat=4
split_feature=0 3 2 4
split_gain=422.525 75.2897 23.1718 15.5028
threshold=0 1 2 3
decision_type=1 1 1 1
left_child=2 3 -1 -2
right_child=1 -3 -4 -5
leaf_value=0.0095911638338927185 0.084432637036046185 -0.19006125194369225 0.1929686351496622 -0.05430417532514753
leaf_weight=29.551546916365623 28.68544913828373 161.559874355793 150.64060945808887 25.726187273859978
leaf_count=119 115 654 609 103
internal_value=0 -0.922849 1.09987 0.137266
internal_weight=0 215.972 180.192 54.4116
internal_count=1600 872 728 218
cat_boundaries=0 1 2 3 4
cat_threshold=553 809 132 553
shrinkage=0.15


Tree=2
num_leaves=6
num_cat=5
split_feature=0 4 2 4 3
split_gain=323.073 51.7826 33.4951 27.1484 23.2555
threshold=0 1 2 3 4
decision_type=1 1 1 1 1
left_child=1 -1 3 -2 -3
right_child=2 4 -4 -5 -6
leaf_value=-0.17771295885545915 -0.065014731326137096 0.084419838566680117 0.19990015987819029 0.10458408347163013 -0.07624181132868052
leaf_weight=141.37672570347786 25.694131642580032 27.537598595023155 104.39813755452633 53.947328433394432 34.098043501377106
leaf_count=586 105 111 435 221 142
internal_value=0 -0.847988 0.935735 0.324792 -0.0179796
internal_weight=0 203.012 184.04 79.6415 61.6356
internal_count=1600 839 761 326 253
cat_boundaries=0 1 2 3 4 5
cat_threshold=214 150 214 20 553
shrinkage=0.15


Tree=3
num_leaves=8
num_cat=7
split_feature=0 3 2 4 11 1 1
split_gain=248.425 44.8686 24.7434 23.8146 11.303 4.62864 2.89187
threshold=0 1 2 3 4 5 6
decision_type=1 1 1 1 1 1 1
left_child=1 5 -2 4 -4 -1 -3
right_child=2 6 3 -5 -6 -7 -8
leaf_value=-0.025579614156988194 0.18188576100472756 -0.038570927863366147 0.048530124241863079 0.13734930237898588 -0.07068795107376917 0.053149327158797985 -0.17656749386450923
leaf_weight=25.760958284139633 94.156778380274773 27.05741648375988 24.962751224637032 31.102650567889214 28.21525864303112 24.572446018457413 119.40345822274685
leaf_count=105 412 117 103 130 116 100 517
internal_value=0 -0.752923 0.834422 0.328156 -0.106009 0.101961 -1.03446
internal_weight=0 196.794 178.437 84.2807 53.178 50.3334 146.461
internal_count=1600 839 761 349 219 205 634
cat_boundaries=0 1 2 3 4 5 6 7
cat_threshold=214 809 553 214 275 386 625
shrinkage=0.15


Tree=4
num_leaves=7
num_cat=6
split_feature=0 4 2 4 6 3
split_gain=195.475 50.3729 16.1533 18.6657 13.0999 0.144421
threshold=0 1 2 3 4 5
decision_type=1 1 1 1 1 1
left_child=2 4 -1 -4 -2 -3
right_child=1 5 3 -5 -6 -7
leaf_value=0.16856276176751642 -0.043696243665020625 -0.037181912794279341 -0.048817677334076257 0.096118322644243026 0.085184917842600252 -0.16083414370708077
leaf_weight=85.798662304878235 25.792520478367805 24.558781355619431 24.611462667584419 53.659437566995621 28.936968073248863 118.61216779053211
leaf_count=400 110 102 100 228 122 538
internal_value=0 -0.648302 0.788086 0.334515 0.18053 -0.956238
internal_weight=0 197.9 164.07 78.2709 54.7295 143.171
internal_count=1600 872 728 328 232 640
cat_boundaries=0 1 2 3 4 5 6
cat_threshold=553 809 553 20 146 361
shrinkage=0.15


Tree=5
num_leaves=7
num_cat=6
split_feature=0 4 3 10 6 2
split_gain=152.937 40.7126 16.0145 13.8371 10.3639 2.37276
threshold=0 1 2 3 4 5
decision_type=1 1 1 1 1 1
left_child=2 4 3 -1 -2 -3
right_child=1 5 -4 -5 -6 -7
leaf_value=-0.019043422870040214 -0.039108195196472344 -0.15247905030099163 0.1614457260447768 0.098475359379526395 0.075555427177046483 -0.038957474863591822
leaf_weight=39.833021596074104 25.678128600120544 104.25664885342121 74.549752429127693 42.745167195796967 28.999188750982285 31.881647482514381
leaf_count=175 110 496 362 191 122 144
internal_value=0 -0.581032 0.713837 0.305695 0.159901 -0.869193
internal_weight=0 190.816 157.128 82.5782 54.6773 136.138
internal_count=1600 872 728 366 232 640
cat_boundaries=0 1 2 3 4 5 6
cat_threshold=553 809 406 812 146 150
shrinkage=0.15


Tree=6
num_leaves=7
num_cat=6
split_feature=1 0 3 1 4 4
split_gain=127.636 37.271 15.4131 15.0923 13.5012 11.7756
threshold=0 1 2 3 4 5
decision_type=1 1 1 1 1 1
left_child=2 4 -1 -4 -2 -3
right_child=1 5 3 -5 -6 -7
leaf_value=0.15507058383820416 -0.045668649454070905 -0.0075739359025847356 -0.024723697293407475 0.099027838969912269 0.090864987800238176 -0.14537780809439621
leaf_weight=70.99177248775959 22.690713480114937 28.39968304336071 39.462884575128555 37.836562365293503 27.145234450697899 108.35399778187275
leaf_count=365 102 122 184 176 120 531
internal_value=0 -0.529517 0.676967 0.268367 0.209713 -0.794841
internal_weight=0 186.59 148.291 77.2994 49.8359 136.754
internal_count=1600 875 725 360 222 653
cat_boundaries=0 1 2 3 4 5 6
cat_threshold=617 929 617 520 148 801
shrinkage=0.15


Tree=7
num_leaves=7
num_cat=6
split_feature=0 2 2 7 4 1
split_gain=108.667 26.7435 19.0659 14.7207 5.83685 5.34263
threshold=0 1 2 3 4 5
decision_type=1 1 1 1 1 1
left_child=2 -2 3 5 -3 -1
right_child=1 4 -4 -5 -6 -7
leaf_value=0.12314787974251286 0.036578964671001545 -0.015929704478727699 0.13741318889526694 -0.044780674402329627 -0.13710899899069831 0.0097307316948231533
leaf_weight=22.469766482710838 32.235794678330421 25.949023172259331 79.775227501988411 33.418142914772034 100.62124805152416 28.39127691090107
leaf_count=102 144 112 442 149 527 124
internal_value=0 -0.560599 0.5655 0.171679 -0.768338 0.478922
internal_weight=0 158.806 164.054 84.2792 126.57 50.861
internal_count=1600 783 817 375 639 226
cat_boundaries=0 1 2 3 4 5 6
cat_threshold=681 609 214 906 808 117
shrinkage=0.15


Tree=8
num_leaves=7
num_cat=6
split_feature=14 1 0 0 7 3
split_gain=88.6653 60.7949 16.401 9.28315 6.12203 0.77241
threshold=0 1 2 3 4 5
decision_type=9 1 1 1 1 1
left_child=-1 3 4 -2 -3 -4
right_child=1 2 5 -5 -6 -7
leaf_value=0.1478426355579949 0.10254633485988437 -0.04602088422248006 -0.032576029147288889 -0.014178817021754914 0.043929177443871779 -0.13625864870634555
leaf_weight=63.023326590657234 51.09688326716423 26.187738031148911 27.108825147151947 24.595964327454567 22.310070738196373 96.205369681119919
leaf_count=323 275 123 119 122 106 532
internal_value=0 -0.262819 -0.583984 0.449258 -0.0280394 -0.784125
internal_weight=0 247.505 171.812 75.6928 48.4978 123.314
internal_count=1600 1277 880 397 229 651
cat_boundaries=0 6 7 8 9 10 11
cat_threshold=2698023105 37757524 201339314 0 0 268435456 609 929 549 22 553
shrinkage=0.15


Tree=9
num_leaves=7
num_cat=6
split_feature=1 4 3 2 0 7
split_gain=73.8571 23.6327 12.7023 12.4506 8.02654 6.29598
threshold=0 1 2 3 4 5
decision_type=1 1 1 1 1 1
left_child=2 3 -1 -2 -4 -5
right_child=1 -3 4 5 -6 -7
leaf_value=0.023595021290997848 0.071899374720894318 0.11674918181037061 0.00010806481604122575 -0.091075971334728542 -0.12430162361010472 0.0096694288684256464
leaf_weight=24.182295098900795 24.836895197629929 90.76041767001152 23.23354834318161 21.105586498975754 86.49988466501236 29.107310742139816
leaf_count=104 142 502 107 107 494 144
internal_value=0 0.447969 -0.518126 0.00391338 -0.667678 -0.271794
internal_weight=0 165.81 133.916 75.0498 109.733 50.2129
internal_count=1600 895 705 393 601 251
cat_boundaries=0 1 2 3 4 5 6
cat_threshold=134 22 41 545 897 53
shrinkage=0.15


Tree=10
num_leaves=7
num_cat=6
split_feature=14 2 1 0 5 4
split_gain=66.0225 43.2501 15.0715 13.1535 2.7884 0.289739
threshold=0 1 2 3 4 5
decision_type=9 1 1 1 1 1
left_child=-1 2 -2 -3 -4 -5
right_child=1 3 4 5 -6 -7
leaf_value=0.13255697211458073 0.021039030522450188 -0.02902813487519865 -0.016150357963612253 0.0178007737182132 -0.12413287414756127 0.11391844649483276
leaf_weight=57.80592867732048 27.835912704467773 30.678484082221985 22.58319191634655 19.391628041863441 96.49955378472805 35.242310255765915
leaf_count=321 136 151 121 111 537 223
internal_value=0 -0.23267 -0.550191 0.314496 -0.709949 0.585567
internal_weight=0 232.231 146.919 85.3124 119.083 54.6339
internal_count=1600 1279 794 485 658 334
cat_boundaries=0 6 7 8 9 10 11
cat_threshold=3771764929 4203092 201339058 0 0 269484032 150 113 22 361 148
shrinkage=0.15


Tree=11
num_leaves=6
num_cat=5
split_feature=0 4 3 7 1
split_gain=53.5604 16.8752 14.8158 9.38754 6.8251
threshold=0 1 2 3 4
decision_type=1 1 1 1 1
left_child=2 -2 3 -1 -3
right_child=1 4 -4 -5 -6
leaf_value=-0.062263413030755665 0.02896118301815644 -0.0011920287970804209 0.10472589974562441 0.042583045178173393 -0.11591951548155274
leaf_weight=21.054447814822197 33.304428488016129 23.888622179627419 81.83697047829628 40.514208570122719 79.864918738603592
leaf_count=103 152 119 514 200 512
internal_value=0 -0.417221 0.427416 0.0202596 -0.612874
internal_weight=0 137.058 143.406 61.5687 103.754
internal_count=1600 783 817 303 631
cat_boundaries=0 1 2 3 4 5
cat_threshold=681 808 404 52 865
shrinkage=0.15


Tree=12
num_leaves=7
num_cat=6
split_feature=14 2 5 7 4 1
split_gain=49.5844 32.1658 13.2051 10.7616 10.0672 6.67949
threshold=0 1 2 3 4 5
decision_type=9 1 1 1 1 1
left_child=-1 2 -2 4 -3 -4
right_child=1 3 5 -5 -6 -7
leaf_value=0.1182314085350249 0.028487220031338537 -0.071159088701629333 0.0018107562692238823 0.099119807476920646 0.046039190879759571 -0.1156806794712798
leaf_weight=54.167434453964233 23.721291542053223 20.098016023635864 21.498855471611023 32.484979972243309 26.921900302171707 92.447625190019608
leaf_count=323 124 113 109 204 170 557
internal_value=0 -0.207312 -0.489096 0.280745 -0.0516653 -0.634369
internal_weight=0 217.173 137.668 79.5049 47.0199 113.946
internal_count=1600 1277 790 487 283 666
cat_boundaries=0 6 7 8 9 10 11
cat_threshold=2698023105 37757524 201339312 0 16777216 268435456 150 105 23 148 113
shrinkage=0.15


Tree=13
num_leaves=7
num_cat=6
split_feature=14 0 7 2 10 4
split_gain=39.8154 28.3968 11.3015 10.4258 5.46667 5.17452
threshold=0 1 2 3 4 5
decision_type=9 1 1 1 1 1
left_child=-1 2 -2 4 -3 -4
right_child=1 3 5 -5 -6 -7
leaf_value=0.10960076106941065 0.027967585587888897 -0.050438271602475118 -0.0071473656203833507 0.091364428168478173 0.034485882676429241 -0.11303192045515265
leaf_weight=50.888415597379208 21.82365882396698 24.953437983989716 24.909305818378925 35.56565298140049 24.355522751808167 81.145148165524006
leaf_count=321 130 116 124 253 115 541
internal_value=0 -0.181873 -0.467166 0.251902 -0.0649942 -0.606142
internal_weight=0 212.753 127.878 84.8746 49.309 106.054
internal_count=1600 1279 795 484 231 665
cat_boundaries=0 6 7 8 9 10 11
cat_threshold=3771764929 37757524 201339058 0 0 268435456 94 776 150 644 808
shrinkage=0.15


Tree=14
num_leaves=8
num_cat=7
split_feature=14 2 7 1 0 4 0
split_gain=33.5523 28.315 16.6437 9.96238 4.59623 4.41792 3.99681
threshold=0 1 2 3 4 5 6
decision_type=9 1 1 1 1 1 1
left_child=-1 2 3 6 -3 -4 -2
right_child=1 4 5 -5 -6 -7 -8
leaf_value=-0.1157574419789268 -0.063628628120821554 -0.0011899406929364821 0.0035497069868519891 0.081394466382522637 0.10561484186335636 -0.10392990121302872 0.019453607688561997
leaf_weight=35.253358349204063 16.904448188841343 19.687624238431454 18.856544338166714 31.047625638544559 72.530510179698467 39.546950079500675 21.733919054269791
leaf_count=220 116 101 113 173 526 243 108
internal_value=0 0.170226 -0.135201 0.187946 0.566183 -0.491883 -0.150026
internal_weight=0 220.308 128.089 69.686 92.2181 58.4035 38.6384
internal_count=1600 1380 753 397 627 356 224
cat_boundaries=0 6 7 8 9 10 11 12
cat_threshold=33554432 67108864 1073872900 4194304 603979793 176816145 150 906 714 146 705 22
shrinkage=0.15


Tree=15
num_leaves=7
num_cat=6
split_feature=0 3 4 1 1 13
split_gain=30.0584 13.6053 11.3902 8.08318 6.9434 0.592804
threshold=0 1 2 3 4 5
decision_type=1 1 1 1 1 1
left_child=2 -2 4 -3 -1 -4
right_child=1 3 5 -5 -6 -7
leaf_value=-0.042263164188899721 0.036960188174583491 0.0083175690793220788 0.025147247589709404 -0.10371961502964382 0.045505028515962338 0.11902898764898698
leaf_weight=32.156188815832138 27.681051790714264 24.297963216900826 25.095843710005283 69.057560116052628 29.082405783236027 41.083127684891224
leaf_count=164 132 132 167 519 183 303
internal_value=0 -0.331808 0.337644 -0.510506 -0.000300206 0.609349
internal_weight=0 121.037 127.418 93.3555 61.2386 66.179
internal_count=1600 783 817 651 347 470
cat_boundaries=0 1 2 3 4 5 6
cat_threshold=681 521 212 369 902 400
shrinkage=0.15


Tree=16
num_leaves=7
num_cat=6
split_feature=14 3 5 6 12 2
split_gain=28.0976 19.4768 12.2364 7.73625 5.81788 5.18841
threshold=0 1 2 3 4 5
decision_type=9 1 1 1 1 1
left_child=-1 3 -3 -2 -5 -4
right_child=1 2 5 4 -6 -7
leaf_value=0.09653340079393595 0.075337789349322434 0.041998410344704008 0.0055968116206708135 0.041557173495194048 -0.050104585259828055 -0.10349074597461244
leaf_weight=45.58803566545248 36.218556717038155 18.278272412717342 18.820988014340401 18.117850691080093 26.89083643257618 77.12493147701025
leaf_count=313 234 110 129 115 175 524
internal_value=0 -0.157882 -0.411497 0.204771 -0.0823993 -0.557223
internal_weight=0 195.451 114.224 81.2272 45.0087 95.9459
internal_count=1600 1287 763 524 290 653
cat_boundaries=0 6 7 8 9 10 11
cat_threshold=3771764929 4194836 67121584 0 16777216 269492224 601 105 51 13 801
shrinkage=0.15


Tree=17
num_leaves=9
num_cat=8
split_feature=14 7 4 0 3 4 1 12
split_gain=25.7745 19.6922 14.135 7.14691 4.90951 4.55475 2.80754 2.13063
threshold=0 1 2 3 4 5 6 7
decision_type=9 1 1 1 1 1 1 1
left_child=-1 2 -2 5 -4 -3 7 -5
right_child=1 3 4 6 -6 -7 -8 -9
leaf_value=-0.10540447721256919 0.057817667847412484 -0.054474378479223283 0.014695331724377057 0.066966809448198689 -0.090116223504794299 0.034740134268961796 0.12254797677853148 0.00037309980563527849
leaf_weight=31.867030590772629 22.188243813812733 13.094311118125914 16.101536348462105 19.243533372879028 46.784668497741222 19.509228408336639 39.975622780621052 27.507012084126472
leaf_count=220 147 101 100 129 326 114 291 172
internal_value=0 0.155198 -0.201428 0.405365 -0.432972 -0.0364436 0.558053 0.231697
internal_weight=0 204.404 85.0744 119.33 62.8862 32.6035 86.7262 46.7505
internal_count=1600 1380 573 807 426 215 592 301
cat_boundaries=0 6 7 8 9 10 11 12 13
cat_threshold=0 0 1075970052 4196352 603979921 168427537 85 609 338 841 134 906 6
shrinkage=0.15


Tree=18
num_leaves=8
num_cat=7
split_feature=14 3 7 6 4 10 9
split_gain=21.5984 18.0495 11.815 9.06731 5.76696 3.81532 1.75298
threshold=0 1 2 3 4 5 6
decision_type=9 1 1 1 1 1 1
left_child=-1 2 3 5 -4 -2 -3
right_child=1 6 4 -5 -6 -7 -8
leaf_value=-0.098643323511294526 -0.059937515011013187 0.0032024065620494262 -0.0892592880451894 0.074375030567734285 0.0081852812907995415 0.021636217312847646 0.10178518267471671
leaf_weight=30.118879169225693 18.386080347001553 15.788817152380942 37.250528022646904 36.636304095387459 24.843035109341145 19.455610126256943 48.639823630452156
leaf_count=222 117 117 264 234 164 126 356
internal_value=0 0.142919 -0.069493 0.189753 -0.363634 -0.148278 0.542018
internal_weight=0 201 136.572 74.478 62.0936 37.8417 64.4286
internal_count=1600 1378 905 477 428 243 473
cat_boundaries=0 6 7 8 9 10 11 12
cat_threshold=33554432 0 1092616196 4196352 603979793 168427537 182 906 196 30 658 896
shrinkage=0.15


Tree=19
num_leaves=8
num_cat=7
split_feature=0 3 12 4 1 2 12
split_gain=20.3743 12.1006 8.23087 6.3797 4.90642 1.70727 1.05142
threshold=0 1 2 3 4 5 6
decision_type=1 1 1 1 1 1 1
left_child=3 2 -2 -1 -3 -4 -5
right_child=1 4 5 6 -6 -7 -8
leaf_value=-0.0082412918982157982 -0.053366545874403509 0.0083218319061706507 0.00097457750412529871 0.0088769712892369651 -0.099748724038780573 0.076825875934711144 0.096677211978983671
leaf_weight=31.883435249328613 18.090093195438385 17.700606852769852 19.078211706131697 17.834693178534508 52.871531672775745 22.217622075229883 47.477509759366512
leaf_count=186 116 112 112 121 447 129 377
internal_value=0 -0.239901 0.0965051 0.339484 -0.499828 0.325366 0.513759
internal_weight=0 129.958 59.3859 97.1956 70.5721 41.2958 65.3122
internal_count=1600 916 357 684 559 241 498
cat_boundaries=0 1 2 3 4 5 6 7
cat_threshold=929 569 536 20 297 646 928
shrinkage=0.15


Tree=20
num_leaves=9
num_cat=8
split_feature=14 0 5 2 7 10 4 13
split_gain=18.2837 14.7873 9.13644 8.33992 6.3317 4.77661 2.78552 0.131372
threshold=0 1 2 3 4 5 6 7
decision_type=9 1 1 1 1 1 1 1
left_child=-1 4 3 6 -2 -5 -3 -6
right_child=1 2 -4 5 7 -7 -8 -9
leaf_value=0.082498269466380961 0.023275698899423703 -0.0082817721652955721 0.086518108596496945 0.019198900118489438 -0.0056047918935502854 -0.077604537158581455 0.078147380556235158 -0.10191115236575365
leaf_weight=39.944290593266487 15.512586362659929 17.226169995963573 22.11733815819025 16.817984856665134 12.753899775445459 29.787257716059685 16.406982276588678 51.140821482986212
leaf_count=312 103 107 142 108 105 171 140 412
internal_value=0 -0.129345 0.121287 -0.054274 -0.429841 -0.30301 0.28085 -0.573651
internal_weight=0 181.763 102.356 80.2384 79.4073 46.6052 33.6332 63.8947
internal_count=1600 1288 668 526 620 279 247 517
cat_boundaries=0 6 7 8 9 10 11 12 13
cat_threshold=3771764801 596 201339312 0 18874368 268443648 22 406 936 776 19 84 336
shrinkage=0.15


Tree=21
num_leaves=7
num_cat=6
split_feature=4 7 0 2 0 13
split_gain=15.9522 12.3498 5.62033 5.21614 4.904 2.40648
threshold=0 1 2 3 4 5
decision_type=1 1 1 1 1 1
left_child=1 2 -1 -2 -3 -5
right_child=3 4 -4 5 -6 -7
leaf_value=-0.033888995660327763 -0.014197668943010465 -0.090482389494541071 0.060853798828715659 -0.0027281589692364186 -0.0030603017644792378 0.092341812496721035
leaf_weight=15.968811411410568 22.952532529830933 53.604119189083576 31.475701048970222 15.439705535769463 30.540244705975056 46.871128488332033
leaf_count=128 131 448 202 114 195 382
internal_value=0 -0.199414 0.190781 0.329916 -0.416319 0.477769
internal_weight=0 131.589 47.4445 85.2634 84.1444 62.3108
internal_count=1600 973 330 627 643 496
cat_boundaries=0 1 2 3 4 5 6
cat_threshold=150 904 19 132 158 672
shrinkage=0.15


Tree=22
num_leaves=8
num_cat=7
split_feature=14 2 13 4 1 12 12
split_gain=15.4181 13.5253 10.1297 6.40153 6.10129 4.73117 0.0379023
threshold=0 1 2 3 4 5 6
decision_type=9 1 1 1 1 1 1
left_child=-1 2 4 -4 6 -3 -2
right_child=1 5 3 -5 -6 -7 -8
leaf_value=-0.084467430342367741 -0.020926127395434608 -0.020448780803022436 -0.028603470364303444 0.074632422507117047 0.021359171160574637 0.084558363599004996 -0.10758489748829284
leaf_weight=28.848679389804602 22.075912538915873 13.338379167020319 18.011296771466732 27.407183848321438 19.18559592217207 59.806083891540766 24.105462800711393
leaf_count=222 158 110 116 185 116 509 184
internal_value=0 0.127157 -0.0952934 0.239459 -0.328798 0.435022 -0.515053
internal_weight=0 183.93 110.785 45.4185 65.367 73.1445 46.1814
internal_count=1600 1378 759 301 458 619 342
cat_boundaries=0 6 7 8 9 10 11 12
cat_threshold=33554432 67108864 1075970052 4194304 603979793 168427537 150 155 332 654 553 140
shrinkage=0.15


Tree=23
num_leaves=8
num_cat=7
split_feature=1 3 5 10 0 0 13
split_gain=13.1268 10.6925 8.37002 5.0406 7.085 1.53407 0.924763
threshold=0 1 2 3 4 5 6
decision_type=1 1 1 1 1 1 1
left_child=-1 5 -3 4 -4 -2 -5
right_child=1 2 3 6 -6 -7 -8
leaf_value=0.065053090213819026 0.0018113002462598609 0.042549803432432587 0.052887531624246871 -0.019195748238445037 -0.051072734919174523 0.073188850376542977 -0.10555423090293711
leaf_weight=44.792041607201099 20.321468822658062 17.998273905366659 16.896780021488667 24.013470008969307 22.916324593126774 17.919304348528385 44.093713629990816
leaf_count=381 104 114 102 180 203 171 345
internal_value=0 -0.127536 -0.266338 -0.374341 -0.0346124 0.289976 -0.543077
internal_weight=0 164.159 125.919 107.92 39.8131 38.2408 68.1072
internal_count=1600 1219 944 830 305 275 525
cat_boundaries=0 1 2 3 4 5 6 7
cat_threshold=97 521 104 83 737 22 268
shrinkage=0.15


Tree=24
num_leaves=8
num_cat=7
split_feature=14 7 4 1 0 2 3
split_gain=12.6164 11.8449 8.29681 8.09227 4.81605 4.59072 1.64649
threshold=0 1 2 3 4 5 6
decision_type=9 1 1 1 1 1 1
left_child=-1 3 -3 -2 -4 -5 -6
right_child=1 2 4 5 6 -7 -8
leaf_value=0.07011923909829694 0.081348366488068632 0.039609540681815499 0.011921300405572698 0.042422500372788829 -0.0014759727230922663 -0.046112582064655912 -0.10583731124304861
leaf_weight=37.28200538828969 27.432476826012135 16.171501390635967 17.823827866464853 12.082349695265291 14.200481582432984 27.029579978436232 52.724613018333912
leaf_count=311 205 120 121 102 101 185 455
internal_value=0 -0.113888 -0.318906 0.198084 -0.446276 -0.104624 -0.578426
internal_weight=0 167.465 100.92 66.5444 84.7489 39.1119 66.9251
internal_count=1600 1289 797 492 677 287 556
cat_boundaries=0 6 7 8 9 10 11 12
cat_threshold=3763376193 33554964 201339312 0 18907136 268443648 936 800 117 544 617 24
shrinkage=0.15


Tree=25
num_leaves=9
num_cat=8
split_feature=7 9 6 1 0 8 0 13
split_gain=11.4698 11.0793 8.16936 7.79652 7.58072 6.48615 0.79463 0.154072
threshold=0 1 2 3 4 5 6 7
decision_type=1 1 1 1 1 1 1 1
left_child=-1 -2 -3 4 5 -4 -5 -6
right_child=1 2 3 6 7 -7 -8 -9
leaf_value=-0.081403183499641193 -0.073654895520083113 -0.054570550237635705 0.043168024099985165 0.014598731455923972 0.075171382794691058 -0.065404003670513869 0.096484406824904681 0.0090055252365087123
leaf_weight=21.987739842385054 17.85829995572567 15.506834637373686 11.835208021104336 21.30645627528429 16.255612093955278 31.76291112601757 47.326395761221647 17.207861419767141
leaf_count=180 131 118 102 152 109 291 413 104
internal_value=0 0.104874 0.195716 0.27481 0.0329126 -0.222505 0.507688 0.340315
internal_weight=0 179.06 161.201 145.694 77.0616 43.5981 68.6329 33.4635
internal_count=1600 1420 1289 1171 606 393 565 213
cat_boundaries=0 1 2 3 4 5 6 7 8
cat_threshold=16 768 128 142 342 49 152 518
shrinkage=0.15


Tree=26
num_leaves=7
num_cat=6
split_feature=8 0 7 4 1 11
split_gain=10.7668 12.2242 7.87213 7.48426 5.86529 3.97329
threshold=0 1 2 3 4 5
decision_type=1 1 1 1 1 1
left_child=1 5 4 -3 -2 -1
right_child=2 3 -4 -5 -6 -7
leaf_value=-0.016328301323965146 0.067351649767877414 0.038701031002387705 -0.07900008833047463 -0.069807722948974929 -0.030496349381177762 0.082900726183991844
leaf_weight=13.71132570132613 14.19486118108034 17.000547792762518 41.38258171826601 28.187700722366571 23.90164302662015 59.202156916260719
leaf_count=119 100 100 320 267 184 510
internal_value=0 0.194059 -0.258052 -0.195796 0.0825684 0.430147
internal_weight=0 118.102 79.4791 45.1882 38.0965 72.9135
internal_count=1600 996 604 367 284 629
cat_boundaries=0 1 2 3 4 5 6
cat_threshold=155 557 426 617 372 841
shrinkage=0.15


Tree=27
num_leaves=10
num_cat=9
split_feature=6 0 2 13 8 5 2 1 2
split_gain=10.546 8.73279 5.33308 4.96086 3.98241 2.1529 2.14833 2.7745 1.03001
threshold=0 1 2 3 4 5 6 7 8
decision_type=1 1 1 1 1 1 1 1 1
left_child=3 2 -2 4 -1 -4 -3 -8 -5
right_child=1 6 5 8 -6 -7 7 -9 -10
leaf_value=0.036002762462558582 -0.037913269352045829 -0.085461371289674806 -0.013494255966937612 0.0032818792923596835 -0.047522038412456981 0.068033309226682076 -0.047399503341257899 0.026717950153933009 0.1034220490244933
leaf_weight=16.777603954076767 18.589688520878553 38.223200548440218 11.91062308475375 13.911138121038674 15.009331233799459 27.27739978954196 11.911949608474968 15.280685514211656 25.683473136276007
leaf_count=132 101 351 120 104 115 252 101 102 222
internal_value=0 -0.166569 0.113755 0.290361 -0.0358049 0.303656 -0.396414 -0.0650967 0.506632
internal_weight=0 123.194 57.7777 71.3815 31.7869 39.188 65.4158 27.1926 39.5946
internal_count=1600 1027 473 573 247 372 554 203 326
cat_boundaries=0 1 2 3 4 5 6 7 8 9
cat_threshold=121 809 6 162 146 386 147 146 140
shrinkage=0.15


Tree=28
num_leaves=9
num_cat=8
split_feature=14 7 9 10 4 3 3 12
split_gain=10.484 9.85458 7.78906 6.81768 4.33575 3.72756 3.67836 1.61547
threshold=0 1 2 3 4 5 6 7
decision_type=9 1 1 1 1 1 1 1
left_child=-1 -2 3 5 6 -3 -4 -6
right_child=1 2 4 -5 7 -7 -8 -9
leaf_value=-0.073773449963896079 -0.066319749325931765 -0.029628833752353832 -0.042018451357932751 -0.075924304497951095 0.0033655235535420404 0.05523408954333734 0.037745558040748792 0.095822851725833949
leaf_weight=25.248253738507628 18.962735120207071 13.25395881384611 14.465404458343981 16.533477135002613 16.193678768351674 20.164692807942629 17.781672671437263 48.877037987112999
leaf_count=213 163 108 127 143 144 149 128 425
internal_value=0 0.105631 0.19979 -0.115359 0.357229 0.150033 0.00325645 0.508847
internal_weight=0 166.233 147.27 49.9521 97.3178 33.4187 32.2471 65.0707
internal_count=1600 1387 1224 400 824 257 255 569
cat_boundaries=0 6 7 8 9 10 11 12 13
cat_threshold=0 67108872 1075838980 0 603979921 176816129 16 968 148 20 549 134 816
shrinkage=0.15


Tree=29
num_leaves=10
num_cat=9
split_feature=14 5 1 10 3 8 4 0 3
split_gain=8.80012 8.52162 6.33165 5.78194 2.96767 2.36436 1.98641 1.33082 0.0252868
threshold=0 1 2 3 4 5 6 7 8
decision_type=9 1 1 1 1 1 1 1 1
left_child=8 4 3 -3 -2 -4 -5 -7 -1
right_child=1 2 5 6 -6 7 -8 -9 -10
leaf_value=0.012300206107636298 -0.011022996129392129 -0.051779326576899216 0.011672061536764486 -0.0069718395762045395 0.072381598689532256 -0.0092774488789865057 0.071367344994428525 -0.099390192755845708 0.087846662047219304
leaf_weight=17.738909926265478 17.255313146859407 13.793281907215713 12.25479518994689 15.516103347763417 20.522222876548767 18.779273038730025 17.045294798910618 40.513763949275017 15.953670263290403
leaf_count=144 115 103 102 122 162 119 162 406 165
internal_value=0 -0.104569 -0.234947 0.0615455 0.266347 -0.411032 0.274467 -0.508716 0.399936
internal_weight=0 155.68 117.903 46.3547 37.7775 71.5478 32.5614 59.293 33.6926
internal_count=1600 1291 1014 387 277 627 284 525 309
cat_boundaries=0 6 7 8 9 10 11 12 13 14
cat_threshold=2689634369 33555028 201335216 128 18907136 268443648 617 865 904 306 16 154 736 166
shrinkage=0.15


Tree=30
num_leaves=9
num_cat=8
split_feature=6 9 3 1 13 9 11 2
split_gain=8.36532 7.27406 7.3981 5.79661 3.78617 2.97942 1.69238 1.35714
threshold=0 1 2 3 4 5 6 7
decision_type=1 1 1 1 1 1 1 1
left_child=-1 -2 3 7 5 -5 -4 -3
right_child=1 2 6 4 -6 -7 -8 -9
leaf_value=-0.070606347784129497 -0.060143466648358637 -0.0041014608419283885 0.081050147226853289 0.051644473505216684 -0.062740467958326676 -0.025628959107464915 -0.0061717679589203215 0.06385476458422569
leaf_weight=21.448698453605175 16.937946133315563 15.613710369914768 44.346056582406163 11.081295434385536 29.254309482872486 16.189462827518586 12.551608592271803 19.033359669148922
leaf_count=179 129 106 420 101 279 142 110 134
internal_value=0 0.0894812 0.1674 -0.0195341 -0.204966 0.074683 0.425084 0.261139
internal_weight=0 165.008 148.07 91.1721 56.5251 27.2708 56.8977 34.6471
internal_count=1600 1421 1292 762 522 243 530 240
cat_boundaries=0 1 2 3 4 5 6 7 8
cat_threshold=128 768 150 625 788 26 182 684
shrinkage=0.15


Tree=31
num_leaves=10
num_cat=9
split_feature=14 6 9 4 0 7 13 12 3
split_gain=7.80462 9.38701 7.48087 7.41451 5.27346 7.02794 2.30211 2.14923 0.692657
threshold=0 1 2 3 4 5 6 7 8
decision_type=9 1 1 1 1 1 1 1 1
left_child=-1 6 -3 4 -4 -6 -2 -5 -7
right_child=1 2 3 7 5 8 -8 -9 -10
leaf_value=-0.0650786422257114 0.0081963719702023152 -0.088155397445817102 -0.08656675102174545 -0.006814815808828853 -0.052671433501318525 0.0028930757552567883 0.088735717992917768 0.085526252897840549 0.076812936858786332
leaf_weight=24.185327427461743 25.575480686500669 14.109184144064782 12.644623273983598 13.624819459393619 18.292246693745255 15.172078937292101 29.774618458002806 19.032939532771707 11.448421305045484
leaf_count=214 200 114 111 119 153 126 266 182 115
internal_value=0 0.0898828 -0.0894181 0.039379 -0.170731 0.027941 0.3898 0.362901 0.313184
internal_weight=0 159.674 104.324 90.2151 57.5574 44.9127 55.3501 32.6578 26.6205
internal_count=1600 1386 920 806 505 394 466 301 241
cat_boundaries=0 6 7 8 9 10 11 12 13 14
cat_threshold=0 67108872 1077018628 0 67108881 168427537 57 832 157 144 20 162 656 23
shrinkage=0.15


Tree=32
num_leaves=8
num_cat=7
split_feature=5 3 12 13 7 1 3
split_gain=7.24046 8.0704 8.7718 2.67588 2.35967 2.30405 0.77116
threshold=0 1 2 3 4 5 6
decision_type=1 1 1 1 1 1 1
left_child=6 3 4 -2 -3 -4 -1
right_child=1 2 5 -5 -6 -7 -8
leaf_value=0.0019160027908625432 0.0029903016300516032 0.01604543255749789 0.079890458299762365 -0.07145692760836439 -0.070592937083086671 0.0039179548640005026 0.078903281376664761
leaf_weight=14.382938891649244 21.572575541213155 11.170918958261607 27.482171850278974 45.488492503762245 17.817938588559631 24.659905632957816 19.33980692923069
leaf_count=106 192 105 274 441 139 183 160
internal_value=0 -0.0996433 0.110187 -0.334854 -0.277695 0.335818 0.360106
internal_weight=0 148.192 81.1309 67.0611 28.9889 52.1421 33.7227
internal_count=1600 1334 701 633 244 457 266
cat_boundaries=0 1 2 3 4 5 6 7
cat_threshold=105 134 568 261 267 587 114
shrinkage=0.15


Tree=33
num_leaves=7
num_cat=6
split_feature=0 10 1 8 13 4
split_gain=7.49393 6.48453 4.3153 3.07283 2.67838 1.33772
threshold=0 1 2 3 4 5
decision_type=1 1 1 1 1 1
left_child=1 -1 4 5 -2 -3
right_child=2 3 -4 -5 -6 -7
leaf_value=-0.04225935763468372 0.0063804058604573196 -0.024187593227899921 0.018665895665319478 0.069616246109393473 -0.072296216753849632 0.025618047797531133
leaf_weight=16.780841249972582 18.253742190077901 15.139454210177062 26.238774735480547 48.489297229796648 41.563088865950704 13.454544000327589
leaf_count=153 157 105 173 459 453 100
internal_value=0 0.18825 -0.199268 0.311166 -0.338748 -0.00124428
internal_weight=0 93.8641 86.0556 77.0833 59.8168 28.594
internal_count=1600 817 783 664 610 205
cat_boundaries=0 1 2 3 4 5 6
cat_threshold=681 640 654 356 68 660
shrinkage=0.15


Tree=34
num_leaves=10
num_cat=9
split_feature=14 7 0 4 12 1 13 2 0
split_gain=7.19118 6.96497 5.82638 5.93951 4.76654 3.89543 3.65035 2.75798 0.398437
threshold=0 1 2 3 4 5 6 7 8
decision_type=9 1 1 1 1 1 1 1 1
left_child=8 5 6 4 -4 -2 -3 -8 -1
right_child=1 2 3 -5 -6 -7 7 -9 -10
leaf_value=0.0068615522818904111 -0.017018739161660655 -0.0371107964328534 -0.046056017067222642 -0.091763364010246345 0.046881259785239091 0.080062613564642213 -0.0090404197675499169 0.080208632017689421 0.080322193188796021
leaf_weight=16.119695229455829 15.446607613936065 13.427023384720085 14.03947647102177 41.366739263758063 15.748288981616499 16.053053051233295 16.508495504036546 11.892586013302209 16.878761032596231
leaf_count=113 132 110 113 411 130 122 106 148 215
internal_value=0 -0.099856 -0.215028 -0.379 0.0167471 0.265513 0.0832149 0.263244 0.362522
internal_weight=0 144.482 112.983 71.1545 29.7878 31.4997 41.8281 28.4011 32.9985
internal_count=1600 1272 1018 654 243 254 364 254 328
cat_boundaries=0 6 7 8 9 10 11 12 13 14
cat_threshold=3759182017 33563220 201334960 128 18907136 268705792 808 609 810 656 650 680 206 404
shrinkage=0.15


Tree=35
num_leaves=10
num_cat=9
split_feature=14 6 10 12 0 1 9 13 3
split_gain=6.50074 7.06808 5.8786 4.03961 3.9196 2.60961 1.55184 0.63657 0.63546
threshold=0 1 2 3 4 5 6 7 8
decision_type=9 1 1 1 1 1 1 1 1
left_child=-1 -2 3 -3 5 -4 7 -6 -5
right_child=1 2 4 8 6 -7 -8 -9 -10
leaf_value=-0.083369874143427058 -0.058489574996290164 0.034421457609628919 0.030333728465338525 -0.081588631738005596 0.011993225307799879 -0.042265177135046322 -0.00094983487953574555 0.091791559348840951 -0.0078483629955236039
leaf_weight=8.6644536945968849 19.536191342398524 12.737483613193035 11.686372369527815 11.247311420738695 19.385715050622824 15.084564270451667 16.761479502543807 41.100936243310571 18.464282874017957
leaf_count=112 168 126 100 106 174 149 118 390 157
internal_value=0 0.0649011 0.146611 -0.14926 0.269854 -0.0729516 0.3834 0.476976 -0.328525
internal_weight=0 166.004 146.468 42.4491 104.019 26.7709 77.2481 60.4867 29.7116
internal_count=1600 1488 1320 389 931 249 682 564 263
cat_boundaries=0 6 7 8 9 10 11 12 13 14
cat_threshold=0 0 1073741824 0 17 168427521 128 904 4 338 274 151 713 226
shrinkage=0.15


Tree=36
num_leaves=9
num_cat=8
split_feature=7 8 6 2 2 4 13 10
split_gain=6.1295 5.81738 5.41779 4.12969 3.1223 2.73553 0.654564 0.270392
threshold=0 1 2 3 4 5 6 7
decision_type=1 1 1 1 1 1 1 1
left_child=2 4 3 -1 -2 -5 -4 -3
right_child=1 7 6 5 -6 -7 -8 -9
leaf_value=0.036925793312914762 -0.023794104403639351 -0.0021432240180123754 0.0095844639589480873 0.020046534697330524 0.052524005042481149 -0.063950579254613754 0.081261362715683502 -0.080030951676224801
leaf_weight=17.959433572366834 16.600190073251724 12.180762523785232 19.649795887991786 11.453545603901146 15.924141259863971 22.643125686794519 25.535688238218427 30.631562242284417
leaf_count=158 157 112 180 104 167 197 253 272
internal_value=0 -0.200821 0.158322 -0.0671493 0.114242 -0.250582 0.383175 -0.416484
internal_weight=0 75.3367 97.2416 52.0561 32.5243 34.0967 45.1855 42.8123
internal_count=1600 708 892 459 324 301 433 384
cat_boundaries=0 1 2 3 4 5 6 7 8
cat_threshold=906 131 708 804 134 291 130 107
shrinkage=0.15


Tree=37
num_leaves=9
num_cat=8
split_feature=14 9 10 8 3 0 0 12
split_gain=6.0384 7.05384 4.62484 3.96635 5.01003 3.28969 2.37131 1.53949
threshold=0 1 2 3 4 5 6 7
decision_type=9 1 1 1 1 1 1 1
left_child=-1 3 5 4 -2 -3 -6 -5
right_child=1 2 -4 7 6 -7 -8 -9
leaf_value=-0.061403204594935534 0.060769930717172856 0.052811460060594048 -0.072850415194917167 -0.0068916951536216152 0.018293669059739028 -0.025381014455283634 -0.049125380314121253 0.083004504469421855
leaf_weight=20.206877993419766 12.25227754190564 11.919873327016829 21.095972983166575 11.538915176875888 15.191798744723203 18.966298451647166 24.585406064987179 35.265425201505423
leaf_count=219 116 100 198 117 115 153 224 358
internal_value=0 0.0779344 -0.198221 0.228048 0.0122628 0.0688785 -0.165828 0.423535
internal_weight=0 150.816 51.9821 98.8338 52.0295 30.8862 39.7772 46.8043
internal_count=1600 1381 451 930 455 253 339 475
cat_boundaries=0 6 7 8 9 10 11 12 13
cat_threshold=8 8 1092747268 4194304 67108881 176816129 55 84 964 521 674 225 770
shrinkage=0.15


Tree=38
num_leaves=9
num_cat=8
split_feature=5 7 3 12 0 1 10 3
split_gain=5.92245 5.89966 4.37996 5.48314 2.57617 2.41168 1.03262 0.381983
threshold=0 1 2 3 4 5 6 7
decision_type=1 1 1 1 1 1 1 1
left_child=7 -2 5 4 -4 -3 -7 -1
right_child=1 2 3 -5 -6 6 -8 -9
leaf_value=0.0069235880891287578 -0.067181225556306984 -0.048599670843368567 0.024566150352390782 0.062190604131536438 -0.054478371632299412 0.036033935687870063 -0.01544269983908216 0.076878555156446177
leaf_weight=16.592749234288931 25.962284710258245 31.994784935377538 10.764600860886274 34.636553890071809 13.754718329757454 10.224097114056347 10.729190468788149 14.627414556220176
leaf_count=141 257 306 112 343 106 110 100 125
internal_value=0 -0.0925857 0.0196373 0.192026 -0.151415 -0.172872 0.088012 0.33599
internal_weight=0 138.066 112.104 59.1559 24.5193 52.9481 20.9533 31.2202
internal_count=1600 1334 1077 561 218 516 210 266
cat_boundaries=0 1 2 3 4 5 6 7 8
cat_threshold=105 113 390 569 521 666 6 115
shrinkage=0.15


Tree=39
num_leaves=10
num_cat=9
split_feature=14 5 10 7 3 0 13 12 0
split_gain=5.23371 5.76909 4.0245 4.21074 4.37057 1.88905 1.43902 1.01652 0.800602
threshold=0 1 2 3 4 5 6 7 8
decision_type=9 1 1 1 1 1 1 1 1
left_child=5 8 3 -3 -5 -1 -6 -4 -2
right_child=1 2 7 4 6 -7 -8 -9 -10
leaf_value=-0.0066373002042151687 -0.0020653410270759561 0.0531164128118723 0.001328985796815154 0.04176178650748763 -0.070605880446575314 0.076769051387030454 0.0082362896142820358 -0.071728260144390862 0.068342489460531203
leaf_weight=14.059135008603333 12.982606282457708 14.358140097931026 13.907036261633039 10.185601375997065 21.179651280865073 17.687040961347524 11.680966204963623 39.291916130110621 12.245311548933389
leaf_count=104 108 119 131 111 226 220 109 366 106
internal_value=0 -0.0876406 -0.187388 0.0112661 -0.148287 0.313932 -0.314647 -0.369611 0.278725
internal_weight=0 135.831 110.603 57.4044 43.0462 31.7462 32.8606 53.199 25.2279
internal_count=1600 1276 1062 565 446 324 335 497 214
cat_boundaries=0 6 7 8 9 10 11 12 13 14
cat_threshold=537956545 37757524 201335184 128 18907136 269754368 105 103 808 616 276 658 4 660
shrinkage=0.15


Tree=40
num_leaves=10
num_cat=9
split_feature=6 12 3 1 2 10 1 0 4
split_gain=5.24189 5.329 3.30938 2.89708 2.55895 2.70608 1.90108 1.75018 0.812814
threshold=0 1 2 3 4 5 6 7 8
decision_type=1 1 1 1 1 1 1 1 1
left_child=4 3 6 -2 5 -1 -3 -4 -9
right_child=1 2 7 -5 -6 -7 -8 8 -10
leaf_value=0.037048514989318292 -0.01618985720367766 -0.022214315179521098 0.0059261947182319731 0.062739866394853572 0.061972734918498938 -0.035598914402552556 0.045953744802190756 -0.013406433992251351 -0.10557737014124045
leaf_weight=11.058337633498011 16.622740613296628 11.129007516428826 13.78814749419689 16.029339893721044 29.535023344680667 15.798097467049958 9.4936234410852212 19.378604434430599 23.127269612625241
leaf_count=107 146 131 150 169 285 138 101 166 207
internal_value=0 -0.118307 -0.254952 0.187886 0.232147 -0.0249986 0.0928373 -0.377146 -0.494085
internal_weight=0 109.569 76.9167 32.6521 56.3915 26.8564 20.6226 56.294 42.5059
internal_count=1600 1070 755 315 530 245 232 523 373
cat_boundaries=0 1 2 3 4 5 6 7 8 9
cat_threshold=57 5 201 920 141 275 646 578 842
shrinkage=0.15


Tree=41
num_leaves=8
num_cat=7
split_feature=14 6 9 12 7 10 0
split_gain=5.24246 5.46885 4.4536 3.85168 4.58148 1.85048 1.81425
threshold=0 1 2 3 4 5 6
decision_type=9 1 1 1 1 1 1
left_child=-1 -2 -3 -4 -5 -6 -7
right_child=1 2 3 4 5 6 -8
leaf_value=-0.057070025756352491 -0.051788980584469436 -0.040700149735953296 -0.034570825579878534 -0.03432103611878827 -0.010262053574442388 -0.0081757333154814059 0.078140380484457553
leaf_weight=19.390665082260966 16.56910253688693 13.898997627198694 11.30594336055219 11.178488658741117 12.471113480627535 12.065582551062105 67.95225322432816
leaf_count=215 152 111 105 116 117 105 679
internal_value=0 0.0801204 0.155735 0.224943 0.290517 0.369485 0.437752
internal_weight=0 145.441 128.872 114.973 103.667 92.4889 80.0178
internal_count=1600 1385 1233 1122 1017 901 784
cat_boundaries=0 6 7 8 9 10 11 12
cat_threshold=33554440 8 1077018624 4194304 67108881 176816129 128 768 608 80 776 336
shrinkage=0.15


Tree=42
num_leaves=10
num_cat=9
split_feature=0 11 4 3 2 4 10 4 5
split_gain=4.57791 3.94378 3.19658 3.20512 2.66361 2.04627 1.82714 0.938468 0.194153
threshold=0 1 2 3 4 5 6 7 8
decision_type=1 1 1 1 1 1 1 1 1
left_child=2 4 3 -1 -2 -6 -4 -3 -8
right_child=1 7 6 -5 5 -7 8 -9 -10
leaf_value=-0.033197544123213796 0.036009670041342035 0.0029671247501093846 0.017110035446407629 0.04840532780977131 -0.065105355764177086 0.014313258418783923 0.0041278345006113045 0.062209204651956375 -0.079756866159532439
leaf_weight=11.097676817327736 8.3185886889696103 19.372524762526155 8.9445312358438951 15.295297037810089 16.092444285750389 11.780678606592121 8.7034855699166673 34.424575251527131 29.125752110034224
leaf_count=128 104 163 100 118 101 101 104 381 300
internal_value=0 0.141577 -0.175965 0.0959958 -0.104977 -0.244149 -0.319302 0.2979 -0.424196
internal_weight=0 89.9888 73.1667 26.393 36.1917 27.8731 46.7738 53.7971 37.8292
internal_count=1600 850 750 246 306 202 504 544 404
cat_boundaries=0 1 2 3 4 5 6 7 8 9
cat_threshold=86 620 792 131 808 278 129 152 193
shrinkage=0.15


Tree=43
num_leaves=7
num_cat=6
split_feature=8 0 12 10 11 11
split_gain=4.40612 6.13487 5.43256 3.55731 3.26792 2.79724
threshold=0 1 2 3 4 5
decision_type=1 1 1 1 1 1
left_child=1 5 -3 -2 -5 -1
right_child=3 2 -4 4 -6 -7
leaf_value=-0.019621811471771968 0.029681630849738561 -0.074780283767531514 0.023948362762906943 0.0215410303557119 -0.064231735632455197 0.064803948344871576
leaf_weight=11.211714407429097 13.843915833160279 15.375920886173843 20.755508549511433 12.176961794495584 41.440518050454557 46.216244271956384
leaf_count=119 135 168 199 107 362 510
internal_value=0 0.132983 -0.167792 -0.182342 -0.296187 0.319039
internal_weight=0 93.5594 36.1314 67.4614 53.6175 57.428
internal_count=1600 996 367 604 469 629
cat_boundaries=0 1 2 3 4 5 6
cat_threshold=155 557 530 75 385 841
shrinkage=0.15


Tree=44
num_leaves=8
num_cat=7
split_feature=14 7 4 13 0 4 0
split_gain=4.24044 4.0186 4.89847 2.8681 1.83365 1.64683 0.354979
threshold=0 1 2 3 4 5 6
decision_type=9 1 1 1 1 1 1
left_child=6 3 -3 -2 -4 -5 -1
right_child=1 2 4 5 -6 -7 -8
leaf_value=0.0019177865535493497 -0.023241811993579803 -0.059696643927227046 0.045968095734312965 -0.0097931780504275281 -0.016026385302897052 0.062657223355612079 0.066081787306819947
leaf_weight=13.440527778118847 19.34441482834518 48.197945700958371 12.415992048569022 12.915026511065662 16.33470954652876 22.263805828988552 14.706937283277513
leaf_count=106 172 514 130 110 133 220 215
internal_value=0 -0.0825002 -0.219735 0.115218 0.104664 0.26519 0.293184
internal_weight=0 131.472 76.9486 54.5232 28.7507 35.1788 28.1475
internal_count=1600 1279 777 502 263 330 321
cat_boundaries=0 6 7 8 9 10 11 12
cat_threshold=542150849 167772756 201335184 2176 18907136 268697600 936 150 144 523 292 148
shrinkage=0.15


Tree=45
num_leaves=10
num_cat=9
split_feature=2 13 1 13 1 6 7 9 4
split_gain=4.22239 4.27385 5.73026 4.1901 3.38533 2.47121 1.81489 0.897704 0.574104
threshold=0 1 2 3 4 5 6 7 8
decision_type=1 1 1 1 1 1 1 1 1
left_child=3 4 8 6 -2 -4 -1 -7 -3
right_child=1 2 5 -5 -6 7 -8 -9 -10
leaf_value=-0.038319900508212164 -0.025300067672500419 0.0021411457879950305 -0.027152412312291919 0.074856158289500763 0.060201372975309191 -0.009248595382687257 0.025596059080128498 0.054032761430048176 -0.087403780348430091
leaf_weight=13.506358576938508 12.766943137161432 10.700376907363532 17.550181591883302 20.684899886138737 18.240259254351262 9.9521076232194883 9.8028213614597934 15.322910083457829 29.665119941346347
leaf_count=140 118 107 159 235 168 113 106 152 302
internal_value=0 -0.0999898 -0.213675 0.234972 0.182748 0.0549844 -0.0788346 0.223716 -0.45303
internal_weight=0 114.198 83.1907 43.9941 31.0072 42.8252 23.3092 25.275 40.3655
internal_count=1600 1119 833 481 286 424 246 265 409
cat_boundaries=0 1 2 3 4 5 6 7 8 9
cat_threshold=872 4 652 645 394 132 22 642 322
shrinkage=0.15


Tree=46
num_leaves=11
num_cat=10
split_feature=14 7 4 12 5 6 9 5 8 0
split_gain=4.11191 4.57327 3.59509 4.85679 3.3369 3.02339 2.59317 0.629386 0.242121 0.0956669
threshold=0 1 2 3 4 5 6 7 8 9
decision_type=9 1 1 1 1 1 1 1 1 1
left_child=-1 8 5 4 -4 6 -3 -8 -2 -7
right_child=1 2 3 -5 -6 9 7 -9 -10 -11
leaf_value=-0.050776205457576377 0.0012318183934054772 -0.02094404179623666 0.040169788661105363 0.091678227925846609 -0.043685358946214704 -0.00049089984407273601 0.066928056817017786 -0.0061610941149140572 -0.055538967406234811 -0.059247220295540651
leaf_weight=19.402541314251721 10.901436310261486 16.337127055972815 10.165548084303735 25.351982001215219 13.23050767183304 10.991505357436834 16.08500756137073 9.4738166853785533 14.706681853160264 9.9740213025361317
leaf_count=218 116 150 101 287 115 118 135 102 156 102
internal_value=0 0.0711104 0.159897 0.344547 -0.0408805 -0.0109319 0.137998 0.304817 -0.252084 -0.256998
internal_weight=0 137.218 111.61 48.748 23.3961 62.8615 41.896 25.5588 25.6081 20.9655
internal_count=1600 1382 1110 503 216 607 387 237 272 220
cat_boundaries=0 6 7 8 9 10 11 12 13 14 15
cat_threshold=8 8 1092747268 4194304 536870929 176816129 113 149 944 170 60 656 660 170 549
shrinkage=0.15


Tree=47
num_leaves=10
num_cat=9
split_feature=5 3 12 9 6 1 8 7 11
split_gain=3.92812 4.18845 3.10221 2.91851 3.07961 2.79747 1.12079 1.10263 0.834439
threshold=0 1 2 3 4 5 6 7 8
decision_type=1 1 1 1 1 1 1 1 1
left_child=8 3 6 4 7 -4 -3 -2 -1
right_child=1 2 5 -5 -6 -7 -8 -9 -10
leaf_value=-0.0045955154718783598 -0.012506659877616734 -0.0078550901774212447 -0.059276761490309464 -0.06389619655170771 -0.037329202402376867 0.025030990564764436 0.061690664495539498 0.055583334226998717 0.064516054507926524
leaf_weight=11.676140828058122 9.0280949026346189 11.328544749878345 10.690917992964385 32.54843427054584 17.585039329715073 10.917432612739505 22.773821536451578 11.866310985758902 16.853645532391969
leaf_count=106 106 103 105 335 205 111 252 117 160
internal_value=0 -0.0789629 0.116814 -0.227986 -0.00719246 -0.148253 0.280303 0.210917 0.282531
internal_weight=0 126.739 55.7107 71.0279 38.4794 21.6084 34.1024 20.8944 28.5298
internal_count=1600 1334 571 763 428 216 355 223 266
cat_boundaries=0 1 2 3 4 5 6 7 8 9
cat_threshold=105 422 391 402 28 135 524 27 642
shrinkage=0.15


Tree=48
num_leaves=11
num_cat=10
split_feature=14 6 9 0 13 3 1 1 0 8
split_gain=3.59761 3.5748 3.49276 3.02141 1.929 2.9833 1.63188 1.37638 1.0682 0.993795
threshold=0 1 2 3 4 5 6 7 8 9
decision_type=9 1 1 1 1 1 1 1 1 1
left_child=-1 4 3 6 5 7 -3 -2 -4 -6
right_child=1 2 8 -5 9 -7 -8 -9 -10 -11
leaf_value=-0.065412848408756219 0.01202816073227478 0.019018374929542895 0.0058493449250184987 0.047044809754966443 -0.0024513303829596825 0.041507188475813792 -0.048577138380658365 -0.050348528556698753 -0.066366224498793952 0.08154709496713336
leaf_weight=6.9511250164359808 12.594731468707321 9.6826639957725984 11.860220329836009 19.708509988151491 12.292083786800502 16.262770347297192 11.71250040177256 13.337573088705541 21.754575045779347 17.971272440627221
leaf_count=112 124 100 111 193 109 186 111 134 205 215
internal_value=0 0.0488135 -0.0993354 0.0935657 0.195103 0.0238662 -0.144481 -0.167582 -0.302583 0.368628
internal_weight=0 147.177 74.7185 41.1037 72.4584 42.1951 21.3952 25.9323 33.6148 30.2634
internal_count=1600 1488 720 404 768 444 211 258 316 324
cat_boundaries=0 6 7 8 9 10 11 12 13 14 15
cat_threshold=0 0 1073741824 0 17 168427521 59 47 149 146 150 549 689 545 324
shrinkage=0.15


Tree=49
num_leaves=9
num_cat=8
split_feature=2 13 9 13 10 11 1 3
split_gain=3.46956 3.71863 4.18875 3.11725 1.92167 2.80853 1.65224 1.48029
threshold=0 1 2 3 4 5 6 7
decision_type=1 1 1 1 1 1 1 1
left_child=1 2 -1 6 5 -3 -2 -4
right_child=3 4 7 -5 -6 -7 -8 -9
leaf_value=-0.037501270384710954 0.026595374429255053 0.039869350462975454 -0.014744786543765128 0.067379020158045061 -0.064862395571071541 -0.037087940742037709 -0.034386777949334167 0.052132730566805764
leaf_weight=17.722062032669783 8.9666830599307996 10.975900180637835 10.095411812886594 19.597863635979593 28.765378597192466 11.730026057921352 13.677594041451814 30.869793120771646
leaf_count=166 100 118 126 235 297 133 146 279
internal_value=0 -0.0937263 0.077136 0.214961 -0.269399 0.00619125 -0.0632618 0.239948
internal_weight=0 110.159 58.6873 42.2421 51.4713 22.7059 22.6443 40.9652
internal_count=1600 1119 571 481 548 251 246 405
cat_boundaries=0 1 2 3 4 5 6 7 8
cat_threshold=151 452 792 645 115 20 520 322
shrinkage=0.15


Tree=50
num_leaves=10
num_cat=9
split_feature=14 5 10 1 6 0 0 7 0
split_gain=3.42969 4.09804 3.40741 3.28618 2.36053 1.44304 1.1201 0.832764 0.778123
threshold=0 1 2 3 4 5 6 7 8
decision_type=9 1 1 1 1 1 1 1 1
left_child=7 8 3 6 -5 -4 -3 -1 -2
right_child=1 2 5 4 -6 -7 -8 -9 -10
leaf_value=-0.0049312104616619111 -0.0038045853115261049 0.063012243932455622 0.0087725562508881461 0.020934203508043397 -0.055377481098017871 -0.066486125996173956 -0.0072040042461003432 0.064327895694263629 0.061240461611388936
leaf_weight=11.482298640999941 12.406298915855585 12.74481381382793 11.66840166877955 11.298370175063608 16.669492192566398 37.295131357386708 11.832177787087859 14.690138051286342 11.301926300860943
leaf_count=130 112 123 117 123 180 382 139 185 109
internal_value=0 -0.0734718 -0.16199 0.0261037 -0.181035 -0.334035 0.246006 0.273197 0.241147
internal_weight=0 125.217 101.508 52.5449 27.9679 48.9635 24.577 26.1724 23.7082
internal_count=1600 1285 1064 565 303 499 262 315 221
cat_boundaries=0 6 7 8 9 10 11 12 13 14
cat_threshold=537956545 33562708 201334960 2176 18907136 269754368 105 103 837 19 608 645 276 660
shrinkage=0.15


Tree=51
num_leaves=9
num_cat=8
split_feature=14 7 11 0 13 10 10 1
split_gain=3.14495 3.20983 3.60577 3.32327 2.82393 1.38065 1.3483 0.580208
threshold=0 1 2 3 4 5 6 7
decision_type=9 1 1 1 1 1 1 1
left_child=-1 6 -3 5 -5 -4 -2 -6
right_child=1 2 3 4 7 -7 -8 -9
leaf_value=-0.061322190470920669 0.013764235390028448 -0.033384447896695708 -0.040587484816006485 -0.012136721585360669 0.0034687613991057366 0.015895060738715435 -0.055960656305483032 0.076695100132279162
leaf_weight=6.6197978323325515 9.6213886989280564 17.836920815519989 12.740571320056914 17.183279255405068 14.607794431969523 12.90257001668215 15.955859214998783 42.778284729458392
leaf_count=112 104 160 111 176 139 115 178 505
internal_value=0 0.0491486 0.120527 0.196247 0.299815 -0.104545 -0.221571 0.408907
internal_weight=0 143.627 118.049 100.212 74.5694 25.6431 25.5772 57.3861
internal_count=1600 1488 1206 1046 820 226 282 644
cat_boundaries=0 6 7 8 9 10 11 12 13
cat_threshold=0 0 1073741824 0 17 168427521 113 584 464 136 146 19 130
shrinkage=0.15


Tree=52
num_leaves=10
num_cat=9
split_feature=3 7 6 10 4 1 11 2 13
split_gain=3.18355 3.4172 2.78033 2.91405 2.74128 1.76725 1.70091 0.905566 0.717719
threshold=0 1 2 3 4 5 6 7 8
decision_type=1 1 1 1 1 1 1 1 1
left_child=-1 2 3 5 -3 -2 -6 -8 -4
right_child=1 4 8 -5 6 -7 7 -9 -10
leaf_value=0.04541445792109397 0.014149462217830762 -0.069583847975484142 -0.00015970499951604807 0.031154292061516702 -0.03292263807450526 -0.064609118014771733 -0.011543908976488012 0.043522870498242154 0.058242799296767414
leaf_weight=18.549548972863704 10.469784351997079 22.296228393912315 15.529067313298581 13.070215514861045 11.638597439043222 17.036456272937357 10.083590417169036 10.917209040373562 18.967967705801129
leaf_count=241 103 265 154 130 132 151 103 110 211
internal_value=0 -0.0636383 0.0740277 -0.097335 -0.234197 -0.259008 -0.00529493 0.145917 0.252166
internal_weight=0 130.009 75.0735 40.5765 54.9356 27.5062 32.6394 21.0008 34.497
internal_count=1600 1359 749 384 610 254 345 213 365
cat_boundaries=0 1 2 3 4 5 6 7 8 9
cat_threshold=520 906 708 534 28 269 547 131 130
shrinkage=0.15


Tree=53
num_leaves=7
num_cat=6
split_feature=8 12 2 0 11 3
split_gain=3.00456 4.89974 3.7534 3.02673 2.33136 1.50034
threshold=0 1 2 3 4 5
decision_type=1 1 1 1 1 1
left_child=3 2 -2 -1 -3 -5
right_child=1 4 -4 5 -6 -7
leaf_value=0.029179866232728301 0.036985688725857328 -0.019652693988301894 -0.049819655684492661 -0.060784575485483119 0.058219310234519754 0.0065912554938305423
leaf_weight=12.435361457057295 9.6725169471465033 10.375076528638601 26.09675507619977 30.71995247900486 43.491061486769468 14.686648232862352
leaf_count=116 136 116 289 290 502 151
internal_value=0 0.109938 -0.15596 -0.162905 0.283279 -0.278237
internal_weight=0 89.6354 35.7693 57.842 53.8661 45.4066
internal_count=1600 1043 425 557 618 441
cat_boundaries=0 1 2 3 4 5 6
cat_threshold=836 594 609 194 129 406
shrinkage=0.15


Tree=54
num_leaves=8
num_cat=7
split_feature=0 10 3 4 7 5 8
split_gain=2.979 3.17446 2.43444 2.91566 1.6007 1.32373 1.73741
threshold=0 1 2 3 4 5 6
decision_type=1 1 1 1 1 1 1
left_child=2 -2 3 -1 -4 6 -3
right_child=1 5 4 -5 -6 -7 -8
leaf_value=-0.034473251968671986 -0.028597769757625346 0.03302015661186665 0.0099899351111547852 0.044808104398941499 -0.061656487048552977 0.054273524301005557 -0.023098371530619843
leaf_weight=9.4923407109454256 17.835201868787408 13.324579910840839 12.513171683065591 15.652697506360711 28.493724124040455 32.509724232833833 16.952449424192309
leaf_count=126 182 171 116 153 355 330 167
internal_value=0 0.122027 -0.146286 0.0905741 -0.280809 0.224837 0.0244347
internal_weight=0 80.622 66.1519 25.145 41.0069 62.7868 30.277
internal_count=1600 850 750 279 471 668 338
cat_boundaries=0 1 2 3 4 5 6 7
cat_threshold=86 896 408 196 266 146 642
shrinkage=0.15


Tree=55
num_leaves=10
num_cat=9
split_feature=14 5 10 4 3 0 3 1 4
split_gain=2.88721 3.12008 2.86073 2.88074 2.55915 2.10386 1.27842 0.516703 0.439401
threshold=0 1 2 3 4 5 6 7 8
decision_type=9 1 1 1 1 1 1 1 1
left_child=7 6 -3 -4 5 -5 -2 -1 -6
right_child=1 2 3 4 8 -7 -8 -9 -10
leaf_value=-0.004118483028951082 -0.0094342355311434287 -0.056272767504633572 0.046845152901226608 0.013848523538665754 0.039031961803174219 -0.059133304498087701 0.058929724988772463 0.058819094829684337 -0.0070174015741778862
leaf_weight=10.542580616194753 11.992722732946275 28.490714839659631 10.57739738607779 13.280417071655391 9.9454456195235235 26.353939427994192 11.122125817462804 14.031430751550944 9.3228143025189656
leaf_count=117 112 311 130 112 102 313 110 193 100
internal_value=0 -0.0686171 -0.147351 -0.0184922 -0.114598 -0.245439 0.208816 0.256243 0.146442
internal_weight=0 121.086 97.9707 69.48 58.9026 39.6344 23.1148 24.574 19.2683
internal_count=1600 1290 1068 757 627 425 222 310 202
cat_boundaries=0 6 7 8 9 10 11 12 13 14
cat_threshold=542150721 33563156 201335216 2176 18907136 268697600 105 904 832 535 712 51 164 153
shrinkage=0.15


Tree=56
num_leaves=11
num_cat=10
split_feature=14 9 10 7 0 5 4 7 12 8
split_gain=2.88254 3.55621 3.25839 2.85535 2.81157 2.00537 1.57183 1.02585 0.753309 0.0628687
threshold=0 1 2 3 4 5 6 7 8 9
decision_type=9 1 1 1 1 1 1 1 1 1
left_child=-1 3 -3 9 8 -4 -6 -7 -5 -2
right_child=1 2 5 4 6 7 -8 -9 -10 -11
leaf_value=-0.043492992285618724 1.6005402398163093e-05 -0.072650826727631623 -0.033472720583004836 0.0068655543148367715 -0.0097961989478465936 0.047849614464813617 0.057592114382963897 -0.01024638979569362 -0.052717461258223554 0.07690884742978514
leaf_weight=17.706902367062867 10.249472421593962 9.6025340841151756 10.320686829276381 10.872680242173372 14.280088067986069 13.718432282097636 13.135191420093181 11.357698049396278 11.971607493236663 21.437524917535487
leaf_count=216 101 107 119 100 140 121 167 114 157 258
internal_value=0 0.0637461 -0.144032 0.181099 0.00880272 0.0346412 0.195028 0.174112 -0.20602 0.386715
internal_weight=0 126.946 44.9994 81.9466 50.2596 35.3968 27.4153 25.0761 22.8443 31.687
internal_count=1600 1384 461 923 564 354 307 235 257 359
cat_boundaries=0 6 7 8 9 10 11 12 13 14 15
cat_threshold=1073741824 8 1077018628 4194304 603979793 168427521 55 802 778 22 18 124 644 6 897
shrinkage=0.15


Tree=57
num_leaves=10
num_cat=9
split_feature=2 9 4 3 1 13 0 1 1
split_gain=2.75467 3.19424 3.03046 2.59822 2.46304 2.34651 1.43927 0.648629 0.506466
threshold=0 1 2 3 4 5 6 7 8
decision_type=1 1 1 1 1 1 1 1 1
left_child=1 2 4 7 -1 6 -2 -3 -4
right_child=5 3 8 -5 -6 -7 -8 -9 -10
leaf_value=0.028908179574211938 0.026762978273588516 -0.016825675591838753 -0.0068682088790232498 -0.0735179881756505 -0.044793768435894089 0.06137499130254126 -0.03088063547344819 0.021340747606229071 0.051427527700846666
leaf_weight=9.1881666881963593 7.8786753276363015 9.6385262114927155 8.9746949048712832 20.354969669599086 21.758003126829866 18.091060090810061 13.571449341252448 11.597393561154606 22.355098699219528
leaf_count=105 116 100 107 242 231 235 130 106 228
internal_value=0 -0.0840402 0.0614086 -0.271516 -0.141302 0.198444 -0.0528699 0.0278468 0.247379
internal_weight=0 103.867 62.276 41.5909 30.9462 39.5412 21.4501 21.2359 31.3298
internal_count=1600 1119 671 448 336 481 246 206 335
cat_boundaries=0 1 2 3 4 5 6 7 8 9
cat_threshold=151 242 29 540 74 645 521 650 3
shrinkage=0.15


Tree=58
num_leaves=10
num_cat=9
split_feature=14 2 13 13 1 10 10 9 4
split_gain=2.42132 2.64223 3.15807 2.58444 1.83657 1.71585 1.57741 1.17441 0.0323806
threshold=0 1 2 3 4 5 6 7 8
decision_type=9 1 1 1 1 1 1 1 1
left_child=-1 3 -3 6 8 -6 -2 -7 -5
right_child=1 2 -4 4 5 7 -8 -9 -10
leaf_value=0.04376048089231007 -0.019349181212843715 -0.021319148533053729 0.054569194428511193 0.0010870803679583325 0.031887220140912942 0.011968414516287801 0.043808262903687445 -0.046668535162629886 -0.077060585646603244
leaf_weight=14.547803464345632 10.274390960112212 16.928095340263098 20.124251484870911 9.567476859316228 9.9293961795046943 11.698986656963823 13.089379609562458 13.151880225166677 22.97436551656574
leaf_count=201 108 185 246 101 103 135 117 134 270
internal_value=0 -0.0491772 0.151572 -0.138107 -0.233225 -0.0275819 0.12373 -0.157005 -0.394867
internal_weight=0 127.738 37.0523 90.6859 67.3221 34.7803 23.3638 24.8509 32.5418
internal_count=1600 1399 431 968 743 372 225 269 371
cat_boundaries=0 6 7 8 9 10 11 12 13 14
cat_threshold=537956417 20 134217872 128 18907136 268697600 151 132 4 652 43 912 145 322
shrinkage=0.15


Tree=59
num_leaves=9
num_cat=8
split_feature=14 9 12 1 3 0 4 3
split_gain=2.39287 3.15572 3.18847 3.3733 2.55226 2.63876 1.87953 1.38012
threshold=0 1 2 3 4 5 6 7
decision_type=9 1 1 1 1 1 1 1
left_child=-1 -2 4 -4 -3 6 -6 -5
right_child=1 2 3 7 5 -7 -8 -9
leaf_value=-0.040776065755371765 -0.045402519741681066 0.070447243322914715 0.038503354186353027 0.01345032438124449 0.018361611034223718 0.039102334005500859 -0.048722049098887998 -0.058108279944578997
leaf_weight=16.41851351223886 11.625132830813525 24.065561715513468 10.769926923327146 9.6257265489548463 12.210227279923854 21.668250349815935 13.882489097304644 21.061451589688659
leaf_count=215 121 287 109 115 154 214 165 220
internal_value=0 0.0572861 0.115782 -0.0960338 0.234833 0.0556909 -0.139601 -0.252488
internal_weight=0 124.909 113.284 41.4571 71.8265 47.761 26.0927 30.6872
internal_count=1600 1385 1264 444 820 533 319 335
cat_boundaries=0 6 7 8 9 10 11 12 13
cat_threshold=1082130440 67108872 1076887552 4194304 17 168427521 520 135 337 568 23 550 393
shrinkage=0.15


Tree=60
num_leaves=9
num_cat=8
split_feature=7 4 5 0 13 11 10 0
split_gain=2.2593 3.06447 1.91556 1.6875 1.58319 1.09473 1.28567 0.407618
threshold=0 1 2 3 4 5 6 7
decision_type=1 1 1 1 1 1 1 1
left_child=2 5 3 -1 -3 6 -2 -4
right_child=1 4 7 -5 -6 -7 -8 -9
leaf_value=-0.037460620133951669 -0.029730665127811532 -0.01983014652388736 -0.0042083681980218147 0.025182304760124057 0.038965916701927839 -0.052654270096439297 0.021880750802452071 0.059334271405938506
leaf_weight=12.608267930336295 9.7075716662220639 10.857556283939628 9.7469908688217384 9.2704838160425442 21.818452093750238 30.546086172107607 14.29344220692292 21.318438861053441
leaf_count=116 125 109 103 115 287 352 166 227
internal_value=0 -0.093466 0.14971 -0.0756292 0.12907 -0.226118 -0.0106586 0.288183
internal_weight=0 87.2231 52.9442 21.8788 32.676 54.5471 24.001 31.0654
internal_count=1600 1039 561 231 396 643 291 330
cat_boundaries=0 1 2 3 4 5 6 7 8
cat_threshold=904 150 912 660 928 277 518 50
shrinkage=0.15


Tree=61
num_leaves=10
num_cat=9
split_feature=6 1 9 5 0 4 4 4 9
split_gain=2.279 2.82364 2.79316 2.63168 1.97599 1.2113 0.384176 0.169553 0.0101822
threshold=0 1 2 3 4 5 6 7 8
decision_type=1 1 1 1 1 1 1 1 1
left_child=1 3 6 -1 -4 -5 -2 -6 -3
right_child=2 8 4 5 7 -7 -8 -9 -10
leaf_value=0.031574683495429703 -0.0054553884818814213 -0.0018448620169157477 0.014946369555402286 0.012768407585799267 -0.0011441004350757509 -0.058458606942672603 0.043263758314499724 -0.066369030149800723 0.059601402152300892
leaf_weight=12.86911612190306 9.5934982527978701 8.8860097397118789 13.407042378559707 9.1586875058710557 11.648166770115493 14.787132728379222 9.0732090747915226 26.912232477217913 23.030241461936388
leaf_count=130 108 108 140 112 117 175 103 308 299
internal_value=0 0.122907 -0.116283 -0.0686832 -0.228587 -0.236533 0.167044 -0.339728 0.307567
internal_weight=0 68.7312 70.6341 36.8149 51.9674 23.9458 18.6667 38.5604 31.9163
internal_count=1600 824 776 417 565 287 211 425 407
cat_boundaries=0 1 2 3 4 5 6 7 8 9
cat_threshold=59 526 35 113 769 586 135 610 641
shrinkage=0.15


Tree=62
num_leaves=9
num_cat=8
split_feature=0 7 5 10 3 1 4 9
split_gain=2.16353 2.96717 2.87515 2.54797 2.28235 1.8899 1.55953 0.191393
threshold=0 1 2 3 4 5 6 7
decision_type=1 1 1 1 1 1 1 1
left_child=3 2 -2 4 -1 -5 -3 -7
right_child=1 6 -4 5 -6 7 -8 -9
leaf_value=0.023857628060980154 -0.029146803362614607 0.010998766115521577 0.047304100967579782 -0.01467328118948474 -0.043723019224496576 0.0018471157967471308 -0.065742040519722128 0.073587460379712907
leaf_weight=13.061320150969548 11.977991140447555 11.092639963142572 16.372764264233414 12.247042838484047 16.67076137196273 11.940389076247813 23.247888564132154 21.634609010070559
leaf_count=148 101 116 137 137 166 148 321 326
internal_value=0 -0.123521 0.105509 0.111124 -0.103349 0.24387 -0.293755 0.362354
internal_weight=0 62.6913 28.3508 75.5541 29.7321 45.822 34.3405 33.575
internal_count=1600 675 238 925 314 611 437 474
cat_boundaries=0 1 2 3 4 5 6 7 8
cat_threshold=555 936 664 772 537 148 802 737
shrinkage=0.15


Tree=63
num_leaves=10
num_cat=9
split_feature=3 12 11 8 1 1 9 5 2
split_gain=2.2265 2.63492 2.56283 2.50044 2.25754 1.7673 2.38611 1.24988 0.129405
threshold=0 1 2 3 4 5 6 7 8
decision_type=1 1 1 1 1 1 1 1 1
left_child=2 3 -1 7 -3 6 -4 -2 -5
right_child=1 4 5 8 -6 -7 -8 -9 -10
leaf_value=-0.033089250500017334 0.016387639595068802 0.01686765283303248 -0.035250356885657835 -0.0032214211567947711 -0.057398550137826646 0.065880420771841128 0.036315651102751124 -0.042206051603380264 0.061485934715386735
leaf_weight=8.2644284334965032 9.8900139005854708 12.22863474767655 11.648982423357664 8.7565926504321379 30.523392801173031 20.725689772516489 10.332154446281494 12.862191531341525 11.614222753793003
leaf_count=101 103 102 138 112 338 311 123 139 133
internal_value=0 -0.0918879 0.152543 0.0790085 -0.246567 0.252904 -0.00516115 -0.130062 0.278458
internal_weight=0 85.875 50.9713 43.123 42.752 42.7068 21.9811 22.7522 20.3708
internal_count=1600 927 673 487 440 572 261 242 245
cat_boundaries=0 1 2 3 4 5 6 7 8 9
cat_threshold=713 15 609 453 529 534 652 38 394
shrinkage=0.15


Tree=64
num_leaves=11
num_cat=10
split_feature=6 9 1 13 2 1 4 2 4 1
split_gain=2.10998 2.64836 2.82792 2.52777 2.01051 1.39871 1.25733 0.452716 0.145882 0.063954
threshold=0 1 2 3 4 5 6 7 8 9
decision_type=1 1 1 1 1 1 1 1 1 1
left_child=3 4 6 5 9 -1 -3 -5 -4 -2
right_child=1 2 8 7 -6 -7 -8 -9 -10 -11
leaf_value=0.020137133728164024 0.00075312525889322023 0.020495866896913822 0.06581212940486042 -0.003704425723152203 0.014512193040431795 -0.037707530641424368 -0.042737870450436699 0.069244217225166826 -0.0012094565226680337 -0.072872508006079181
leaf_weight=10.108888851944355 9.8585109463892895 6.7022247537970543 11.015713858418165 9.9702674662694317 13.040528580080716 12.573615282773973 13.952982548158618 17.179082532878969 10.022390100639315 21.389569173334166
leaf_count=115 107 106 112 104 169 132 166 222 111 256
internal_value=0 -0.087559 0.0873743 0.151731 -0.238001 -0.0910293 -0.14818 0.324459 0.291872 -0.367287
internal_weight=0 85.9819 41.6933 49.8319 44.2886 22.6825 20.6552 27.1493 21.0381 31.2481
internal_count=1600 1027 495 573 532 247 272 326 223 363
cat_boundaries=0 1 2 3 4 5 6 7 8 9 10
cat_threshold=121 852 181 162 182 817 936 140 283 69
shrinkage=0.15


Tree=65
num_leaves=10
num_cat=9
split_feature=14 3 12 10 2 7 11 4 1
split_gain=2.17768 2.55611 2.79339 2.16329 2.48657 2.1587 2.08205 1.0859 0.516171
threshold=0 1 2 3 4 5 6 7 8
decision_type=9 1 1 1 1 1 1 1 1
left_child=-1 3 6 4 -2 -4 7 -3 -7
right_child=1 2 5 -5 -6 8 -8 -9 -10
leaf_value=-0.038562981493093021 -0.039957734804309246 -0.036112747866847421 0.020282647865789344 0.060304498969137602 0.035048566042617045 -0.0015753392767867797 0.052903223885377625 0.017333270944589262 -0.074926082589810608
leaf_weight=16.190395864192396 11.718136734329162 9.4973791143856925 10.878582678735254 24.071307986741886 8.950190653093161 13.30297094397247 13.87345835007727 9.6521726958453673 16.601785792969167
leaf_count=215 147 108 110 315 139 127 155 105 179
internal_value=0 0.0593372 -0.056232 0.225434 -0.0442651 -0.210883 0.139385 -0.0831271 -0.33912
internal_weight=0 118.546 73.8063 44.7396 20.6683 40.7833 33.023 19.1496 29.9048
internal_count=1600 1385 784 601 286 416 368 213 306
cat_boundaries=0 6 7 8 9 10 11 12 13 14
cat_threshold=1082130440 67108872 1075840004 0 17 168427521 713 7 920 149 11 79 270 533
shrinkage=0.15


Tree=66
num_leaves=9
num_cat=8
split_feature=14 7 9 12 1 12 10 0
split_gain=2.00438 2.38046 2.24351 2.16724 2.53782 2.02313 1.35941 0.330796
threshold=0 1 2 3 4 5 6 7
decision_type=9 1 1 1 1 1 1 1
left_child=-1 7 5 4 -4 -3 -5 -2
right_child=1 2 3 6 -6 -7 -8 -9
leaf_value=-0.038352857310932173 0.0040395364699619329 0.020852905541629559 0.035001609711558919 -0.013481764689233074 -0.035322665945817754 -0.053977253457962504 0.060033220966392548 -0.048007149605221212
leaf_weight=14.826856931671498 9.8608458540402371 10.244203510228543 10.556702354922889 9.1529752062633616 17.308122082613412 9.5643179491162318 41.744608555920422 10.662780715152623
leaf_count=220 120 108 115 140 183 106 464 144
internal_value=0 0.0546107 0.120918 0.195511 -0.0431496 -0.141767 0.3118 -0.199132
internal_weight=0 119.095 98.5709 78.7624 27.8648 19.8085 50.8976 20.5236
internal_count=1600 1380 1116 902 298 214 604 264
cat_boundaries=0 6 7 8 9 10 11 12 13
cat_threshold=1082130440 8 1075838980 4194304 67108881 176816129 113 528 632 785 28 514 177
shrinkage=0.15


Tree=67
num_leaves=8
num_cat=7
split_feature=0 10 3 13 9 3 1
split_gain=1.99316 2.73811 2.3829 1.76766 2.80744 1.19003 0.979177
threshold=0 1 2 3 4 5 6
decision_type=1 1 1 1 1 1 1
left_child=2 -2 -1 4 -4 -3 -7
right_child=1 5 3 -5 -6 6 -8
leaf_value=0.028526411962212013 -0.03202427658868353 -0.010102216882601722 -0.043178910312579102 -0.056745189567144638 0.032625773467273397 -0.006092086541668114 0.058714632409020334
leaf_weight=12.419906079769133 13.010072084143756 13.604619212448597 8.7093024691566807 25.593254068400711 16.724556051194671 12.014320916729046 31.066917404299602
leaf_count=164 153 110 107 343 169 138 416
internal_value=0 0.108895 -0.119462 -0.213641 0.0120529 0.203807 0.285991
internal_weight=0 69.6959 63.447 51.0271 25.4339 56.6859 43.0812
internal_count=1600 817 783 619 276 664 554
cat_boundaries=0 1 2 3 4 5 6 7
cat_threshold=342 640 136 340 912 260 292
shrinkage=0.15


Tree=68
num_leaves=9
num_cat=8
split_feature=14 7 4 1 11 0 1 0
split_gain=2.00009 2.19421 2.44296 2.04082 2.68521 1.58109 0.365437 0.730898
threshold=0 1 2 3 4 5 6 7
decision_type=9 1 1 1 1 1 1 1
left_child=-1 3 6 -2 -5 -4 -3 -8
right_child=1 2 5 4 -6 -7 7 -9
leaf_value=0.039653946421097409 0.044527396585071551 -0.068776711226629345 0.041484853637533611 0.031178914311561064 -0.041079782490116477 -0.016122833450772055 -0.032769360087007406 0.0089392047791536453
leaf_weight=13.725703782401977 19.245461153332144 16.415500293718651 10.654470709152518 11.92715075239539 16.709665374364707 16.43742098892108 12.007497678510843 14.982037479989232
leaf_count=213 228 297 147 123 181 156 120 135
internal_value=0 -0.0516885 -0.156033 0.102353 -0.071359 0.0773937 -0.288939 -0.0897285
internal_weight=0 118.379 70.4969 47.8823 28.6368 27.0919 43.405 26.9895
internal_count=1600 1387 855 532 304 303 552 255
cat_boundaries=0 6 7 8 9 10 11 12 13
cat_threshold=537956417 33554452 67117200 2176 2129920 268435456 936 150 117 176 523 134 156
shrinkage=0.15


Tree=69
num_leaves=9
num_cat=8
split_feature=6 12 13 11 3 0 1 1
split_gain=1.9108 2.34264 1.91854 1.41362 1.27289 2.4373 1.38449 0.949242
threshold=0 1 2 3 4 5 6 7
decision_type=1 1 1 1 1 1 1 1
left_child=2 3 7 -2 5 -3 -6 -1
right_child=1 4 -4 -5 6 -7 -8 -9
leaf_value=-0.034168093719050004 -0.018273545523079616 0.041227011436525435 0.045069670440717101 0.042079961705895071 0.0028446322855404755 -0.035688557319308332 -0.06327539041507127 0.016787679766884063
leaf_weight=10.198582185897974 9.7633969404268992 10.506144973449407 25.135148065863177 16.103436651639644 16.821748269721866 7.6779733728617456 25.934579653898254 8.6971932714805025
leaf_count=107 108 146 321 207 189 102 318 102
internal_value=0 -0.0857846 0.14896 0.137041 -0.186351 0.0507391 -0.277689 -0.0868096
internal_weight=0 86.8073 44.0309 25.8668 60.9404 18.1841 42.7563 18.8958
internal_count=1600 1070 530 315 755 248 507 209
cat_boundaries=0 1 2 3 4 5 6 7 8
cat_threshold=57 5 130 836 457 549 834 142
shrinkage=0.15


Tree=70
num_leaves=8
num_cat=7
split_feature=8 12 0 11 10 10 2
split_gain=1.88062 3.57495 3.7999 2.32258 2.36501 1.99625 1.6585
threshold=0 1 2 3 4 5 6
decision_type=1 1 1 1 1 1 1
left_child=3 2 6 -1 -5 -3 -2
right_child=1 5 -4 4 -6 -7 -8
leaf_value=0.027913801954748751 -0.02126044524551678 -0.014178007085216299 -0.066615303850337718 -0.059368866966231754 0.014957912535219019 0.057583563303613777 0.044673086531763759
leaf_weight=10.896468345075846 9.2969023031182569 12.543306143023072 12.126752199139444 27.023575751809403 13.941652271896599 32.164338921196759 12.260157516691836
leaf_count=118 105 172 162 288 151 411 193
internal_value=0 0.091905 -0.135796 -0.135424 -0.240678 0.256924 0.12341
internal_weight=0 78.3915 33.6838 51.8617 40.9652 44.7076 21.5571
internal_count=1600 1043 460 557 439 583 298
cat_boundaries=0 1 2 3 4 5 6 7
cat_threshold=836 850 551 384 404 586 262
shrinkage=0.15


Tree=71
num_leaves=9
num_cat=8
split_feature=5 3 12 1 13 0 3 1
split_gain=1.89683 2.28465 2.80263 1.29157 2.11363 0.900236 0.666788 0.51547
threshold=0 1 2 3 4 5 6 7
decision_type=1 1 1 1 1 1 1 1
left_child=6 2 5 -3 -5 -2 -1 -4
right_child=1 3 7 4 -6 -7 -8 -9
leaf_value=-0.0038980642726466723 0.010818158385076078 -0.049450541416371334 -0.0064485137238097521 0.030175637152571134 -0.033852406983428486 -0.049775633120590336 0.05394474262415469 0.049419671630454846
leaf_weight=12.517143184784798 9.5100220609456283 27.762033110950142 9.4608352573122811 14.835260719060896 11.770182658918204 9.5783000485971588 10.90105771366507 23.321335396263748
leaf_count=141 116 382 128 179 154 100 125 275
internal_value=0 -0.0629244 0.0816519 -0.192116 0.00226683 -0.174975 0.207418 0.237051
internal_weight=0 106.238 51.8705 54.3675 26.6054 19.0883 23.4182 32.7822
internal_count=1600 1334 619 715 333 216 266 403
cat_boundaries=0 1 2 3 4 5 6 7 8
cat_threshold=105 569 568 650 388 523 115 312
shrinkage=0.15


Tree=72
num_leaves=8
num_cat=7
split_feature=6 5 9 8 10 7 12
split_gain=1.81674 2.03061 3.57565 1.84089 1.29772 0.976631 0.928839
threshold=0 1 2 3 4 5 6
decision_type=1 1 1 1 1 1 1
left_child=3 2 -2 -1 -3 -6 -4
right_child=1 4 6 -5 5 -7 -8
leaf_value=-0.066653011124654438 -0.047349228595825181 -0.015978055164081663 -0.016784350660975299 0.0085319050429667979 -0.0034034750361621748 0.050928771759132428 0.043674054561080214
leaf_weight=9.0634263581596297 22.877311835065484 11.463347709737716 6.3248419151641428 15.507170115597548 16.115826727123935 33.282639518845826 14.332994344178589
leaf_count=109 299 122 100 200 201 370 199
internal_value=0 0.0585393 -0.0956377 -0.203065 0.166757 0.23743 0.17151
internal_weight=0 104.397 43.5351 24.5706 60.8618 49.3985 20.6578
internal_count=1600 1291 598 309 693 571 299
cat_boundaries=0 1 2 3 4 5 6 7
cat_threshold=960 786 900 772 777 19 848
shrinkage=0.15


Tree=73
num_leaves=9
num_cat=8
split_feature=0 10 3 7 3 4 12 1
split_gain=1.87131 2.36888 1.88699 1.7685 1.20372 0.995517 0.580357 0.458163
threshold=0 1 2 3 4 5 6 7
decision_type=1 1 1 1 1 1 1 1
left_child=2 -2 -1 5 -3 -4 -6 -8
right_child=1 4 3 -5 6 -7 7 -9
leaf_value=0.024089446183073633 -0.02988302409584627 -0.0071632429892829128 -0.021008722235264534 -0.053005277467742716 0.064829108651648246 0.026943005429223482 0.020499424378105369 -0.013363398777620461
leaf_weight=12.224294767249374 12.702787340618668 17.118593144230545 8.8730066963471454 28.298558355309069 20.028771987417713 11.819538368843498 8.2325136419385654 9.214408060070129
leaf_count=164 153 142 103 403 311 113 111 100
internal_value=0 0.102724 -0.122003 -0.207787 0.192945 0.0415706 0.289794 0.0284151
internal_weight=0 67.2971 61.2154 48.9911 54.5943 20.6925 37.4757 17.4469
internal_count=1600 817 783 619 664 216 522 211
cat_boundaries=0 1 2 3 4 5 6 7 8
cat_threshold=342 640 136 810 132 163 135 521
shrinkage=0.15


Tree=74
num_leaves=10
num_cat=9
split_feature=14 5 9 3 8 1 3 10 7
split_gain=1.80167 1.97655 1.7663 2.52299 1.41117 1.73436 1.37144 1.03958 0.318952
threshold=0 1 2 3 4 5 6 7 8
decision_type=9 1 1 1 1 1 1 1 1
left_child=8 2 3 -2 5 -4 -3 -5 -1
right_child=1 6 4 7 -6 -7 -8 -9 -10
leaf_value=0.054140609612600983 -0.035347142028749175 -0.015219256693514649 -0.031076790610218535 -0.009336422497289271 -0.061862992781422356 0.032918717503204409 0.046023982482433411 0.05152509128084741 0.0016451707811332322
leaf_weight=7.5985409633722156 12.712210224242879 10.921193921938537 8.6938406636472774 11.465656916145234 24.46718431240879 9.5486794942989963 13.883132906630637 13.709904062561693 14.582964106462898
leaf_count=129 150 105 105 143 301 139 167 178 183
internal_value=0 -0.0618389 -0.136225 0.0304087 -0.26177 0.0147704 0.149558 0.193552 0.205758
internal_weight=0 105.402 80.5975 37.8878 42.7097 18.2425 24.8043 25.1756 22.1815
internal_count=1600 1288 1016 471 545 244 272 321 312
cat_boundaries=0 6 7 8 9 10 11 12 13 14
cat_threshold=537956417 167772244 201335216 2176 18907136 268697616 406 496 20 282 278 50 664 130
shrinkage=0.15


Tree=75
num_leaves=8
num_cat=7
split_feature=14 9 13 1 3 6 2
split_gain=1.72782 2.20195 1.71964 2.10095 1.43212 1.34703 1.05416
threshold=0 1 2 3 4 5 6
decision_type=9 1 1 1 1 1 1
left_child=6 4 3 -3 -2 -4 -1
right_child=1 2 5 -5 -6 -7 -8
leaf_value=0.011775848961683507 -0.047100945689582764 0.031745083787146994 -0.018118962264939937 -0.044090486603569928 0.015338515663223107 0.043206276771673276 -0.050776622349534242
leaf_weight=9.7480185648892057 14.808143798029048 6.1110179573297501 8.2851745914667827 11.659848572686316 11.000890501774849 50.641085390467197 14.564374435693027
leaf_count=109 137 113 103 142 160 629 207
internal_value=0 0.0591882 0.14189 -0.106478 -0.15757 0.221374 -0.197158
internal_weight=0 102.506 76.6971 17.7709 25.809 58.9263 24.3124
internal_count=1600 1284 987 255 297 732 316
cat_boundaries=0 6 7 8 9 10 11 12
cat_threshold=8388616 71311368 1093796870 4194304 603979793 176816129 640 42 553 53 640 688
shrinkage=0.15


Tree=76
num_leaves=9
num_cat=8
split_feature=0 5 10 6 2 5 12 11
split_gain=1.72349 2.08227 4.11739 1.51514 2.00807 1.64097 1.28268 0.480856
threshold=0 1 2 3 4 5 6 7
decision_type=1 1 1 1 1 1 1 1
left_child=1 2 7 5 -5 6 -2 -1
right_child=3 -3 -4 4 -6 -7 -8 -9
leaf_value=0.008165009268400459 -0.028781354698466564 0.047880876666725483 0.039156954609554213 -0.027867014698549082 0.035128053746418336 -0.060112441842139624 0.022744160172245523 -0.065587098034339736
leaf_weight=7.8058601261582243 8.9966385681182128 19.883162656100467 15.467924446100367 10.880796940065919 18.004188694525514 17.840831592213362 15.4521914976649 11.878882995340971
leaf_count=112 111 285 218 128 198 270 165 113
internal_value=0 0.116704 -0.0431634 -0.101805 0.068895 -0.209275 0.0062198 -0.289618
internal_weight=0 55.0358 35.1527 71.1746 28.885 42.2897 24.4488 19.6847
internal_count=1600 728 443 872 326 546 276 225
cat_boundaries=0 1 2 3 4 5 6 7 8
cat_threshold=553 390 900 646 644 484 656 131
shrinkage=0.15


Tree=77
num_leaves=8
num_cat=7
split_feature=9 6 12 4 0 1 8
split_gain=1.60312 1.48492 2.32042 2.30966 1.88432 0.81197 0.641199
threshold=0 1 2 3 4 5 6
decision_type=1 1 1 1 1 1 1
left_child=-1 3 4 -2 5 -3 -6
right_child=1 2 -4 -5 6 -7 -8
leaf_value=-0.038035353358123886 0.027825276980499636 -0.037935760939944621 -0.02824058674053815 -0.046645097062830987 0.050783575938267218 0.010444271515075808 -0.0058960400310542772
leaf_weight=12.16934504942037 8.6723568476736528 6.2375275520607829 14.811237605754284 17.275432851165537 42.517605977598578 12.706764527596535 10.690551971085368
leaf_count=149 109 122 191 199 565 147 118
internal_value=0 0.0386634 0.100761 -0.139592 0.175788 -0.0872544 0.268429
internal_weight=0 112.911 86.9637 25.9478 72.1525 18.9443 53.2082
internal_count=1600 1451 1143 308 952 269 683
cat_boundaries=0 1 2 3 4 5 6 7
cat_threshold=768 456 158 737 274 132 158
shrinkage=0.15


Tree=78
num_leaves=9
num_cat=8
split_feature=14 2 13 13 1 6 8 9
split_gain=1.62216 1.91603 2.30024 1.59329 2.35747 1.43608 1.08717 0.647509
threshold=0 1 2 3 4 5 6 7
decision_type=9 1 1 1 1 1 1 1
left_child=-1 3 5 4 7 -3 -4 -2
right_child=1 2 6 -5 -6 -7 -8 -9
leaf_value=0.035016799342043582 0.052606111899659344 -0.041421170897885266 -0.0089566975491579479 -0.047411661845115451 -0.031298289791178532 0.019965614667522179 0.064436661812879908 -0.0065895880660616028
leaf_weight=13.066367683466522 9.1481302962638473 13.416784964967517 10.262031497899441 27.660885511664674 17.665063341148194 9.0569496105890739 13.729995651170613 10.274831227958202
leaf_count=210 101 174 103 375 199 109 212 117
internal_value=0 -0.0560765 0.0895096 -0.158551 0.00110951 -0.121014 0.264297 0.197965
internal_weight=0 111.215 46.4658 64.7489 37.088 22.4737 23.992 19.423
internal_count=1600 1390 598 792 417 283 315 218
cat_boundaries=0 6 7 8 9 10 11 12 13
cat_threshold=537956417 167772180 201326720 128 18907136 268435456 135 140 452 341 134 612 277
shrinkage=0.15


Tree=79
num_leaves=9
num_cat=8
split_feature=0 9 11 5 10 5 13 7
split_gain=1.52733 2.13654 1.80428 2.18153 2.10274 1.25085 1.19767 0.581094
threshold=0 1 2 3 4 5 6 7
decision_type=1 1 1 1 1 1 1 1
left_child=2 5 -1 4 -4 -2 -5 -3
right_child=1 7 3 6 -6 -7 -8 -9
leaf_value=-0.027293533744638793 -0.020866045740220988 0.0025538117318188646 -0.034684228369592333 -0.01491558803307797 0.029930897194340507 0.030632201594811129 0.069695438369579713 -0.062374977464030923
leaf_weight=11.640314010903237 10.065809253370388 11.793152411933987 16.133414618787356 7.3619352988898754 10.941765093477445 18.005887717707086 21.13847803580575 16.632375049637634
leaf_count=129 116 109 210 100 162 192 324 258
internal_value=0 -0.116932 0.0898774 0.165878 -0.0502783 0.0769054 0.330948 -0.278554
internal_weight=0 56.4972 67.2159 55.5756 27.0752 28.0717 28.5004 28.4255
internal_count=1600 675 925 796 372 308 424 367
cat_boundaries=0 1 2 3 4 5 6 7 8
cat_threshold=555 52 616 262 141 400 392 393
shrinkage=0.15


Tree=80
num_leaves=8
num_cat=7
split_feature=14 9 0 2 0 6 5
split_gain=1.42584 1.8671 2.21249 2.46957 1.49586 1.3908 1.23845
threshold=0 1 2 3 4 5 6
decision_type=9 1 1 1 1 1 1
left_child=4 6 3 -3 -1 -4 -2
right_child=1 2 5 -5 -6 -7 -8
leaf_value=0.01979076973784695 0.019202432402144511 -0.041541302056876069 -0.009089745237759227 0.030283895453925271 -0.051454915152346792 0.052163785158811531 -0.041497600416605572
leaf_weight=7.4757913604844362 7.4932589754462242 17.136244204360992 13.79089681082405 10.172592032002287 14.76546888262965 34.500568772898987 17.545352359768007
leaf_count=121 108 226 201 164 195 388 197
internal_value=0 0.0470926 0.12373 -0.0922695 -0.191979 0.240752 -0.153574
internal_weight=0 100.639 75.6003 27.3088 22.2413 48.2915 25.0386
internal_count=1600 1284 979 390 316 589 305
cat_boundaries=0 6 7 8 9 10 11 12
cat_threshold=3233808392 4202504 1092752388 0 603979793 176816129 640 530 692 515 898 425
shrinkage=0.15


Tree=81
num_leaves=9
num_cat=8
split_feature=3 0 10 9 1 8 13 8
split_gain=1.38168 1.56195 2.26509 1.54197 1.38863 0.986984 0.73569 0.0246915
threshold=0 1 2 3 4 5 6 7
decision_type=1 1 1 1 1 1 1 1
left_child=-1 4 6 5 -2 -4 -3 -6
right_child=1 2 3 -5 7 -7 -8 -9
leaf_value=0.031494170637745886 0.011841464244946587 -0.0098206887977245784 0.015635450060402973 0.021131085447073872 0.0037269172075234409 -0.044641339716787985 0.049494963080029972 -0.068213070514532764
leaf_weight=14.276460591936482 12.493892389349638 8.7889014214742911 7.2693433836102486 12.534168923506511 8.1198231657035631 24.971697098575532 19.032450170489035 14.83514202735387
leaf_count=241 107 103 105 155 106 253 253 277
internal_value=0 -0.0521126 0.0353075 -0.099193 -0.199519 -0.203778 0.220764 -0.329045
internal_weight=0 108.045 72.5966 44.7752 35.4489 32.241 27.8214 22.955
internal_count=1600 1359 869 513 490 358 356 383
cat_boundaries=0 1 2 3 4 5 6 7 8
cat_threshold=520 276 83 916 369 522 312 624
shrinkage=0.15


Tree=82
num_leaves=10
num_cat=9
split_feature=5 0 11 7 10 0 3 2 8
split_gain=1.34134 1.80375 1.84192 1.64881 1.38563 1.41003 1.26596 0.142335 0.12522
threshold=0 1 2 3 4 5 6 7 8
decision_type=1 1 1 1 1 1 1 1 1
left_child=1 8 -3 6 5 -5 -2 -8 -1
right_child=3 2 -4 4 -6 -7 7 -9 -10
leaf_value=-0.0025002759228598733 -0.024503928605219154 0.028731396243208293 -0.035140762355181647 -0.028179930924939926 -0.049211678013996021 0.031710444983185475 -0.004014466651290286 0.048535733619970552 0.051398705570079188
leaf_weight=9.1576056262711045 6.4112705541774631 8.2711208707187307 17.384233548305932 6.4395953877829015 26.367865081178024 10.7777926994022 8.2240574078168702 10.094209706410771 18.392851016018543
leaf_count=128 139 108 207 104 388 130 104 116 176
internal_value=0 0.102745 -0.0817732 -0.0931395 -0.198328 0.0479121 0.0959772 0.212378 0.250588
internal_weight=0 53.2058 25.6554 68.3148 43.5853 17.2174 24.7295 18.3183 27.5505
internal_count=1600 619 315 981 622 234 359 220 304
cat_boundaries=0 1 2 3 4 5 6 7 8 9
cat_threshold=109 171 50 268 77 26 386 534 530
shrinkage=0.15


Tree=83
num_leaves=9
num_cat=8
split_feature=14 4 12 7 9 7 0 7
split_gain=1.33209 1.49973 3.01919 1.3777 1.75091 1.23837 1.19395 0.435613
threshold=0 1 2 3 4 5 6 7
decision_type=9 1 1 1 1 1 1 1
left_child=-1 2 7 6 -5 -4 -3 -2
right_child=1 3 5 4 -6 -7 -8 -9
leaf_value=0.032923264425905978 -0.008641752665589501 0.015660904238346395 0.016360317135019738 -0.025307849817558303 0.030445029379249026 -0.043700751652838009 -0.054102701506089972 0.067606837955304422
leaf_weight=12.492106159916146 7.4142993758432567 7.6863420254085213 9.3247163607738894 14.743344365386291 16.547259687446061 13.173689605202528 26.571155393728986 12.919107592199
leaf_count=212 113 102 115 193 183 163 366 153
internal_value=0 -0.0460176 0.0886397 -0.134094 0.0293903 -0.142889 -0.25632 0.307471
internal_weight=0 108.38 42.8318 65.5481 31.2906 22.4984 34.2575 20.3334
internal_count=1600 1388 544 844 376 278 468 266
cat_boundaries=0 6 7 8 9 10 11 12 13
cat_threshold=537956417 167772180 201334912 128 2129920 268435456 842 14 22 518 530 514 530
shrinkage=0.15


Tree=84
num_leaves=9
num_cat=8
split_feature=0 8 10 5 3 2 4 13
split_gain=1.33146 1.82567 1.54423 1.90339 1.19243 1.10209 0.752343 0.645065
threshold=0 1 2 3 4 5 6 7
decision_type=1 1 1 1 1 1 1 1
left_child=1 5 3 -2 -5 -1 -4 -3
right_child=2 7 6 4 -6 -7 -8 -9
leaf_value=-0.03694941254312141 0.035343767783613395 -0.010977265457594299 -0.055466272139464694 0.01835216352288906 -0.041074115196454992 0.014533645601303083 0.0031447852557553936 0.051945709061454702
leaf_weight=10.977796944789587 17.1780108474195 7.3187039440963417 16.195397533010691 7.9782323087565601 12.90807605115697 12.462171629536899 13.560582711594181 21.758013608749028
leaf_count=102 221 105 224 113 162 134 152 387
internal_value=0 0.107803 -0.0881762 0.0484883 -0.131879 -0.0894459 -0.231222 0.249011
internal_weight=0 52.5167 67.8203 38.0643 20.8863 23.44 29.756 29.0767
internal_count=1600 728 872 496 275 236 376 492
cat_boundaries=0 1 2 3 4 5 6 7 8
cat_threshold=553 836 709 70 140 102 199 24
shrinkage=0.15


Tree=85
num_leaves=8
num_cat=7
split_feature=9 3 10 11 2 7 8
split_gain=1.20399 1.18839 2.31401 1.52917 1.22216 1.02369 1.00029
threshold=0 1 2 3 4 5 6
decision_type=1 1 1 1 1 1 1
left_child=-1 2 5 -3 -4 -2 -7
right_child=1 3 4 -5 -6 6 -8
leaf_value=-0.033026026735086207 0.008511437548115966 0.040448509438990213 -0.01657803468089317 -0.021333998410800342 0.045426324181057999 0.012715319941967767 -0.054788401202007148
leaf_weight=11.46101926662959 15.796947520226238 27.788460101233795 8.4785761418752355 8.3509185349103046 16.291421404806901 8.243005954660477 23.135339776054025
leaf_count=149 175 427 111 106 184 129 319
internal_value=0 0.0373221 -0.038718 0.164283 0.170259 -0.159031 -0.25512
internal_weight=0 108.085 71.9453 36.1394 24.77 47.1753 31.3783
internal_count=1600 1451 918 533 295 623 448
cat_boundaries=0 1 2 3 4 5 6 7
cat_threshold=768 214 902 182 837 648 11
shrinkage=0.15


Tree=86
num_leaves=10
num_cat=9
split_feature=0 2 9 10 5 3 9 4 10
split_gain=1.17902 1.65302 1.77304 1.36744 1.50871 1.10186 0.679543 0.399862 0.320826
threshold=0 1 2 3 4 5 6 7 8
decision_type=1 1 1 1 1 1 1 1 1
left_child=1 2 7 6 -5 -6 -2 -1 -3
right_child=3 8 -4 4 5 -7 -8 -9 -10
leaf_value=0.035411607661994735 0.011781973126481158 -0.005665063276808273 -0.042578561585027333 0.031454953531317158 0.018105198569182416 -0.038272503521209346 -0.047081784350692761 -0.0092593046317260928 0.051828639102129467
leaf_weight=7.830420765443705 7.2622928665950894 8.4431811245158297 10.652296968270095 17.217935089953244 7.9413854028098285 12.662217096891256 22.059356173267592 7.196656422223894 17.693267323309559
leaf_count=109 104 115 121 221 113 162 272 102 281
internal_value=0 0.0996134 -0.0760795 -0.0857623 0.0437225 -0.118179 -0.221426 0.125777 0.245518
internal_weight=0 51.8158 25.6794 67.1432 37.8215 20.6036 29.3216 15.0271 26.1364
internal_count=1600 728 332 872 496 275 376 211 396
cat_boundaries=0 1 2 3 4 5 6 7 8 9
cat_threshold=553 71 146 314 70 140 290 738 904
shrinkage=0.15


Tree=87
num_leaves=9
num_cat=8
split_feature=5 3 7 7 9 1 3 9
split_gain=1.16916 1.79684 2.22326 1.52116 1.30193 0.934327 0.862139 0.795044
threshold=0 1 2 3 4 5 6 7
decision_type=1 1 1 1 1 1 1 1
left_child=6 2 -2 4 -3 -5 -1 -4
right_child=1 3 7 5 -6 -7 -8 -9
leaf_value=-0.0093335656381534626 -0.024777209473236771 -0.021075711612732195 -0.004969093296686186 -0.060885308254642875 0.033912238298369042 0.0041821315502121193 0.048227339853744312 0.057337802431482982
leaf_weight=10.605850813910363 14.376161024440078 10.32034840993583 12.026561991544442 21.807450364343822 10.759331553243102 13.006102143786846 10.219501141225921 15.21058777195867
leaf_count=131 175 140 127 390 121 179 135 202
internal_value=0 -0.051629 0.0945614 -0.158303 0.0591447 -0.273785 0.169299 0.2392
internal_weight=0 97.5065 41.6133 55.8932 21.0797 34.8136 20.8254 27.2371
internal_count=1600 1334 504 830 261 569 266 329
cat_boundaries=0 1 2 3 4 5 6 7 8
cat_threshold=105 57 720 992 582 151 51 657
shrinkage=0.15


Tree=88
num_leaves=10
num_cat=9
split_feature=14 6 12 3 2 2 1 0 4
split_gain=1.21876 2.29263 2.15708 1.13718 1.09489 1.02496 0.499372 0.446776 0.537255
threshold=0 1 2 3 4 5 6 7 8
decision_type=9 1 1 1 1 1 1 1 1
left_child=5 4 6 -4 -2 -1 -3 -5 -9
right_child=1 2 3 7 -6 -7 -8 8 -10
leaf_value=0.012329719663799534 -0.0093597820824976273 -0.0070939690816698708 0.016660381214458564 0.0072382578773352458 0.05204956107011588 -0.046681362886180966 0.047274839787604703 -0.00052424080323028462 -0.077870811960718808
leaf_weight=9.8459302914561686 11.499171089846639 9.0914038460468856 8.6129552018828672 8.3113349326886219 23.043925972655416 13.03642074763775 8.031332420883702 12.507319886470212 13.694992119097153
leaf_count=124 124 109 136 121 343 202 126 135 180
internal_value=0 0.0522546 -0.0661749 -0.177476 0.2273 -0.168414 0.176235 -0.258259 -0.341957
internal_weight=0 94.7924 60.2493 43.1266 34.5431 22.8824 17.1227 34.5136 26.2023
internal_count=1600 1274 807 572 467 326 235 436 315
cat_boundaries=0 6 7 8 9 10 11 12 13 14
cat_threshold=1119879176 71311368 1075975174 0 603979793 168427537 569 5 200 132 688 920 514 842
shrinkage=0.15


Tree=89
num_leaves=9
num_cat=8
split_feature=2 13 1 13 1 10 7 6
split_gain=1.07662 2.22788 2.82896 1.31551 0.969884 0.661286 0.642578 0.339317
threshold=0 1 2 3 4 5 6 7
decision_type=1 1 1 1 1 1 1 1
left_child=1 2 -1 4 -2 -3 -4 -7
right_child=3 5 6 -5 -6 7 -8 -9
leaf_value=-0.031957670305764449 0.021407549622696521 0.0078530277052453103 0.00033511238706468172 0.045230613464272401 -0.029151007566529039 0.0067088285303050091 0.054955397660509248 -0.059673789640158667
leaf_weight=13.700540615012867 6.6953729870729148 10.147351648309266 16.232910715276379 14.025078541133555 10.970981429563837 7.8945247319061327 16.500764306867492 20.77473780256696
leaf_count=180 100 149 197 235 146 118 194 281
internal_value=0 -0.0595228 0.0836061 0.133161 -0.0611858 -0.212793 0.228571 -0.29591
internal_weight=0 85.2508 46.4342 31.6914 17.6664 38.8166 32.7337 28.6693
internal_count=1600 1119 571 481 246 548 391 399
cat_boundaries=0 1 2 3 4 5 6 7 8
cat_threshold=151 452 648 645 520 49 565 515
shrinkage=0.15


Tree=90
num_leaves=10
num_cat=9
split_feature=14 9 10 2 5 13 1 12 9
split_gain=1.11285 1.52964 3.01051 1.206 1.38478 2.31779 1.06752 0.741474 0.112186
threshold=0 1 2 3 4 5 6 7 8
decision_type=9 1 1 1 1 1 1 1 1
left_child=8 2 -2 4 -3 -6 -4 -5 -1
right_child=1 3 6 7 5 -7 -8 -9 -10
leaf_value=-0.043323669324667489 -0.068901846734575903 -0.034062500869050182 -0.018415442981787326 -0.01342047091427654 0.050884710879114906 -0.023343763389514612 0.033733897039461253 0.044348038853292089 0.0060965160605203766
leaf_weight=8.8755504253786039 6.9307234972948208 10.849228856619446 8.7411876893602294 6.8423932811711001 10.111817918252198 11.926805086201059 13.127348331734543 32.430649664020166 6.4761545580113298
leaf_count=113 108 111 106 103 113 164 154 522 106
internal_value=0 0.0435908 -0.125691 0.118226 -0.0308785 0.10644 0.091009 0.224015 -0.188629
internal_weight=0 100.96 28.7993 72.1609 32.8879 22.0386 21.8685 39.273 15.3517
internal_count=1600 1381 368 1013 388 277 260 625 219
cat_boundaries=0 6 7 8 9 10 11 12 13 14
cat_threshold=33554432 71311360 1075971076 0 67108881 168427521 648 810 148 928 132 688 361 262
shrinkage=0.15


Tree=91
num_leaves=9
num_cat=8
split_feature=0 4 9 4 12 3 3 4
split_gain=1.21763 1.47164 1.40543 1.10181 2.02927 1.35606 0.771439 0.250343
threshold=0 1 2 3 4 5 6 7
decision_type=1 1 1 1 1 1 1 1
left_child=1 2 -1 6 7 -6 -2 -5
right_child=3 -3 -4 4 5 -7 -8 -9
leaf_value=0.023659985596682833 0.0081820294134766665 0.040873721671993588 -0.027037208259351991 -0.004819343215374282 0.015360640615178237 -0.050526491561469614 -0.053104619752827563 0.047566813321413687
leaf_weight=12.278738580411298 9.898590825730933 18.836735172197223 19.176804517745044 8.5496166953816992 9.7377627000678313 10.694895669352265 15.370135837467389 11.156345484778287
leaf_count=137 121 390 201 110 138 132 242 129
internal_value=0 0.101386 -0.0420924 -0.0892904 0.0232006 -0.162645 -0.223893 0.205782
internal_weight=0 50.2923 31.4555 65.4073 40.1386 20.4327 25.2687 19.706
internal_count=1600 728 338 872 509 270 363 239
cat_boundaries=0 1 2 3 4 5 6 7 8
cat_threshold=553 278 401 133 14 156 43 336
shrinkage=0.15


Tree=92
num_leaves=9
num_cat=8
split_feature=14 0 2 10 6 4 3 10
split_gain=1.09505 1.17285 2.05538 1.42202 0.965548 1.29309 1.02487 0.500836
threshold=0 1 2 3 4 5 6 7
decision_type=9 1 1 1 1 1 1 1
left_child=-1 2 3 -2 6 -6 -3 -4
right_child=1 4 7 -5 5 -7 -8 -9
leaf_value=0.029388372712513849 0.023351234902818308 -0.018678828991505195 -0.0091627516423273807 -0.039137866536445513 0.011129870339908803 -0.052602228198884937 0.031543330551002967 0.049021885403954274
leaf_weight=12.790813958505167 6.8438262161798775 9.9265231008175778 7.5446839020587504 16.319938298780475 11.498937084339557 23.525502942851745 8.8133676182478684 17.566447871155109
leaf_count=214 105 115 127 174 104 412 109 240
internal_value=0 -0.0445787 0.0633571 -0.128008 -0.136231 -0.22569 0.0513183 0.226063
internal_weight=0 102.039 48.2749 23.1638 53.7643 35.0244 18.7399 25.1111
internal_count=1600 1386 646 279 740 516 224 367
cat_boundaries=0 6 7 8 9 10 11 12 13
cat_threshold=537956417 20 150995072 128 18907136 269746176 617 71 18 25 616 19 898
shrinkage=0.15


Tree=93
num_leaves=9
num_cat=8
split_feature=14 7 11 13 2 8 2 3
split_gain=0.986522 1.41316 1.70096 1.45355 1.45214 1.35697 0.941199 0.121655
threshold=0 1 2 3 4 5 6 7
decision_type=9 1 1 1 1 1 1 1
left_child=-1 3 -3 -2 7 -6 -5 -4
right_child=1 2 4 6 5 -7 -8 -9
leaf_value=0.028930245215396354 -0.016762056847763673 -0.047067548677849985 -0.0027505430685716868 -0.011276632247684635 0.018657453295362371 -0.039774940630411003 0.054245017504240843 0.044637950297792349
leaf_weight=11.849214691319501 15.533197423443196 20.758513512089849 8.9655368013773096 8.8648971060756576 9.6262184407096338 15.884520639781842 14.905695707537236 7.6943593812175122
leaf_count=213 192 279 122 105 143 232 200 114
internal_value=0 -0.039391 -0.12555 0.0960424 0.00949377 -0.124541 0.224708 0.184465
internal_weight=0 102.233 62.9291 39.3038 42.1706 25.5107 23.7706 16.6599
internal_count=1600 1387 890 497 611 375 305 236
cat_boundaries=0 6 7 8 9 10 11 12 13
cat_threshold=537956417 20 68165776 2176 2129920 268435456 904 712 145 936 130 226 150
shrinkage=0.15


Tree=94
num_leaves=8
num_cat=7
split_feature=0 1 3 10 5 5 8
split_gain=1.00068 1.62099 1.41165 1.25647 1.79188 0.982697 0.919028
threshold=0 1 2 3 4 5 6
decision_type=1 1 1 1 1 1 1
left_child=3 2 -2 4 6 -5 -1
right_child=1 -3 -4 5 -6 -7 -8
leaf_value=0.015432474530409634 0.011802181030941107 0.018443924498909924 -0.049086491214013185 -0.011504389483591684 0.02949503816350697 0.055931882764182213 -0.042455667119510709
leaf_weight=7.1839335651602596 12.795078872237353 17.786122813820839 23.39925541728735 8.8384918026858923 11.53114691050723 14.361967402393931 17.587019371683713
leaf_count=112 178 173 432 126 155 244 180
internal_value=0 -0.0893956 -0.197776 0.0839214 -0.0390152 0.230094 -0.173715
internal_weight=0 53.9805 36.1943 59.5026 36.3021 23.2005 24.771
internal_count=1600 783 610 817 447 370 292
cat_boundaries=0 1 2 3 4 5 6 7
cat_threshold=681 654 424 908 902 144 778
shrinkage=0.15


Tree=95
num_leaves=11
num_cat=10
split_feature=9 12 10 10 3 3 8 11 7 6
split_gain=1.00486 1.08473 1.67765 1.32736 1.26878 1.22749 0.794861 0.473393 0.295184 0.52059
threshold=0 1 2 3 4 5 6 7 8 9
decision_type=1 1 1 1 1 1 1 1 1 1
left_child=-1 3 7 5 -4 -2 -6 -3 9 -5
right_child=1 2 4 8 6 -7 -8 -9 -10 -11
leaf_value=-0.029855691189598094 -0.035268248633206552 -0.0086904829361752652 0.015180467485573701 0.020163404149057113 0.013486440067253294 0.022297603350461676 -0.056286295779728733 0.044543397865090109 0.055441708133855391 -0.016546371919396403
leaf_weight=10.797135267290285 9.9919406302506086 7.8414916045730934 11.039394273771903 8.1650427666027081 6.701290725963192 7.3285864241188419 20.067856847075745 7.4829771751537937 15.978658681851813 7.3119163780938825
leaf_count=149 139 115 160 106 123 111 255 109 230 103
internal_value=0 0.040351 -0.0553413 0.136271 -0.160052 -0.0777669 -0.266014 0.164189 0.244458 0.0208868
internal_weight=0 101.909 53.133 48.7761 37.8085 17.3205 26.7691 15.3245 31.4556 15.477
internal_count=1600 1451 762 689 538 250 378 224 439 209
cat_boundaries=0 1 2 3 4 5 6 7 8 9 10
cat_threshold=768 133 593 530 137 135 267 184 61 26
shrinkage=0.15


Tree=96
num_leaves=10
num_cat=9
split_feature=14 9 13 2 1 9 8 2 2
split_gain=0.974762 1.40336 0.968981 3.27602 1.08352 1.22547 0.556481 0.286822 0.233449
threshold=0 1 2 3 4 5 6 7 8
decision_type=9 1 1 1 1 1 1 1 1
left_child=-1 -2 3 -3 6 7 -4 -6 -7
right_child=1 2 4 -5 5 8 -8 -9 -10
leaf_value=-0.027602222766529742 -0.032882539993480495 -0.047600170810068142 -0.003727588968631844 0.037050089268285548 -0.0081597159833035494 0.0036452292984960472 0.055304596003808486 0.037502177920152341 -0.037506523414494078
leaf_weight=12.768546588602474 8.2062317171366868 13.261412099935113 11.351332808728328 9.7577141161309608 6.5874908941332251 9.8613985769916308 22.083739004447125 9.8794026623945701 8.4052988484036195
leaf_count=203 111 206 126 190 100 106 291 164 103
internal_value=0 0.0434608 0.086428 -0.0757585 0.14388 -0.00115465 0.260126 0.153694 -0.145736
internal_weight=0 99.394 91.1878 23.0191 68.1687 34.7336 33.4351 16.4669 18.2667
internal_count=1600 1397 1286 396 890 473 417 264 209
cat_boundaries=0 6 7 8 9 10 11 12 13 14
cat_threshold=8388616 67108864 1075970052 0 67108881 168427521 576 43 150 327 7 928 13 422
shrinkage=0.15


Tree=97
num_leaves=9
num_cat=8
split_feature=0 4 3 3 11 2 8 9
split_gain=1.02039 1.28594 2.39787 1.54524 1.08562 0.823005 0.697109 0.232928
threshold=0 1 2 3 4 5 6 7
decision_type=1 1 1 1 1 1 1 1
left_child=4 2 -2 -3 5 -1 -6 -8
right_child=1 3 -4 -5 6 -7 7 -9
leaf_value=0.022346080283365873 0.047896169097139583 0.015037430767765824 -0.026331280573840581 -0.05107287602405295 -0.014110475611288999 -0.023479301036900449 -0.0016716410170105219 0.054619100427890185
leaf_weight=5.0080885259667411 10.142718198476357 10.805642328690736 11.590076496824624 20.557021887972954 6.4669806421734393 19.111785922548737 10.528712808154522 17.50589234568179
leaf_count=102 108 127 181 367 102 189 143 281
internal_value=0 -0.0899702 0.0832503 -0.201111 0.0862239 -0.0680253 0.185113 0.257315
internal_weight=0 53.0955 21.7328 31.3627 58.6215 24.1199 34.5016 28.0346
internal_count=1600 783 289 494 817 291 526 424
cat_boundaries=0 1 2 3 4 5 6 7 8
cat_threshold=681 856 60 137 620 808 304 557
shrinkage=0.15


Tree=98
num_leaves=10
num_cat=9
split_feature=14 9 10 8 12 0 1 8 6
split_gain=0.913631 1.22393 1.94059 1.53433 1.05324 0.987614 1.41809 0.855714 0.578361
threshold=0 1 2 3 4 5 6 7 8
decision_type=9 1 1 1 1 1 1 1 1
left_child=-1 4 3 8 -2 6 -6 -7 -3
right_child=1 2 -4 -5 5 7 -8 -9 -10
leaf_value=-0.027894011520172762 -0.021558947397173862 0.011784910798493472 -0.052627697579667232 0.041031464873486446 -0.035622727345453284 -0.0073886976057465888 0.021171269534337362 0.055374850616877941 -0.033417915968997902
leaf_weight=11.346350892563349 7.3790566362440586 7.8444098457694054 8.8004968009190616 9.0919301484245825 7.5776803204789758 10.716683808597734 13.304444706416691 25.446151992306113 9.3284961679019052
leaf_count=206 104 107 136 120 117 118 202 385 105
internal_value=0 0.0402244 -0.0949259 0.0639272 0.116656 0.166751 -0.0286639 0.261358 -0.106877
internal_weight=0 99.4894 35.0653 26.2648 64.424 57.045 20.8821 36.1628 17.1729
internal_count=1600 1394 468 332 926 822 319 503 212
cat_boundaries=0 6 7 8 9 10 11 12 13 14
cat_threshold=8388608 8200 1075974148 0 67108881 168427521 55 213 310 800 786 532 640 26
shrinkage=0.15


Tree=99
num_leaves=7
num_cat=6
split_feature=0 11 11 9 4 1
split_gain=0.899433 1.52765 1.16542 2.61651 1.44315 0.885783
threshold=0 1 2 3 4 5
decision_type=1 1 1 1 1 1
left_child=1 -1 3 -2 -4 -6
right_child=2 -3 4 -5 5 -7
leaf_value=0.038575556261207143 -0.032445080218077668 -0.016665203219141486 0.016381807439651917 0.039849930140778818 0.009228651670731251 -0.052763332619281768
leaf_weight=20.094028453226201 10.300893688807262 13.939058193587696 12.700694720959289 18.768977790721696 9.9176576894242334 24.561127205146473
leaf_count=380 161 182 165 230 109 373
internal_value=0 0.115359 -0.0602973 0.0832317 -0.147823 -0.245772
internal_weight=0 34.0331 76.2494 29.0699 47.1795 34.4788
internal_count=1600 562 1038 391 647 482
cat_boundaries=0 1 2 3 4 5 6
