tree
version=v3
num_class=1
num_tree_per_iteration=1
label_index=0
max_feature_idx=14
objective=binary sigmoid:1
feature_names=p_1 p_2 p_3 p_4 p_5 p_6 p_7 p_8 p_9 p_10 p_11 p_12 p_13 p_14 cluster
feature_infos=4:1:2:7:0:9:3:6:8:5 4:1:2:7:0:6:3:9:8:5 4:7:1:2:0:6:3:9:8:5 4:7:2:1:9:6:0:3:8:5 4:7:1:2:0:9:6:3:5:8 4:7:2:1:6:3:9:0:5:8 4:7:2:1:0:9:3:8:6:5 4:2:7:1:9:0:3:5:6:8 4:7:2:1:9:0:5:8:3:6 7:4:2:9:1:5:0:3:6:8 4:7:9:0:1:5:2:3:6:8 4:2:7:9:3:0:1:5:6:8 9:4:0:7:2:3:1:5:8:6 9:0:3:5:2:4:7:1:8:6 124:5:11:28:63:117:123:17:92:170:8:25:35:57:58:66:149:167:0:14:24:44:54:83:156:177:15:21:51:65:82:143:164:175:3:4:7:31:34:39:67:70:80:146:150:171:172:176:9:29:37:38:46:48:59:61:74:76:81:118:157:159:162:173:180:2:10:12:16:22:23:32:36:40:43:60:62:78:79:87:95:131:134:135:140:148:161:1:6:18:33:41:52:64:68:71:72:75:84:88:89:90:96:106:114:115:116:126:127:129:133:160:169:174:181:19:20:42:49:55:56:69:73:77:99:121:122:136:137:141:151:155:182:183:13:26:27:93:101:107:109:110:112:113:120:125:128:144:145:154:166:45:47:53:85:91:100:103:105:108:111:132:139:142:152:153:158:179:86:94:97:98:102:119:130:138:147:165:168:178:30:50:104:163
tree_sizes=556 628 717 629 718 630 805 719 627 719 628 721 810 816 814 814 810 902 807 905 812 814 907 904 897 811 931 928 817 834 929 898 904 835 910 811 842 903 998 933 839 996 898 1054 1053 923 901 839 1055 958 901 927 963 839 995 1039 1034 993 808 1019 950 1037 925 1046 814 905 1049 816 1137 991 994 952 910 856 1039 1040 990 1040 994 1180 1047 909 948 1142 1089 1045 999 954 1055 1088 1105 955 998 1014 1140 1090 906 991 1050 996

Tree=0
num_leaves=5
num_cat=4
split_feature=11 9 12 13
split_gain=473.536 70.2054 56.4945 29.0127
threshold=0 1 2 3
decision_type=1 1 1 1
left_child=2 -2 -1 -3
right_child=1 3 -4 -5
leaf_value=-0.0092105263157894728 -0.064864864864864868 0.03037974683544304 0.07545605306799337 -0.025791855203619915
leaf_weight=28 156.5 29.5 140.75 45.25
leaf_count=112 626 118 563 181
internal_value=0 -0.91399 1.23357 -0.0530973
internal_weight=0 231.25 168.75 74.75
internal_count=1600 925 675 299
cat_boundaries=0 1 2 3 4
cat_threshold=553 150 214 43
shrinkage=0.05


Tree=1
num_leaves=5
num_cat=4
split_feature=12 8 11 9
split_gain=431.559 84.9361 72.7319 27.9636
threshold=0 1 2 3
decision_type=1 1 1 1
left_child=2 3 -1 -2
right_child=1 -3 -4 -5
leaf_value=0.072871336621628924 -0.028686222071977421 -0.066600384642156188 -0.0054176404144600024 0.030449882459689704
leaf_weight=139.55126884579659 25.978515282273293 154.63316810131073 43.716863095760345 35.740606114268303
leaf_count=559 104 619 175 143
internal_value=0 -0.93694 1.09764 0.100589
internal_weight=0 216.352 183.268 61.7191
internal_count=1600 866 734 247
cat_boundaries=0 1 2 3 4
cat_threshold=553 809 553 212
shrinkage=0.05


Tree=2
num_leaves=6
num_cat=5
split_feature=11 8 12 7 13
split_gain=394.576 63.1905 45.533 18.9867 3.42508
threshold=0 1 2 3 4
decision_type=1 1 1 1 1
left_child=2 3 -1 -2 -3
right_child=1 4 -4 -5 -6
leaf_value=-0.0076656006091227165 -0.021956540101596533 -0.016133807204136593 0.068932972740252771 0.026710369896767408 -0.064762441105341281
leaf_weight=27.974071964621544 28.468326956033707 30.17341049015522 139.98343180119991 32.46850973367691 139.54265949130058
leaf_count=112 114 121 563 130 560
internal_value=0 -0.834661 1.12923 0.0816834 -1.14991
internal_weight=0 230.653 167.958 60.9368 169.716
internal_count=1600 925 675 244 681
cat_boundaries=0 1 2 3 4 5
cat_threshold=553 809 214 150 9
shrinkage=0.05


Tree=3
num_leaves=5
num_cat=4
split_feature=12 8 11 9
split_gain=364.309 72.3636 58.0946 25.7613
threshold=0 1 2 3
decision_type=1 1 1 1
left_child=2 3 -1 -2
right_child=1 -3 -4 -5
leaf_value=0.066927180980835929 -0.027639802618697501 -0.061439389088702459 -0.0037436803349073333 0.02912642050740219
leaf_weight=138.11376239359379 25.949985072016716 153.62456592917442 43.642834916710854 35.729263141751289
leaf_count=559 104 619 175 143
internal_value=0 -0.862366 1.01295 0.0943869
internal_weight=0 215.304 181.757 61.6792
internal_count=1600 866 734 247
cat_boundaries=0 1 2 3 4
cat_threshold=553 809 553 212
shrinkage=0.05


Tree=4
num_leaves=6
num_cat=5
split_feature=11 13 9 9 7
split_gain=335.444 64.7768 50.7744 38.2725 15.37
threshold=0 1 2 3 4
decision_type=1 1 1 1 1
left_child=2 -2 4 -3 -1
right_child=1 3 -4 -5 -6
leaf_value=-0.022223796335360497 0.063877634032649538 -0.037220288390618354 -0.059303124161285407 0.034624265167039862 0.024038399041316032
leaf_weight=25.092205196619034 139.41788703203201 28.947339698672295 149.05623345077038 25.539875566959381 26.882058426737785
leaf_count=101 568 117 603 103 108
internal_value=0 0.914678 -0.883837 -0.0679481 0.0344348
internal_weight=0 193.905 201.03 54.4872 51.9743
internal_count=1600 788 812 220 209
cat_boundaries=0 1 2 3 4 5
cat_threshold=150 553 809 150 22
shrinkage=0.05


Tree=5
num_leaves=5
num_cat=4
split_feature=12 8 11 10
split_gain=311.973 64.1645 47.2111 23.179
threshold=0 1 2 3
decision_type=1 1 1 1
left_child=2 3 -1 -2
right_child=1 -3 -4 -5
leaf_value=0.062186588712010382 -0.025329624673442547 -0.057383284034905127 -0.0022982145637619597 0.028499543335867447
leaf_weight=135.74110351502895 26.627865791320801 151.88816763460636 43.521290719509125 34.882252901792526
leaf_count=559 107 619 175 140
internal_value=0 -0.800214 0.944735 0.0982668
internal_weight=0 213.398 179.262 61.5101
internal_count=1600 866 734 247
cat_boundaries=0 1 2 3 4
cat_threshold=553 809 553 22
shrinkage=0.05


Tree=6
num_leaves=7
num_cat=6
split_feature=12 9 13 8 11 11
split_gain=285.627 61.5063 44.5934 20.8389 3.17983 0.84
threshold=0 1 2 3 4 5
decision_type=1 1 1 1 1 1
left_child=2 3 5 -2 -3 -1
right_child=1 4 -4 -5 -6 -7
leaf_value=0.016281131313227146 -0.021618232565969096 -0.014353459850324102 -0.013252307076736462 0.029384630107495226 -0.062926624804357081 0.064124292381943934
leaf_weight=27.632116600871086 29.04961559176445 27.886356741189957 28.687924653291702 32.139241725206375 123.02058327198029 121.39212419092655
leaf_count=111 118 113 117 129 506 506
internal_value=0 -0.767261 0.90835 0.110709 -1.10801 1.1367
internal_weight=0 212.096 177.712 61.1889 150.907 149.024
internal_count=1600 866 734 247 619 617
cat_boundaries=0 1 2 3 4 5 6
cat_threshold=553 809 553 150 361 214
shrinkage=0.05


Tree=7
num_leaves=6
num_cat=5
split_feature=11 13 9 9 13
split_gain=264.104 51.3062 43.166 33.4409 19.6653
threshold=0 1 2 3 4
decision_type=1 1 1 1 1
left_child=2 -2 -1 -3 -4
right_child=1 3 4 -5 -6
leaf_value=-0.055899349539808144 0.057667064988707432 -0.03453818770997432 0.026548337800797753 0.032793970662342957 -0.022533963165679301
leaf_weight=133.05117857456207 135.13395522534847 28.678166121244431 24.838380709290504 25.368354588747025 39.59889917075634
leaf_count=551 568 117 100 103 161
internal_value=0 0.822716 -0.789367 -0.0549616 -0.0517909
internal_weight=0 189.18 197.488 54.0465 64.4373
internal_count=1600 788 812 220 261
cat_boundaries=0 1 2 3 4 5
cat_threshold=150 553 150 150 43
shrinkage=0.05


Tree=8
num_leaves=5
num_cat=4
split_feature=12 8 13 10
split_gain=245.791 54.9588 38.4154 19.9673
threshold=0 1 2 3
decision_type=1 1 1 1
left_child=2 3 -1 -2
right_child=1 -3 -4 -5
leaf_value=0.053394568528327802 -0.02279454602981984 -0.052093168569703897 -0.012023906089341261 0.02740639991769377
leaf_weight=145.63428239524364 26.384631425142288 148.08458878099918 28.616828888654709 34.703720882534981
leaf_count=617 107 619 117 140
internal_value=0 -0.715356 0.851631 0.111354
internal_weight=0 209.173 174.251 61.0884
internal_count=1600 866 734 247
cat_boundaries=0 1 2 3 4
cat_threshold=553 809 553 22
shrinkage=0.05


Tree=9
num_leaves=6
num_cat=5
split_feature=11 13 9 9 7
split_gain=229.184 42.9786 39.603 30.1752 12.9546
threshold=0 1 2 3 4
decision_type=1 1 1 1 1
left_child=2 -2 4 -3 -1
right_child=1 3 -4 -5 -6
leaf_value=-0.019294788677256189 0.054182042223071269 -0.032153770711436901 -0.050623577337127391 0.031904513294864927 0.02344421462225289
leaf_weight=24.738930940628052 131.76400445401669 28.457630798220634 143.21160234510899 25.276208490133286 26.660881370306015
leaf_count=101 568 117 603 103 108
internal_value=0 0.774431 -0.739638 -0.0348598 0.0616306
internal_weight=0 185.498 194.611 53.7338 51.3998
internal_count=1600 788 812 220 209
cat_boundaries=0 1 2 3 4 5
cat_threshold=150 553 809 150 22
shrinkage=0.05


Tree=10
num_leaves=5
num_cat=4
split_feature=12 8 11 10
split_gain=212.17 49.3017 33.8646 17.755
threshold=0 1 2 3
decision_type=1 1 1 1
left_child=2 3 -1 -2
right_child=1 -3 -4 -5
leaf_value=0.053313336707611597 -0.021255449624343791 -0.049106078343148729 -0.0018650113024543718 0.026228809968190728
leaf_weight=127.38765116035938 26.201797336339951 145.1253679394722 43.207353696227074 34.560873791575432
leaf_count=559 107 619 175 140
internal_value=0 -0.668708 0.800173 0.112854
internal_weight=0 205.888 170.595 60.7627
internal_count=1600 866 734 247
cat_boundaries=0 1 2 3 4
cat_threshold=553 809 553 22
shrinkage=0.05


Tree=11
num_leaves=6
num_cat=5
split_feature=11 13 9 9 13
split_gain=196.535 37.4928 36.9362 27.2011 17.0247
threshold=0 1 2 3 4
decision_type=1 1 1 1 1
left_child=2 -2 -1 -3 -4
right_child=1 3 4 -5 -6
leaf_value=-0.049947641366395887 0.051074492769480895 -0.03060770961895995 0.02614363470428966 0.030429318954057358 -0.019653660486438997
leaf_weight=127.75929494202137 127.98469516634941 28.136452153325081 24.678122609853745 25.061184197664261 38.950270548462868
leaf_count=551 568 117 100 103 161
internal_value=0 0.726753 -0.68884 -0.0317675 -0.0150594
internal_weight=0 181.182 191.388 53.1976 63.6284
internal_count=1600 788 812 220 261
cat_boundaries=0 1 2 3 4 5
cat_threshold=150 553 150 150 43
shrinkage=0.05


Tree=12
num_leaves=7
num_cat=6
split_feature=12 8 9 11 10 13
split_gain=183.433 44.4812 31.2323 18.1684 15.9903 0.842405
threshold=0 1 2 3 4 5
decision_type=1 1 1 1 1 1
left_child=2 4 3 -1 -2 -5
right_child=1 -3 -4 5 -6 -7
leaf_value=-0.019882828990064532 -0.019927066971332414 -0.046381560090302913 0.056873229600827246 0.038358191094267219 0.025291350321491032 0.0066400739124685155
leaf_weight=26.863483965396881 26.000740170478821 141.87983949482441 94.490890845656395 21.89441254734993 34.40810415148735 23.114560455083847
leaf_count=110 107 619 422 100 140 102
internal_value=0 -0.625438 0.754474 0.173525 0.115256 0.524749
internal_weight=0 202.289 166.363 71.8725 60.4088 45.009
internal_count=1600 866 734 312 247 202
cat_boundaries=0 1 2 3 4 5 6
cat_threshold=553 809 150 214 22 513
shrinkage=0.05


Tree=13
num_leaves=7
num_cat=6
split_feature=11 9 10 13 7 12
split_gain=170.128 33.2452 32.6841 12.8196 11.1972 0.696011
threshold=0 1 2 3 4 5
decision_type=1 1 1 1 1 1
left_child=1 4 3 -2 -1 -3
right_child=2 5 -4 -5 -6 -7
leaf_value=-0.017071476564810187 0.022006030292132359 -0.015075212721880064 0.050010308372529177 -0.017754584147865984 0.022972436972703431 -0.052160199338791929
leaf_weight=24.341267943382263 29.690189018845558 32.293661996722221 115.47566021978855 31.629163086414337 26.419352844357491 104.79249586164951
leaf_count=101 132 134 523 133 108 469
internal_value=0 -0.644418 0.686249 0.0376658 0.0824169 -0.900858
internal_weight=0 187.847 176.795 61.3194 50.7606 137.086
internal_count=1600 812 788 265 209 603
cat_boundaries=0 1 2 3 4 5 6
cat_threshold=150 809 214 521 22 617
shrinkage=0.05


Tree=14
num_leaves=7
num_cat=6
split_feature=12 9 13 8 7 10
split_gain=158.448 40.5044 30.4169 13.0823 4.29765 0.849308
threshold=0 1 2 3 4 5
decision_type=1 1 1 1 1 1
left_child=2 3 5 -2 -3 -1
right_child=1 4 -4 -5 -6 -7
leaf_value=0.01262021011370036 -0.016076127456935024 -0.0095129221837799288 -0.012398687040513353 0.024899772070259861 -0.050977629346644127 0.052207089795967367
leaf_weight=26.975394159555435 28.212162226438522 27.723780304193497 27.954113155603409 31.628327026963234 110.84354892373085 107.41927705705166
leaf_count=119 118 122 117 129 497 498
internal_value=0 -0.585098 0.710904 0.120913 -0.877606 0.913712
internal_weight=0 198.408 162.349 59.8405 138.567 134.395
internal_count=1600 866 734 247 619 617
cat_boundaries=0 1 2 3 4 5 6
cat_threshold=553 809 553 150 553 276
shrinkage=0.05


Tree=15
num_leaves=7
num_cat=6
split_feature=11 9 9 13 13 10
split_gain=149.109 30.7289 29.5504 14.5795 14.5444 0.91422
threshold=0 1 2 3 4 5
decision_type=1 1 1 1 1 1
left_child=2 4 -1 -4 -2 -3
right_child=1 5 3 -5 -6 -7
leaf_value=-0.044764171751371831 0.023393695176247609 0.010885244815563654 0.024548603295571046 -0.018019335380899379 -0.020456583959261386 0.054198094986136695
leaf_weight=121.42910277843475 24.975805342197418 23.093090176582336 24.457811921834946 38.33231557905674 31.174401149153709 93.334645763039589
leaf_count=551 114 100 100 161 135 439
internal_value=0 0.650319 -0.60842 -0.00687595 -0.00727867 0.942952
internal_weight=0 172.578 184.219 62.7901 56.1502 116.428
internal_count=1600 788 812 261 249 539
cat_boundaries=0 1 2 3 4 5 6
cat_threshold=150 22 150 43 545 210
shrinkage=0.05


Tree=16
num_leaves=7
num_cat=6
split_feature=12 8 13 11 10 9
split_gain=138.413 37.3038 27.2766 13.1313 0.582404 0.489422
threshold=0 1 2 3 4 5
decision_type=1 1 1 1 1 1
left_child=2 3 4 -2 -1 -3
right_child=1 5 -4 -5 -6 -7
leaf_value=0.012119523953177952 -0.012844193199261212 -0.012418963920377312 -0.011774957708849161 0.0286068301063802 0.04983447469424615 -0.047856638085953127
leaf_weight=26.760670408606529 34.241688996553421 28.409867703914642 27.756406143307686 25.114741504192352 103.78800946474075 106.77404196560383
leaf_count=119 143 121 117 104 498 498
internal_value=0 -0.55042 0.673956 0.125806 0.870316 -0.83555
internal_weight=0 194.54 158.305 59.3564 130.549 135.184
internal_count=1600 866 734 247 617 619
cat_boundaries=0 1 2 3 4 5 6
cat_threshold=553 809 553 148 276 872
shrinkage=0.05


Tree=17
num_leaves=8
num_cat=7
split_feature=11 9 9 13 7 13 10
split_gain=129.967 27.5545 26.8297 12.822 10.1336 2.54799 0.746541
threshold=0 1 2 3 4 5 6
decision_type=1 1 1 1 1 1 1
left_child=2 3 4 -2 -1 -4 -3
right_child=1 6 5 -5 -6 -7 -8
leaf_value=-0.016310982637011213 0.022066468736220035 0.010367072021918481 -0.013024107616871772 -0.019324983744519755 0.021898431120752366 -0.048407754483335036 0.051824290002936028
leaf_weight=24.10063211619854 24.491431370377541 22.890860825777054 34.875704124569893 30.903945729136467 26.248323872685432 95.382920235395432 89.949904277920723
leaf_count=101 114 100 158 135 108 445 439
internal_value=0 0.616199 -0.571672 -0.00898045 0.078731 -0.810762 0.898857
internal_weight=0 168.236 180.608 55.3954 50.349 130.259 112.841
internal_count=1600 788 812 249 209 603 539
cat_boundaries=0 1 2 3 4 5 6 7
cat_threshold=150 22 809 545 22 41 210
shrinkage=0.05


Tree=18
num_leaves=7
num_cat=6
split_feature=12 8 9 11 10 13
split_gain=121.54 33.7029 24.7976 12.5585 12.3789 1.02921
threshold=0 1 2 3 4 5
decision_type=1 1 1 1 1 1
left_child=2 4 3 -1 -2 -3
right_child=1 5 -4 -5 -6 -7
leaf_value=-0.013602437913581801 -0.016990076694938738 -0.0082380020297007604 0.049989492128145803 0.024453257011378779 0.02335173887073199 -0.044978746218786503
leaf_weight=34.160666346549988 25.155855163931847 22.34991917014122 85.33278776705265 34.756704211235046 33.745916858315468 109.41510303318501
leaf_count=150 106 103 422 162 141 516
internal_value=0 -0.519607 0.640412 0.125132 0.123144 -0.79535
internal_weight=0 190.667 154.25 68.9174 58.9018 131.765
internal_count=1600 866 734 312 247 619
cat_boundaries=0 1 2 3 4 5 6
cat_threshold=553 809 150 724 19 33
shrinkage=0.05


Tree=19
num_leaves=8
num_cat=7
split_feature=11 13 9 9 13 10 13
split_gain=114.014 24.715 24.6979 18.0279 12.3712 0.83465 0.811698
threshold=0 1 2 3 4 5 6
decision_type=1 1 1 1 1 1 1
left_child=2 5 6 -3 -4 -2 -1
right_child=1 3 4 -5 -6 -7 -8
leaf_value=-0.013392395286377838 0.010518083684341366 -0.025624091402717514 0.023246299337460669 0.024851618263197338 -0.016144487562962367 0.049114126022733462 -0.048286228090693058
leaf_weight=31.665812909603119 24.513837456703186 27.053608685731888 24.239686325192451 23.939314678311348 37.711615517735481 88.465771540999413 83.397191867232323
leaf_count=146 112 117 100 103 161 456 405
internal_value=0 0.585502 -0.539225 -0.0347641 0.00713438 0.845519 -0.81044
internal_weight=0 163.973 177.014 50.9929 61.9513 112.98 115.063
internal_count=1600 788 812 220 261 568 551
cat_boundaries=0 1 2 3 4 5 6 7
cat_threshold=150 553 150 150 43 338 41
shrinkage=0.05


Tree=20
num_leaves=7
num_cat=6
split_feature=12 8 13 10 9 10
split_gain=105.918 30.6743 22.7992 11.327 1.00491 0.819084
threshold=0 1 2 3 4 5
decision_type=1 1 1 1 1 1
left_child=2 3 5 -2 -3 -1
right_child=1 4 -4 -5 -6 -7
leaf_value=0.010533405089585654 -0.016025277471307817 -0.010482239624397168 -0.011240580829358495 0.022699654538431896 -0.043758883894682854 0.045908545021972488
leaf_weight=26.169930949807167 25.080939173698425 27.902377665042877 27.206605091691017 33.420594394207001 100.42823934555054 96.607706770300865
leaf_count=119 107 121 117 140 498 498
internal_value=0 -0.488342 0.607181 0.123632 -0.75609 0.794591
internal_weight=0 186.832 149.984 58.5015 128.331 122.778
internal_count=1600 866 734 247 619 617
cat_boundaries=0 1 2 3 4 5 6
cat_threshold=553 809 553 22 872 276
shrinkage=0.05


Tree=21
num_leaves=7
num_cat=6
split_feature=10 13 12 13 8 7
split_gain=100.776 29.6682 25.3425 24.221 14.0135 7.60574
threshold=0 1 2 3 4 5
decision_type=1 1 1 1 1 1
left_child=1 2 -1 -2 -5 -4
right_child=3 -3 5 4 -6 -7
leaf_value=-0.025883339207499342 0.045932914413653436 -0.042528447797947372 -0.0020624138203631354 -0.022129161854044066 0.021783375420705423 0.038591660574981361
leaf_weight=46.35983818769455 91.264463692903519 94.058144971728325 24.513546526432037 25.075601264834404 27.71457152068615 23.840290814638138
leaf_count=213 484 446 112 117 121 107
internal_value=0 -0.467817 -0.0427851 0.609748 0.0144472 0.423202
internal_weight=0 188.772 94.7137 144.055 52.7902 48.3538
internal_count=1600 878 432 722 238 219
cat_boundaries=0 1 2 3 4 5 6
cat_threshold=150 553 310 553 146 278
shrinkage=0.05


Tree=22
num_leaves=8
num_cat=7
split_feature=11 9 9 12 7 13 10
split_gain=95.7211 22.0578 21.7546 10.1928 8.63791 1.95827 0.0826095
threshold=0 1 2 3 4 5 6
decision_type=1 1 1 1 1 1 1
left_child=1 4 3 -2 -1 -3 -4
right_child=2 5 6 -5 -6 -7 -8
leaf_value=-0.014634024419699172 0.017016094616339641 -0.011536050002524733 0.0096976613204881462 -0.020328319324970728 0.020970360239504771 -0.043593734650248427 0.047171878980968779
leaf_weight=23.604870766401291 28.842735216021538 34.072286114096642 22.330459833145142 24.523434519767761 25.849628463387489 88.434956833720207 81.560242906212807
leaf_count=101 137 158 101 112 108 445 438
internal_value=0 -0.498958 0.549065 -0.0128939 0.0874636 -0.724423 0.813517
internal_weight=0 171.962 157.257 53.3662 49.4545 122.507 103.891
internal_count=1600 812 788 249 209 603 539
cat_boundaries=0 1 2 3 4 5 6 7
cat_threshold=150 809 22 680 22 41 212
shrinkage=0.05


Tree=23
num_leaves=8
num_cat=7
split_feature=11 9 9 13 7 7 10
split_gain=88.4629 21.3605 20.4175 9.52552 8.90215 1.59394 0.130121
threshold=0 1 2 3 4 5 6
decision_type=1 1 1 1 1 1 1
left_child=1 4 3 -2 -1 -3 -4
right_child=2 5 6 -5 -6 -7 -8
leaf_value=-0.015635969829447854 0.01916565728425464 -0.0079349351619096113 0.0093719023300886922 -0.017059649566707056 0.019661440592340599 -0.041741262028032265 0.045976899779602787
leaf_weight=24.064960196614265 23.350762113928795 24.855598658323288 22.299697235226631 29.837721705436707 28.50578935444355 92.696160018444061 79.80099630355835
leaf_count=104 114 118 101 135 121 469 438
internal_value=0 -0.481761 0.531318 -0.0127961 0.0717398 -0.715513 0.790625
internal_weight=0 170.123 155.289 53.1885 52.5707 117.552 102.101
internal_count=1600 812 788 249 225 587 539
cat_boundaries=0 1 2 3 4 5 6 7
cat_threshold=150 872 22 545 22 553 212
shrinkage=0.05


Tree=24
num_leaves=8
num_cat=7
split_feature=12 8 9 0 11 6 13
split_gain=83.6287 26.152 18.976 10.7222 10.0753 1.9644 3.69507
threshold=0 1 2 3 4 5 6
decision_type=1 1 1 1 1 1 1
left_child=2 3 4 -2 -1 6 -3
right_child=1 5 -4 -5 -6 -7 -8
leaf_value=-0.012804713233595406 0.022465882013149793 -0.026412358041943276 0.044573867912708065 -0.015536774495879478 0.021791152355998735 -0.043150449982244453 0.0025543899539648214
leaf_weight=32.977028906345367 32.773293495178223 19.556909263134003 76.139607697725296 24.579324021935463 32.959102794528008 80.275533273816109 22.443134784698486
leaf_count=150 140 100 422 107 162 410 109
internal_value=0 -0.439759 0.555696 0.125812 0.101617 -0.694493 -0.268383
internal_weight=0 179.628 142.076 57.3526 65.9361 122.276 42
internal_count=1600 866 734 247 312 619 209
cat_boundaries=0 1 2 3 4 5 6 7
cat_threshold=553 809 150 149 724 929 210
shrinkage=0.05


Tree=25
num_leaves=7
num_cat=6
split_feature=10 7 13 8 12 12
split_gain=79.68 26.1009 20.5626 11.6366 6.32451 5.8594
threshold=0 1 2 3 4 5
decision_type=1 1 1 1 1 1
left_child=1 5 -2 -4 -3 -1
right_child=2 4 3 -5 -6 -7
leaf_value=-0.0078027919359406374 0.042887571336687608 -0.0010266740999265904 -0.020692085673516807 0.019783220130038214 -0.03795327096498638 0.024175026554177474
leaf_weight=21.486368998885155 84.747941374778748 24.071286931633949 24.209845170378685 26.931878596544266 111.4099472463131 25.254304587841034
leaf_count=100 484 113 117 121 550 115
internal_value=0 -0.419962 0.560186 0.00744449 -0.63828 0.213812
internal_weight=0 182.222 135.89 51.1417 135.481 46.7407
internal_count=1600 878 722 238 663 215
cat_boundaries=0 1 2 3 4 5 6
cat_threshold=150 553 553 146 584 278
shrinkage=0.05


Tree=26
num_leaves=8
num_cat=7
split_feature=14 9 12 11 7 3 13
split_gain=74.1596 48.3387 20.7605 12.9847 9.14477 1.30739 0.712679
threshold=0 1 2 3 4 5 6
decision_type=1 1 1 1 1 1 1
left_child=-1 3 -3 6 -4 -5 -2
right_child=1 2 4 5 -6 -7 -8
leaf_value=0.047646913112394218 -0.0075050115111624906 0.035842470421234444 -0.024677932100406877 0.0059954126333986949 0.011533246724002433 -0.0084327495512388183 -0.043074675183165489
leaf_weight=56.037315785884857 21.163323819637299 48.455125749111176 25.842991694808006 21.227187022566795 27.19207851588726 22.678486436605453 92.294340953230858
leaf_count=306 102 266 114 100 117 104 491
internal_value=0 -0.229786 0.294123 -0.565061 -0.14455 -0.0327793 -0.751703
internal_weight=0 258.854 101.49 157.363 53.0351 43.9057 113.458
internal_count=1600 1294 497 797 231 204 593
cat_boundaries=0 3 4 5 6 7 8 9
cat_threshold=2468530449 67109088 463950 150 617 662 146 134 9
shrinkage=0.05


Tree=27
num_leaves=8
num_cat=7
split_feature=14 9 12 11 7 3 13
split_gain=70.8274 44.085 18.7095 12.3785 8.51034 1.21913 0.327872
threshold=0 1 2 3 4 5 6
decision_type=1 1 1 1 1 1 1
left_child=-1 3 -3 6 -4 -5 -2
right_child=1 2 4 5 -6 -7 -8
leaf_value=0.046233250975827839 -0.0076486565688591041 0.034380583225465236 -0.023959220635879526 0.005793588766220676 0.011109062965711333 -0.0081394854929282608 -0.04204038871620755
leaf_weight=56.70471516251564 20.958851724863052 46.798157602548599 25.235496088862419 21.216939866542816 27.200462013483047 22.681036457419395 90.392226114869118
leaf_count=316 101 260 112 100 117 104 490
internal_value=0 -0.228421 0.278631 -0.549773 -0.138046 -0.0315963 -0.734616
internal_weight=0 254.483 99.2341 155.249 52.436 43.898 111.351
internal_count=1600 1284 489 795 229 204 591
cat_boundaries=0 3 4 5 6 7 8 9
cat_threshold=2468530449 67125472 463950 150 617 662 146 134 9
shrinkage=0.05


Tree=28
num_leaves=7
num_cat=6
split_feature=10 13 12 13 8 7
split_gain=66.8825 24.5325 20.2769 17.7171 9.963 5.33141
threshold=0 1 2 3 4 5
decision_type=1 1 1 1 1 1
left_child=1 2 -1 -2 -5 -4
right_child=3 -3 5 4 -6 -7
leaf_value=-0.021957355860835449 0.040600822683057584 -0.037434879581117152 -0.00037461853448237607 -0.019301479622732952 0.018466932658046276 0.036244316979660955
leaf_weight=44.054211437702179 80.302548736333847 86.611003950238228 23.658872351050377 23.560584381222725 26.409706205129623 22.918954312801361
leaf_count=213 484 446 112 117 121 107
internal_value=0 -0.386983 -0.00126635 0.526255 0.00820628 0.417307
internal_weight=0 177.243 90.632 130.273 49.9703 46.5778
internal_count=1600 878 432 722 238 219
cat_boundaries=0 1 2 3 4 5 6
cat_threshold=150 553 310 553 146 278
shrinkage=0.05


Tree=29
num_leaves=7
num_cat=6
split_feature=14 10 13 9 9 2
split_gain=62.3497 43.7588 19.2746 14.1107 5.69058 2.70597
threshold=0 1 2 3 4 5
decision_type=1 1 1 1 1 1
left_child=-1 4 3 5 -2 -3
right_child=1 2 -4 -5 -6 -7
leaf_value=0.044631278282751347 -0.0021972486288225862 -0.029155120781129137 -0.03752608797440813 0.015806501697081112 0.035308211962606223 -0.0004768808160792909
leaf_weight=53.551033809781075 19.889421194791794 32.550006181001663 96.637110590934753 40.724293753504753 39.777379438281059 21.032902464270592
leaf_count=306 100 162 505 200 221 106
internal_value=0 -0.212069 -0.443431 -0.0869692 0.485705 -0.39487
internal_weight=0 250.611 190.944 94.3072 59.6668 53.5829
internal_count=1600 1294 973 468 321 268
cat_boundaries=0 3 4 5 6 7 8
cat_threshold=2468530449 232 463950 808 553 149 210 23
shrinkage=0.05


Tree=30
num_leaves=8
num_cat=7
split_feature=14 10 7 8 7 9 12
split_gain=59.4042 40.1194 18.136 8.42904 4.05149 4.02565 1.16297
threshold=0 1 2 3 4 5 6
decision_type=1 1 1 1 1 1 1
left_child=-1 4 5 -4 -2 -3 -5
right_child=1 2 3 6 -6 -7 -8
leaf_value=0.043151364531557684 -0.00073411438170063563 -0.0076399114905721091 0.0013607753836590748 -0.0084456802573624305 0.033235026725683507 0.019258080756577055 -0.041780181514087224
leaf_weight=54.503411561250687 19.680361717939377 19.99972140789032 25.351155966520309 24.821378275752068 38.501757651567459 22.12188421189785 96.136019021272659
leaf_count=316 107 102 119 122 208 109 517
internal_value=0 -0.210496 -0.43249 -0.598863 0.466447 0.149424 -0.722139
internal_weight=0 246.612 188.43 146.309 58.1821 42.1216 120.957
internal_count=1600 1284 969 758 315 211 639
cat_boundaries=0 3 4 5 6 7 8 9
cat_threshold=2468530449 536871144 463950 808 609 553 785 23 577
shrinkage=0.05


Tree=31
num_leaves=8
num_cat=7
split_feature=12 9 7 13 6 7 10
split_gain=56.8114 20.6276 16.23 14.4781 10.5811 7.0057 1.39954
threshold=0 1 2 3 4 5 6
decision_type=1 1 1 1 1 1 1
left_child=2 3 6 -2 -4 -5 -1
right_child=1 -3 4 5 -6 -7 -8
leaf_value=-0.04012673604678485 -0.023881138745382082 0.04050355374027851 -0.016981977812043227 -0.0077263131561915183 0.022178014167404562 0.027206050271916304 -0.009128452025461857
leaf_weight=68.605261161923409 24.74038003385067 67.922373712062836 24.404652133584023 20.083497479557991 25.185034483671188 38.384608015418053 28.887942507863045
leaf_count=371 120 419 123 102 119 201 145
internal_value=0 0.42331 -0.421826 0.0545615 0.0658084 0.31662 -0.652908
internal_weight=0 151.131 147.083 83.2085 49.5897 58.4681 97.4932
internal_count=1600 842 758 423 242 303 516
cat_boundaries=0 1 2 3 4 5 6 7
cat_threshold=150 406 150 214 30 144 147
shrinkage=0.05


Tree=32
num_leaves=8
num_cat=7
split_feature=11 13 12 7 12 9 9
split_gain=54.1369 15.1617 14.5761 11.7926 3.68603 1.60797 1.38426
threshold=0 1 2 3 4 5 6
decision_type=1 1 1 1 1 1 1
left_child=1 3 6 4 -1 -3 -2
right_child=2 5 -4 -5 -6 -7 -8
leaf_value=-0.026345506445497997 0.0070865327420873564 -0.0072047772061841139 -0.0057557398377388672 0.023405282763423754 0.001265273001253126 -0.041166126695789229 0.03796404908916743
leaf_weight=23.77106662094593 24.901343643665314 24.006432071328163 36.538758277893066 22.295638769865036 26.106484800577164 59.97472408413887 77.528407752513885
leaf_count=125 123 108 167 101 122 356 498
internal_value=0 -0.386838 0.443369 -0.0214529 -0.281919 -0.665154 0.63511
internal_weight=0 156.154 138.969 72.1732 49.8776 83.9812 102.43
internal_count=1600 812 788 348 247 464 621
cat_boundaries=0 1 2 3 4 5 6 7
cat_threshold=150 553 681 406 146 609 18
shrinkage=0.05


Tree=33
num_leaves=7
num_cat=6
split_feature=14 9 12 7 7 10
split_gain=50.8837 37.3792 14.2068 10.0346 7.48098 3.56688
threshold=0 1 2 3 4 5
decision_type=1 1 1 1 1 1
left_child=-1 3 -3 -2 -4 -5
right_child=1 2 4 5 -6 -7
leaf_value=0.041611849381103655 0.007384798085981973 0.031848851234327617 -0.021145898933063755 -0.0014514457630758031 0.011806023951544771 -0.035910223261322607
leaf_weight=50.049135029315948 21.851494148373604 45.627108708024025 24.525235116481781 19.893117368221283 26.27956223487854 103.66242550313473
leaf_count=303 111 278 113 104 115 576
internal_value=0 -0.192179 0.276216 -0.500597 -0.099252 -0.617725
internal_weight=0 241.839 96.4319 145.407 50.8048 123.556
internal_count=1600 1297 506 791 228 680
cat_boundaries=0 3 4 5 6 7 8
cat_threshold=2451753233 16616 463950 150 617 552 146 360
shrinkage=0.05


Tree=34
num_leaves=8
num_cat=7
split_feature=11 13 9 9 13 11 6
split_gain=50.1314 16.0914 13.3798 11.4269 7.66466 3.26839 0.818534
threshold=0 1 2 3 4 5 6
decision_type=1 1 1 1 1 1 1
left_child=2 3 4 -2 -1 -5 -3
right_child=1 6 -4 5 -6 -7 -8
leaf_value=0.022687554467055511 0.020458214034920978 -0.0046471428699368031 0.039413768735297172 0.0024621699090503252 -0.0097973053888551886 -0.024475278127220015 -0.036141905434715037
leaf_weight=20.444267347455025 31.578816041350365 18.778174042701721 62.93886686861515 21.530250504612923 36.493392676115036 25.944848641753197 71.141473278403282
leaf_count=115 145 101 424 107 179 129 400
internal_value=0 -0.337239 0.478915 0.0108925 0.0702731 -0.279122 -0.613762
internal_weight=0 168.974 119.877 79.0539 56.9377 47.4751 89.9196
internal_count=1600 882 718 381 294 236 501
cat_boundaries=0 1 2 3 4 5 6 7
cat_threshold=809 553 150 810 513 194 553
shrinkage=0.05


Tree=35
num_leaves=7
num_cat=6
split_feature=11 8 9 13 13 7
split_gain=46.51 15.7507 12.5908 7.52863 7.17052 1.57905
threshold=0 1 2 3 4 5
decision_type=1 1 1 1 1 1
left_child=2 -2 4 -3 -1 -5
right_child=1 3 -4 5 -6 -7
leaf_value=0.022078496650349052 0.014216443062214357 0.0021219336616642107 0.038466482451843226 -0.0044305355558056812 -0.0094103768945614768 -0.034860789162920264
leaf_weight=20.238961234688759 30.075984999537468 28.833630263805389 61.54633667320013 21.132205754518509 36.505068093538284 87.630622759461403
leaf_count=115 135 141 424 108 179 498
internal_value=0 -0.325236 0.464904 -0.468712 0.0689202 -0.596384
internal_weight=0 167.672 118.29 137.596 56.744 108.763
internal_count=1600 882 718 747 294 606
cat_boundaries=0 1 2 3 4 5 6
cat_threshold=809 552 150 33 513 808
shrinkage=0.05


Tree=36
num_leaves=7
num_cat=6
split_feature=14 9 13 11 12 11
split_gain=44.3889 31.5147 13.1379 9.25549 3.91173 0.518845
threshold=0 1 2 3 4 5
decision_type=1 1 1 1 1 1
left_child=-1 3 -3 5 -4 -2
right_child=1 2 4 -5 -6 -7
leaf_value=0.039642369573585995 0.0037385270209898749 -0.015262625057884227 0.00070670269063789412 -0.031997966614031141 0.032441330726773333 -0.0054646598692079046
leaf_weight=48.070612594485283 21.931830838322639 24.736341550946236 22.818358406424522 98.808994680643082 46.542201273143291 20.11883719265461
leaf_count=303 103 116 102 584 292 100
internal_value=0 -0.179587 0.255018 -0.467571 0.468116 -0.017372
internal_weight=0 234.957 94.0969 140.86 69.3606 42.0507
internal_count=1600 1297 510 787 394 203
cat_boundaries=0 3 4 5 6 7 8
cat_threshold=2451753233 536871144 463950 150 452 361 22 321
shrinkage=0.05


Tree=37
num_leaves=8
num_cat=7
split_feature=10 8 11 9 13 12 13
split_gain=43.6519 19.6446 10.1929 10.1548 6.63597 6.96383 0.720806
threshold=0 1 2 3 4 5 6
decision_type=1 1 1 1 1 1 1
left_child=3 2 -2 -1 5 -3 -5
right_child=1 4 -4 6 -6 -7 -8
leaf_value=-0.0089866191513218365 -0.0087935577933166836 0.010575038746742276 0.030984041339466181 0.038973766348322433 -0.03770920374188641 -0.020468119101312427 0.0073994344692840941
leaf_weight=18.904854580760002 28.976572215557098 22.9725621342659 22.012173533439636 62.82266191393137 61.2668337225914 40.045133769512177 23.104524090886116
leaf_count=102 134 113 104 447 375 212 113
internal_value=0 -0.292966 0.212867 0.491739 -0.500886 -0.185063 0.642806
internal_weight=0 175.273 50.9887 104.832 124.285 63.0177 85.9272
internal_count=1600 938 238 662 700 325 560
cat_boundaries=0 1 2 3 4 5 6 7
cat_threshold=809 809 148 18 553 521 569
shrinkage=0.05


Tree=38
num_leaves=9
num_cat=8
split_feature=10 13 7 9 12 4 13 8
split_gain=40.3467 18.7259 14.7257 9.53228 6.53227 6.82031 0.723399 0.235537
threshold=0 1 2 3 4 5 6 7
decision_type=1 1 1 1 1 1 1 1
left_child=3 2 4 -1 -2 -6 -5 -3
right_child=1 7 -4 6 5 -7 -8 -9
leaf_value=-0.0086945872562186853 -0.030439221311956949 -0.0070325309361461688 0.026679873241880189 0.0379739138144689 0.017282031198101511 -0.015598009383761831 0.0071442387840040551 -0.036730933687804244
leaf_weight=18.898866891860962 19.502854660153389 21.884747013449669 28.935040563344955 61.54896292090416 21.942467108368874 21.264048978686333 23.090895473957062 60.051175773143768
leaf_count=102 105 101 141 447 110 106 113 375
internal_value=0 -0.282401 0.0403587 0.475986 -0.229316 0.0241977 0.624135 -0.608527
internal_weight=0 173.58 91.6444 103.539 62.7094 43.2065 84.6399 81.9359
internal_count=1600 938 462 662 321 216 560 476
cat_boundaries=0 1 2 3 4 5 6 7 8
cat_threshold=809 553 406 18 274 152 569 809
shrinkage=0.05


Tree=39
num_leaves=8
num_cat=7
split_feature=14 10 7 8 13 7 12
split_gain=39.0062 27.1415 14.0269 7.20304 5.66459 5.15678 1.48863
threshold=0 1 2 3 4 5 6
decision_type=1 1 1 1 1 1 1
left_child=-1 5 4 -4 -3 -2 -5
right_child=1 2 3 6 -6 -7 -8
leaf_value=0.037919196369624979 -0.0042335168132050195 -0.0090829151040895412 0.0036523111177962694 -0.0062795430756090983 0.022996658772990498 0.030550030587232119 -0.036866435078407554
leaf_weight=45.928250052034855 18.137985177338123 20.903357736766338 22.253606796264648 23.889410801231861 19.07586757838726 36.259552896022797 87.869727358222008
leaf_count=303 108 113 114 124 100 216 522
internal_value=0 -0.169559 -0.360359 -0.514276 0.155247 0.401912 -0.627619
internal_weight=0 228.39 173.992 134.013 39.9792 54.3975 111.759
internal_count=1600 1297 973 760 213 324 646
cat_boundaries=0 3 4 5 6 7 8 9
cat_threshold=2451753233 536871144 463950 808 609 105 916 593 577
shrinkage=0.05


Tree=40
num_leaves=7
num_cat=6
split_feature=14 9 13 7 10 10
split_gain=37.1916 25.8947 10.2585 8.99559 3.8394 3.68798
threshold=0 1 2 3 4 5
decision_type=1 1 1 1 1 1
left_child=-1 3 -3 -2 -4 -5
right_child=1 2 4 5 -6 -7
leaf_value=0.036784188647480613 0.0083508329666245346 -0.013328925406723348 0.002297163220924007 0.00028294981249050793 0.032255889201565302 -0.032444719757783146
leaf_weight=46.586148597300053 21.187357649207115 23.971201613545418 27.995300248265266 19.000288382172585 37.839566007256508 95.224211364984512
leaf_count=313 111 115 153 103 234 571
internal_value=0 -0.167312 0.235976 -0.432609 0.429984 -0.548324
internal_weight=0 225.218 89.8061 135.412 65.8349 114.224
internal_count=1600 1287 502 785 387 674
cat_boundaries=0 3 4 5 6 7 8
cat_threshold=2451753233 536887528 463950 150 452 552 83 360
shrinkage=0.05


Tree=41
num_leaves=9
num_cat=8
split_feature=12 8 7 11 6 0 9 10
split_gain=35.9312 15.4966 12.4287 10.9714 8.90587 4.51702 1.60632 1.30311
threshold=0 1 2 3 4 5 6 7
decision_type=1 1 1 1 1 1 1 1
left_child=2 3 7 5 -4 -2 -5 -1
right_child=1 -3 4 6 -6 -7 -8 -9
leaf_value=-0.034892898512301658 0.0049897983520283372 0.037750344566855075 -0.015172335847413836 0.0019639353598389689 0.021554814076268955 -0.02582932544259129 0.030487762719523498 -0.0069845132355317932
leaf_weight=60.655049696564674 20.020058266818523 52.250615566968918 22.909223660826683 19.444655284285545 24.201262786984444 23.033081158995628 19.76526065915823 27.117334060370922
leaf_count=371 110 361 123 107 119 121 143 145
internal_value=0 0.361469 -0.343272 0.0567671 0.0833094 -0.265179 0.392321 -0.557337
internal_weight=0 134.514 134.883 82.2631 47.1105 43.0531 39.2099 87.7724
internal_count=1600 842 758 481 242 231 250 516
cat_boundaries=0 1 2 3 4 5 6 7 8
cat_threshold=150 150 150 724 30 652 146 147
shrinkage=0.05


Tree=42
num_leaves=8
num_cat=7
split_feature=13 11 11 9 7 10 8
split_gain=34.4127 14.076 13.1893 6.98728 6.5579 5.0224 3.79315
threshold=0 1 2 3 4 5 6
decision_type=1 1 1 1 1 1 1
left_child=2 -2 6 -3 5 -4 -1
right_child=1 3 4 -5 -6 -7 -8
leaf_value=-0.019076119550255372 0.014791203930520053 0.0029828847595785219 0.01919606090346939 -0.034395605605363012 0.034654434966754147 -0.011987379699841295 0.006509756984731445
leaf_weight=20.559725947678089 21.586281955242157 21.085906103253365 13.314006388187407 76.511928766965866 71.183076448738575 19.47620215266943 23.338049985468388
leaf_count=107 108 101 107 475 486 104 112
internal_value=0 -0.373994 0.321986 -0.535867 0.510216 0.0440263 -0.13579
internal_weight=0 119.184 147.871 97.5978 103.973 32.7902 43.8978
internal_count=1600 684 916 576 697 211 219
cat_boundaries=0 1 2 3 4 5 6 7
cat_threshold=553 265 276 97 18 553 148
shrinkage=0.05


Tree=43
num_leaves=9
num_cat=8
split_feature=14 13 8 11 12 4 8 6
split_gain=33.3622 29.5088 16.1434 9.35967 4.09073 3.35046 0.876305 0.535253
threshold=0 1 2 3 4 5 6 7
decision_type=1 1 1 1 1 1 1 1
left_child=6 3 -3 5 -5 -2 -1 -4
right_child=1 2 7 4 -6 -7 -8 -9
leaf_value=-0.0058265126770881762 -0.012453812870165247 0.019072808465638559 -0.030066106871303525 0.0021808051847190353 0.042353645787267767 0.01231956208198947 -0.039426127604823426 -0.0030766840500500887
leaf_weight=20.28408208489418 17.270519100129604 23.608842879533768 46.036471590399742 19.366789229214191 66.401857979595661 17.322862260043621 37.375495322048664 17.011899970471859
leaf_count=114 107 113 287 104 459 107 207 102
internal_value=0 0.199985 -0.233173 0.505811 0.689148 -0.00135278 -0.604285 -0.484037
internal_weight=0 207.019 86.6572 120.362 85.7686 34.5934 57.6596 63.0484
internal_count=1600 1279 502 777 563 214 321 389
cat_boundaries=0 6 7 8 9 10 11 12 13
cat_threshold=0 2185232388 268959744 404750336 2959376384 1252500 553 553 280 278 532 15 150
shrinkage=0.05


Tree=44
num_leaves=9
num_cat=8
split_feature=14 13 8 11 12 8 8 6
split_gain=31.0033 27.2699 15.0447 8.77314 3.88032 3.19982 0.82938 0.496394
threshold=0 1 2 3 4 5 6 7
decision_type=1 1 1 1 1 1 1 1
left_child=6 3 -3 5 -5 -2 -1 -4
right_child=1 2 7 4 -6 -7 -8 -9
leaf_value=-0.0056351147337480242 -0.012533033114430129 0.018424352865083232 -0.029137394028817595 0.002107974785705452 0.041196568735945842 0.011689227470723214 -0.038261062906476906 -0.0029822643024415688
leaf_weight=20.264538951218128 16.463695988059044 23.570713132619858 45.462169818580151 19.379290670156479 65.166168570518494 18.125069804489613 36.904514104127884 16.990143090486526
leaf_count=114 101 113 287 104 459 113 207 102
internal_value=0 0.193125 -0.224529 0.488733 0.668148 -0.00130528 -0.585139 -0.468312
internal_weight=0 205.157 86.023 119.134 84.5455 34.5888 57.1691 62.4523
internal_count=1600 1279 502 777 563 214 321 389
cat_boundaries=0 6 7 8 9 10 11 12 13
cat_threshold=0 2185232388 268959744 404750336 2959376384 1252500 553 553 280 278 142 15 150
shrinkage=0.05


Tree=45
num_leaves=8
num_cat=7
split_feature=14 10 7 9 8 13 7
split_gain=30.0438 22.0134 11.8697 8.98615 8.9082 4.82257 4.51469
threshold=0 1 2 3 4 5 6
decision_type=1 1 1 1 1 1 1
left_child=-1 6 5 4 -4 -3 -2
right_child=1 2 3 -5 -6 -7 -8
leaf_value=0.03470270578609299 -0.0042178645521678392 -0.008350364934751173 -0.020336491203344784 -0.034086136776489966 0.016090546822615112 0.021730974703497233 0.028738131708508294
leaf_weight=41.874675191938877 17.572593078017235 20.043752014636993 24.962889865040779 79.543526358902454 22.854914151132107 18.669840425252914 34.477590702474117
leaf_count=303 109 112 145 494 120 101 216
internal_value=0 -0.149086 -0.325136 -0.470957 -0.063084 0.15279 0.374505
internal_weight=0 218.125 166.075 127.361 47.8178 38.7136 52.0502
internal_count=1600 1297 972 759 265 213 325
cat_boundaries=0 3 4 5 6 7 8 9
cat_threshold=2451753233 16616 463950 808 609 107 22 916 593
shrinkage=0.05


Tree=46
num_leaves=8
num_cat=7
split_feature=12 8 10 7 9 6 1
split_gain=29.174 14.0448 12.6982 9.18771 8.50922 7.2341 3.81055
threshold=0 1 2 3 4 5 6
decision_type=1 1 1 1 1 1 1
left_child=1 -1 -2 -4 6 -5 -3
right_child=2 4 3 5 -6 -7 -8
leaf_value=0.040203554365838071 0.014353898540194502 0.0053744315144835519 -0.032274827644368974 -0.018391606877346294 0.019427109155158551 0.016150908198185401 -0.021631713174812352
leaf_weight=38.484122291207314 25.611770048737526 21.027057476341724 73.199699513614178 18.718213848769665 35.810278721153736 22.100993186235428 22.84486485272646
leaf_count=295 126 123 472 106 243 111 124
internal_value=0 0.3582 -0.291892 -0.434606 0.0772112 -0.00382293 -0.201863
internal_weight=0 118.166 139.631 114.019 79.6822 40.8192 43.8719
internal_count=1600 785 815 689 490 217 247
cat_boundaries=0 1 2 3 4 5 6 7
cat_threshold=617 865 808 150 147 22 408
shrinkage=0.05


Tree=47
num_leaves=7
num_cat=6
split_feature=14 9 7 13 4 10
split_gain=28.2435 19.9033 8.87626 8.63191 3.53943 2.74907
threshold=0 1 2 3 4 5
decision_type=1 1 1 1 1 1
left_child=-1 2 -2 -3 -5 -4
right_child=1 3 5 4 -6 -7
leaf_value=0.034105284453901957 0.0096462000654486471 -0.012401607683330157 -9.0933449429055371e-06 0.002510550736647485 0.031421504083401983 -0.029573242617943637
leaf_weight=40.780540429055691 21.090953856706619 23.084991678595543 18.54816859960556 29.024385593831539 33.061883606016636 89.910998873412609
leaf_count=309 113 114 104 180 205 575
internal_value=0 -0.143672 -0.380515 0.218708 0.402585 -0.498898
internal_weight=0 214.721 129.55 85.1713 62.0863 108.459
internal_count=1600 1291 792 499 385 679
cat_boundaries=0 3 4 5 6 7 8
cat_threshold=2451753745 536887520 463950 150 552 452 532 360
shrinkage=0.05


Tree=48
num_leaves=9
num_cat=8
split_feature=14 13 8 11 12 4 10 11
split_gain=27.3028 22.3331 12.6406 9.63608 2.90757 2.82558 2.71149 2.08085
threshold=0 1 2 3 4 5 6 7
decision_type=1 1 1 1 1 1 1 1
left_child=6 3 -3 5 -5 -2 -1 -4
right_child=1 2 7 4 -6 -7 -8 -9
leaf_value=-0.0015456351392931676 -0.013114662939438741 0.017199697011573794 -0.001844695370820105 0.0027339528553124047 0.040132724084618848 0.0099357825910155358 -0.037617404132190273 -0.029015711090187492
leaf_weight=17.855703100562096 16.589892514050007 23.744088158011436 21.552656523883343 18.923766545951366 61.102482676506042 17.118109837174416 36.852829471230507 39.644032798707485
leaf_count=103 104 116 128 104 452 108 217 268
internal_value=0 0.185462 -0.193441 0.461204 0.651502 -0.0362761 -0.558052 -0.420992
internal_weight=0 198.675 84.9408 113.734 80.0262 33.708 54.7085 61.1967
internal_count=1600 1280 512 768 556 212 320 396
cat_boundaries=0 6 7 8 9 10 11 12 13
cat_threshold=0 2185232388 268959744 404750336 2959376384 1154196 553 553 280 278 532 617 331
shrinkage=0.05


Tree=49
num_leaves=8
num_cat=7
split_feature=14 8 13 11 3 11 10
split_gain=25.38 21.4481 18.4561 9.5638 5.48372 3.65214 2.5633
threshold=0 1 2 3 4 5 6
decision_type=1 1 1 1 1 1 1
left_child=6 -2 5 4 -4 -3 -1
right_child=1 2 3 -5 -6 -7 -8
leaf_value=-0.0014960482182403256 0.035318545168362761 0.0017909772919546295 -0.016151851972090039 0.027787686604477193 0.013866269294726098 -0.02861798797544431 -0.036571898268881367
leaf_weight=17.856593400239944 46.826189398765564 19.392693683505058 26.729744657874107 44.428370095789433 17.087729051709175 42.498663730919361 36.310838490724564
leaf_count=103 316 115 156 312 101 280 217
internal_value=0 0.178973 -0.0193551 0.263582 -0.0808836 -0.403321 -0.540882
internal_weight=0 196.963 150.137 88.2458 43.8175 61.8914 54.1674
internal_count=1600 1280 964 569 257 395 320
cat_boundaries=0 6 7 8 9 10 11 12
cat_threshold=0 2185232388 268959744 404750336 2959376384 1154196 545 214 286 278 267 617
shrinkage=0.05


Tree=50
num_leaves=8
num_cat=7
split_feature=12 7 8 6 3 10 10
split_gain=24.4335 11.2002 10.0212 8.1037 7.21952 3.67131 3.0017
threshold=0 1 2 3 4 5 6
decision_type=1 1 1 1 1 1 1
left_child=2 6 -1 -3 -4 -6 -2
right_child=1 3 4 -5 5 -7 -8
leaf_value=0.033560087365051623 2.5538614631957107e-05 -0.015862274461886174 -0.014830701416460076 0.019795023456535641 -0.0053239967880012893 0.02449129872651554 -0.029575438382809644
leaf_weight=45.208748281002045 19.583779074251652 18.168268114328384 26.05363716930151 29.805982552468777 15.971426121890543 26.354039005935192 67.882035009562969
leaf_count=351 101 102 154 156 102 178 456
internal_value=0 -0.269732 0.335016 0.117689 0.0554702 0.287465 -0.472502
internal_weight=0 135.44 113.588 47.9743 68.3791 42.3255 87.4658
internal_count=1600 815 785 258 434 280 557
cat_boundaries=0 1 2 3 4 5 6 7
cat_threshold=617 150 613 28 529 197 616
shrinkage=0.05


Tree=51
num_leaves=8
num_cat=7
split_feature=14 9 11 13 3 4 11
split_gain=23.5665 18.8302 8.63095 7.62322 3.32002 5.33302 0.8913
threshold=0 1 2 3 4 5 6
decision_type=1 1 1 1 1 1 1
left_child=-1 2 6 -3 -5 -6 -2
right_child=1 3 -4 4 5 -7 -8
leaf_value=0.031016265553536052 0.0080362980366656973 -0.011183957520003722 -0.027640354193945917 0.033938840655636134 -0.012007521600355084 0.019265883051639145 -0.0045725563298286099
leaf_weight=40.911622285842896 19.965427361428738 23.166384503245354 83.841789431869984 23.615959338843822 17.2635527998209 19.696376040577888 18.763924226164818
leaf_count=312 101 118 575 161 107 126 100
internal_value=0 -0.135897 -0.374823 0.21649 0.392668 0.104242 0.0448545
internal_weight=0 206.313 122.571 83.7423 60.5759 36.9599 38.7294
internal_count=1600 1288 776 512 394 233 201
cat_boundaries=0 3 4 5 6 7 8 9
cat_threshold=2451753232 537411816 463950 150 361 452 644 20 321
shrinkage=0.05


Tree=52
num_leaves=8
num_cat=7
split_feature=14 8 13 11 2 11 10
split_gain=22.7882 18.8528 16.5546 7.42665 5.09427 3.30497 2.30377
threshold=0 1 2 3 4 5 6
decision_type=1 1 1 1 1 1 1
left_child=6 -2 5 -4 -5 -3 -1
right_child=1 2 3 4 -6 -7 -8
leaf_value=-0.0014135457824697387 0.033753333898846931 0.0017892446205123428 -0.0090476283512307461 0.032241905366730161 -0.0013779631238215453 -0.027299717680944687 -0.035062068359165047
leaf_weight=17.689168557524681 45.218519769608974 19.168065756559372 24.729184284806252 39.314638800919056 22.551739439368248 41.295371145009995 35.214271776378155
leaf_count=103 316 115 160 262 147 280 217
internal_value=0 0.172691 -0.0149287 0.254862 0.430004 -0.382655 -0.516489
internal_weight=0 192.278 147.059 86.5956 61.8664 60.4634 52.9034
internal_count=1600 1280 964 569 409 395 320
cat_boundaries=0 6 7 8 9 10 11 12
cat_threshold=0 2185232388 268959744 404750336 2959376384 1154196 545 214 24 434 267 617
shrinkage=0.05


Tree=53
num_leaves=7
num_cat=6
split_feature=14 9 7 12 0 10
split_gain=21.782 17.4796 7.98647 7.00228 6.33828 3.01419
threshold=0 1 2 3 4 5
decision_type=1 1 1 1 1 1
left_child=-1 2 -2 4 -3 -4
right_child=1 3 5 -5 -6 -7
leaf_value=0.029799454424735777 0.0092787696273989966 -0.018196251241366802 0.00092482730554065834 0.02835631782000236 0.011426438399831537 -0.028921479680270087
leaf_weight=40.921316154301167 20.575912348926067 20.664754629135132 17.97012884914875 26.276332691311836 34.022437997162342 82.943126626312733
leaf_count=325 114 109 103 205 181 563
internal_value=0 -0.132244 -0.361776 0.214086 -0.0169938 -0.480048
internal_weight=0 202.453 121.489 80.9635 54.6872 100.913
internal_count=1600 1275 780 495 290 666
cat_boundaries=0 3 4 5 6 7 8
cat_threshold=2451753745 537411816 462926 150 552 151 842 360
shrinkage=0.05


Tree=54
num_leaves=9
num_cat=8
split_feature=12 8 7 0 6 6 9 10
split_gain=21.0199 10.6478 8.54843 7.59198 6.35678 4.72014 4.49286 2.38018
threshold=0 1 2 3 4 5 6 7
decision_type=1 1 1 1 1 1 1 1
left_child=2 -2 7 5 -4 -3 -5 -1
right_child=1 3 4 6 -6 -7 -8 -9
leaf_value=-0.029171899898251669 0.037770566228539318 -0.0059403000336727416 -0.012743182508234197 0.0084280503898197037 0.019082828068645197 0.02511409349475249 -0.023253920218198495 -0.00076758952097950427
leaf_weight=58.646903067827225 28.857545092701912 17.880493171513081 21.204569727182388 14.720129542052744 23.136966668069363 35.567968785762787 21.86729970574379 19.497552655637264
leaf_count=414 257 115 123 110 119 238 122 102
internal_value=0 0.296951 -0.270293 0.0891845 0.0863802 0.308527 -0.228687 -0.459519
internal_weight=0 118.893 122.486 90.0359 44.3415 53.4485 36.5874 78.1445
internal_count=1600 842 758 585 242 353 232 516
cat_boundaries=0 1 2 3 4 5 6 7 8
cat_threshold=150 609 150 148 30 6 936 151
shrinkage=0.05


Tree=55
num_leaves=9
num_cat=8
split_feature=14 11 7 9 9 2 3 1
split_gain=20.6827 17.02 11.6264 12.3663 5.48168 5.30754 2.25043 1.66989
threshold=0 1 2 3 4 5 6 7
decision_type=1 1 1 1 1 1 1 1
left_child=-1 4 -3 5 -2 -4 -5 -7
right_child=1 2 3 6 -6 7 -8 -9
leaf_value=-0.031163966325299872 0.0066786539586820076 0.035611394100716204 0.009711070226259326 0.032102511295036586 -0.023472168861140799 -0.030145598569345351 -0.0016448267999296497 -0.0019833787903174561
leaf_weight=33.061016112565994 21.041638985276222 43.957268558442593 19.134067602455616 28.491921342909336 41.203493990004063 19.154690302908421 13.518528863787649 20.107270687818527
leaf_count=211 103 316 126 226 276 117 100 125
internal_value=0 0.13557 0.319093 0.0980607 -0.275324 -0.191729 0.460293 -0.381065
internal_weight=0 206.609 144.364 100.406 62.2451 58.396 42.0105 39.262
internal_count=1600 1389 1010 694 379 368 326 242
cat_boundaries=0 6 7 8 9 10 11 12 13
cat_threshold=0 33554432 524288 404750336 2422505472 66708 20 617 150 809 130 668 519
shrinkage=0.05


Tree=56
num_leaves=9
num_cat=8
split_feature=14 11 7 9 9 2 3 1
split_gain=19.2774 15.747 10.852 11.5672 5.12697 4.97505 2.12626 1.57568
threshold=0 1 2 3 4 5 6 7
decision_type=1 1 1 1 1 1 1 1
left_child=-1 4 -3 5 -2 -4 -5 -7
right_child=1 2 3 6 -6 7 -8 -9
leaf_value=-0.030238862987210291 0.0064526687151216554 0.03449140214332385 0.0093851786067814733 0.031210678444809688 -0.0227470684876474 -0.029266351056497716 -0.0015971495247341526 -0.0019174312208668565
leaf_weight=32.684462524950504 21.039896577596664 43.453129626810551 19.1552489772439 28.135679736733437 40.722257539629936 19.046845994889736 13.524337179958819 20.102941334247589
leaf_count=211 103 316 126 226 276 117 100 125
internal_value=0 0.130928 0.307937 0.0942991 -0.265737 -0.185693 0.446252 -0.369408
internal_weight=0 205.18 143.418 99.9651 61.7622 58.305 41.66 39.1498
internal_count=1600 1389 1010 694 379 368 326 242
cat_boundaries=0 6 7 8 9 10 11 12 13
cat_threshold=0 33554432 524288 404750336 2422505472 66708 20 617 150 809 130 668 519
shrinkage=0.05


Tree=57
num_leaves=9
num_cat=8
split_feature=12 8 7 0 6 6 9 10
split_gain=18.7598 9.79274 7.42931 6.96171 5.71678 4.41814 4.03006 2.35878
threshold=0 1 2 3 4 5 6 7
decision_type=1 1 1 1 1 1 1 1
left_child=2 -2 7 5 -4 -3 -5 -1
right_child=1 3 4 6 -6 -7 -8 -9
leaf_value=-0.028000307802258446 0.036628811501812658 -0.0058784260306876356 -0.012374283283515556 0.008012107851923184 0.017875292397642826 0.024254936217644039 -0.022298607956925454 -0.00033649641145661009
leaf_weight=56.945710726082325 27.458145342767239 17.672787308692932 20.893815264105797 14.38735184073448 22.99340333789587 34.849821016192436 21.649603508412838 19.262485072016716
leaf_count=414 257 115 123 110 119 238 122 102
internal_value=0 0.283588 -0.257791 0.0841743 0.0770045 0.295943 -0.221712 -0.437162
internal_weight=0 116.018 120.095 88.5596 43.8872 52.5226 36.037 76.2082
internal_count=1600 842 758 585 242 353 232 516
cat_boundaries=0 1 2 3 4 5 6 7 8
cat_threshold=150 609 150 148 30 6 936 151
shrinkage=0.05


Tree=58
num_leaves=7
num_cat=6
split_feature=13 11 10 11 9 5
split_gain=18.1982 10.1855 8.9897 7.57027 5.70655 5.37899
threshold=0 1 2 3 4 5
decision_type=1 1 1 1 1 1
left_child=2 -2 3 -1 -3 -4
right_child=1 4 5 -5 -6 -7
leaf_value=0.017531077529370605 0.01427575315548908 0.004337803290809991 -0.0023718989754585502 -0.01566518523528268 -0.029057250074041814 0.031710427490321907
leaf_weight=18.170764856040478 19.997910387814045 19.706659734249115 20.888140764087439 35.462106823921204 65.703904315829277 54.572525527328253
leaf_count=101 108 101 178 201 475 436
internal_value=0 -0.284666 0.252499 -0.068615 -0.4341 0.462051
internal_weight=0 105.408 129.094 53.6329 85.4106 75.4607
internal_count=1600 684 916 302 576 614
cat_boundaries=0 1 2 3 4 5 6
cat_threshold=553 265 22 291 97 325
shrinkage=0.05


Tree=59
num_leaves=9
num_cat=8
split_feature=14 10 9 8 7 7 1 3
split_gain=17.7612 14.0067 8.6921 6.12131 5.78512 4.988 3.13706 0.405586
threshold=0 1 2 3 4 5 6 7
decision_type=1 1 1 1 1 1 1 1
left_child=-1 2 3 -2 6 -4 -3 -7
right_child=1 4 5 -5 -6 7 -8 -9
leaf_value=0.027576527049341271 -0.013017009543635397 0.011025340960099715 0.0021464832142076657 0.01802515374516251 0.029970041531650712 -0.0041580270178031937 -0.013143516319919588 -0.035689141811626572
leaf_weight=38.770035095512867 20.666170284152031 16.806770771741867 21.492493107914925 24.47540633007884 22.066895309835672 16.896302118897438 17.184995695948601 54.566417224705219
leaf_count=322 134 110 127 142 156 123 109 377
internal_value=0 -0.120205 -0.287152 0.080608 0.272271 -0.456229 -0.0280746 -0.593193
internal_weight=0 194.155 138.097 45.1416 56.0587 92.9552 33.9918 71.4627
internal_count=1600 1278 903 276 375 627 219 500
cat_boundaries=0 3 4 5 6 7 8 9 10
cat_threshold=2451753744 537411816 463950 151 106 22 147 609 153 137
shrinkage=0.05


Tree=60
num_leaves=8
num_cat=7
split_feature=14 8 0 9 12 12 9
split_gain=17.2901 13.8048 13.786 8.0554 4.74547 4.7252 2.30244
threshold=0 1 2 3 4 5 6
decision_type=1 1 1 1 1 1 1
left_child=-1 -2 3 5 -4 -3 -6
right_child=1 2 4 -5 6 -7 -8
leaf_value=-0.028901950271187728 0.028115875410569025 -0.019275154829366509 0.0077883038270906554 0.025764541013651845 -0.0021518778308229759 0.0080384879002266055 -0.033597059085578293
leaf_weight=31.734940819442272 44.535883836448193 16.842253215610981 14.518841117620466 40.400306861847639 20.091752767562866 30.50378642976284 32.769460946321487
leaf_count=211 335 128 100 284 132 198 212
internal_value=0 0.126808 -0.024706 0.226452 -0.338775 -0.0668919 -0.477777
internal_weight=0 199.662 155.126 87.7463 67.3801 47.346 52.8612
internal_count=1600 1389 1054 610 444 326 344
cat_boundaries=0 6 7 8 9 10 11 12
cat_threshold=0 33554432 524288 404750336 2422505472 66708 545 180 154 520 148 904
shrinkage=0.05


Tree=61
num_leaves=9
num_cat=8
split_feature=14 13 11 11 10 12 3 9
split_gain=16.5398 14.5612 8.57177 8.18137 5.85522 4.31541 3.17744 5.78658
threshold=0 1 2 3 4 5 6 7
decision_type=1 1 1 1 1 1 1 1
left_child=-1 2 4 5 -2 -3 7 -4
right_child=1 3 6 -5 -6 -7 -8 -9
leaf_value=-0.028101278940324589 -0.01945862996487854 0.001954189897029271 -0.012413808303840479 0.010832169338744549 0.015262656202995318 -0.029482492515276799 0.035495329061619806 0.021985658397501957
leaf_weight=32.197342909872532 18.808315739035606 21.298629179596901 15.837534409016369 29.087070070207119 12.489918388426306 35.056312516331673 49.645256172865629 15.47713476419449
leaf_count=217 116 141 103 156 102 258 376 131
internal_value=0 0.124737 0.349948 -0.176822 -0.105242 -0.381949 0.518144 0.115886
internal_weight=0 197.7 112.258 85.442 31.2982 56.3549 80.9599 31.3147
internal_count=1600 1383 828 555 218 399 610 234
cat_boundaries=0 6 7 8 9 10 11 12 13
cat_threshold=0 33554436 524288 402653184 2422505472 68756 553 24 662 147 368 519 147
shrinkage=0.05


Tree=62
num_leaves=8
num_cat=7
split_feature=14 8 10 2 4 6 13
split_gain=15.6624 13.0001 8.39523 6.19699 6.14518 3.47769 3.12584
threshold=0 1 2 3 4 5 6
decision_type=1 1 1 1 1 1 1
left_child=-1 4 -3 -4 -2 6 -5
right_child=1 2 3 5 -6 -7 -8
leaf_value=0.027224272052229645 -0.005678860263612702 0.013317644526188974 0.0034281279202040709 0.0068906048114490614 0.027594229610805689 -0.034974950823276944 -0.01735993389171718
leaf_weight=34.673472657799721 22.6573636084795 20.287144683301449 28.908009760081768 17.909114003181458 28.740472119301558 50.912914909422398 24.34724149107933
leaf_count=308 140 139 200 111 180 357 165
internal_value=0 -0.109352 -0.26222 -0.363575 0.287814 -0.491305 -0.154605
internal_weight=0 193.762 142.364 122.077 51.3978 93.1693 42.2564
internal_count=1600 1292 972 833 320 633 276
cat_boundaries=0 3 4 5 6 7 8 9
cat_threshold=2451753744 537411808 463950 553 544 416 20 906 45
shrinkage=0.05


Tree=63
num_leaves=9
num_cat=8
split_feature=14 11 7 9 12 2 3 13
split_gain=15.4851 13.8436 9.18864 6.00332 4.27683 3.25556 1.12732 1.89182
threshold=0 1 2 3 4 5 6 7
decision_type=1 1 1 1 1 1 1 1
left_child=-1 4 3 5 -2 -3 7 -4
right_child=1 2 6 -5 -6 -7 -8 -9
leaf_value=-0.027898027404887123 0.0063746338760672363 0.0063041303033638087 0.018229728252440049 0.015906518366494427 -0.020532118009345405 -0.020913945204257888 0.036726443314827044 -0.0039560021505389894
leaf_weight=30.355628535151482 19.790748775005341 15.289736963808535 16.644993375986814 24.692403431981802 42.733120262622833 24.165403999388218 37.524769511073828 15.831943571567534
leaf_count=216 109 105 127 202 289 157 295 100
internal_value=0 0.119306 0.294929 -0.00088155 -0.246213 -0.224488 0.532228 0.180587
internal_weight=0 196.673 134.149 64.1475 62.5239 39.4551 70.0017 32.4769
internal_count=1600 1384 986 464 398 262 522 227
cat_boundaries=0 6 7 8 9 10 11 12 13
cat_threshold=0 33554436 524288 402653184 2154070016 101524 20 146 150 361 131 786 521
shrinkage=0.05


Tree=64
num_leaves=7
num_cat=6
split_feature=13 11 10 11 5 9
split_gain=14.6494 8.62027 7.33464 6.55148 5.49629 5.14904
threshold=0 1 2 3 4 5
decision_type=1 1 1 1 1 1
left_child=2 -2 3 -1 -4 -3
right_child=1 5 4 -5 -6 -7
leaf_value=0.016517642400419311 0.013397390815384004 0.0045133922014719855 -0.0036977205124662858 -0.014610946937156874 0.029940006665875277 -0.027192765648190273
leaf_weight=17.754405550658703 19.489734068512917 19.326377876102924 20.080119483172894 34.58525263518095 51.998183336108923 62.541185576468706
leaf_count=101 108 101 178 201 436 475
internal_value=0 -0.259552 0.230922 -0.0619174 0.425203 -0.400628
internal_weight=0 101.357 124.418 52.3397 72.0783 81.8676
internal_count=1600 684 916 302 614 576
cat_boundaries=0 1 2 3 4 5 6
cat_threshold=553 265 22 291 325 97
shrinkage=0.05


Tree=65
num_leaves=8
num_cat=7
split_feature=10 3 8 7 12 9 12
split_gain=14.8886 10.2878 9.81131 7.5675 4.32282 4.18891 2.58526
threshold=0 1 2 3 4 5 6
decision_type=1 1 1 1 1 1 1
left_child=1 3 -3 6 -4 -2 -1
right_child=5 2 4 -5 -6 -7 -8
leaf_value=0.0067268026398625185 -0.0017405110824154928 0.012731669584420197 -0.03270242802089187 0.02819656731918125 -0.0024650829555988244 0.027126644071932507 -0.017250355481951227
leaf_weight=15.712849590927361 23.285327829420567 19.311612151563168 56.861041754484177 19.785721708089113 28.574311766773462 45.400216802954674 15.421812385320665
leaf_count=111 158 116 420 128 183 379 105
internal_value=0 -0.161062 -0.332631 0.188536 -0.478147 0.367256 -0.129122
internal_weight=0 155.667 104.747 50.9204 85.4354 68.6855 31.1347
internal_count=1600 1063 719 344 603 537 216
cat_boundaries=0 1 2 3 4 5 6 7
cat_threshold=151 705 552 150 151 19 643
shrinkage=0.05


Tree=66
num_leaves=9
num_cat=8
split_feature=14 11 9 7 2 0 4 8
split_gain=14.1138 12.2739 9.40515 9.22911 6.83568 4.29194 1.90754 0.993272
threshold=0 1 2 3 4 5 6 7
decision_type=1 1 1 1 1 1 1 1
left_child=-1 5 3 -3 -5 -2 -6 -7
right_child=1 2 -4 4 6 7 -8 -9
leaf_value=-0.027016538905786813 0.0066080927717889542 0.026248107754406259 0.030440538317473301 0.011950319730406576 -0.00090570592326562219 -0.0018927260804379844 -0.027839282390513365 -0.028826159171249418
leaf_weight=29.167993564158678 19.975294932723045 19.589920792728662 47.199730698019266 23.929592248052359 20.014894172549248 17.132882229983807 22.082933787256479 23.870772287249565
leaf_count=208 132 129 415 174 135 105 144 158
internal_value=0 0.115149 0.280497 0.0547596 -0.135446 -0.233771 -0.353316 -0.402998
internal_weight=0 193.796 132.817 85.6173 66.0274 60.9789 42.0978 41.0037
internal_count=1600 1392 997 582 453 395 279 263
cat_boundaries=0 6 7 8 9 10 11 12 13
cat_threshold=0 33554432 268959744 402653184 2154070016 68756 20 151 553 130 132 651 618
shrinkage=0.05


Tree=67
num_leaves=7
num_cat=6
split_feature=10 7 13 2 9 13
split_gain=13.5035 10.3304 6.78412 5.38179 3.78367 1.44929
threshold=0 1 2 3 4 5
decision_type=1 1 1 1 1 1
left_child=1 3 -3 -1 -2 -5
right_child=4 2 -4 5 -6 -7
leaf_value=0.0073625727284578214 -0.001579909044286737 -0.011428050249213376 0.022071819268758296 -0.00053268447535550145 0.026054298308748849 -0.026295301625381129
leaf_weight=18.857828836888075 23.206727065145969 18.451035246253014 31.652295920997858 16.770221836864948 44.500594407320023 68.192022375762463
leaf_count=141 158 110 208 118 379 486
internal_value=0 -0.154178 0.197727 -0.326458 0.351965 -0.436035
internal_weight=0 153.923 50.1033 103.82 67.7073 84.9622
internal_count=1600 1063 318 745 537 604
cat_boundaries=0 1 2 3 4 5 6
cat_threshold=151 406 404 128 19 321
shrinkage=0.05


Tree=68
num_leaves=10
num_cat=9
split_feature=14 11 8 0 13 9 9 2 12
split_gain=13.5442 11.2719 8.22718 11.1805 9.10389 4.22063 2.75824 1.29737 0.960824
threshold=0 1 2 3 4 5 6 7 8
decision_type=1 1 1 1 1 1 1 1 1
left_child=-1 5 -3 4 -4 -2 -6 -5 -7
right_child=1 2 3 7 6 8 -8 -9 -10
leaf_value=-0.02639563765336625 0.0073883544834852837 0.034466932300555218 0.014568714933964839 0.00078130541222979017 -0.035390605557429421 -0.0011906730749345973 -0.00061253108521089632 0.029668274226540149 -0.026873534977672971
leaf_weight=29.326600354164839 18.853573396801949 28.602540459483862 19.66376418620348 15.534865517169235 18.754525013267994 16.200726836919785 18.005042340606451 29.688119944185019 25.828789066523314
leaf_count=216 111 265 136 115 123 103 137 210 184
internal_value=0 0.113801 0.274556 0.10655 -0.181452 -0.220324 -0.442602 0.43367 -0.382107
internal_weight=0 191.132 130.249 101.646 56.4233 60.8831 36.7596 45.223 42.0295
internal_count=1600 1384 986 721 396 398 260 325 287
cat_boundaries=0 6 7 8 9 10 11 12 13 14
cat_threshold=0 33554436 524288 402653184 2154070016 101524 20 545 527 513 291 23 781 269
shrinkage=0.05


Tree=69
num_leaves=9
num_cat=8
split_feature=12 8 3 0 6 6 9 4
split_gain=12.9992 7.64327 7.31664 5.64181 4.20472 3.58857 3.54081 1.71598
threshold=0 1 2 3 4 5 6 7
decision_type=1 1 1 1 1 1 1 1
left_child=2 -2 7 4 -3 -4 -5 -1
right_child=1 3 5 6 -6 -7 -8 -9
leaf_value=-0.0036592076361113787 0.033272211353111307 -0.0067156080090120703 -0.001313552114997833 0.0068476090541062743 0.022625795047318736 -0.027138996895313336 -0.021988736075715533 0.017444586809822058
leaf_weight=16.337778091430664 23.811452366411686 16.672085367143154 30.046628691256046 15.129470273852347 32.579914759844542 50.262456193566322 19.054321706295013 15.292188074439766
leaf_count=102 257 115 192 113 238 363 119 101
internal_value=0 0.246057 -0.220312 0.0679599 0.264729 -0.373842 -0.211295 0.165667
internal_weight=0 107.247 111.939 83.4358 49.252 80.3091 34.1838 31.63
internal_count=1600 842 758 585 353 555 232 203
cat_boundaries=0 1 2 3 4 5 6 7 8
cat_threshold=150 609 641 148 6 929 908 22
shrinkage=0.05


Tree=70
num_leaves=9
num_cat=8
split_feature=13 10 3 10 12 6 7 9
split_gain=12.2914 7.48181 6.84327 8.4398 5.38264 4.29608 0.981545 0.653162
threshold=0 1 2 3 4 5 6 7
decision_type=1 1 1 1 1 1 1 1
left_child=2 -2 6 5 -3 -4 -1 -5
right_child=1 4 3 7 -6 -7 -8 -9
leaf_value=0.0013792428732350346 0.0095242650836169646 0.0020085558918724765 -0.026955207971262843 0.00060845620064145457 -0.029588387148246645 0.002936820934449733 0.034552411379710039 0.023957803284422232
leaf_weight=14.205028962343929 25.718645632266998 24.433472771197557 18.592220354825258 14.48983884975314 47.752479147166014 24.69498510658741 26.802580900490284 21.403861708939075
leaf_count=116 156 171 115 104 357 174 218 189
internal_value=0 -0.240851 0.215603 0.0220792 -0.399008 -0.251023 0.511689 0.334368
internal_weight=0 97.9046 120.189 79.1809 72.186 43.2872 41.0076 35.8937
internal_count=1600 684 916 582 528 289 334 293
cat_boundaries=0 1 2 3 4 5 6 7 8
cat_threshold=553 300 233 23 376 18 82 209
shrinkage=0.05


Tree=71
num_leaves=8
num_cat=7
split_feature=14 8 6 12 13 2 11
split_gain=12.3515 11.1928 9.51688 9.01388 4.12184 3.79249 3.07624
threshold=0 1 2 3 4 5 6
decision_type=1 1 1 1 1 1 1
left_child=-1 6 4 5 -3 -4 -2
right_child=1 2 3 -5 -6 -7 -8
leaf_value=-0.025731637942221077 0.00036491933152206041 -0.0063174195486973483 -0.01096092230734586 -0.027756191208076236 0.024802880572903016 0.014331348523099592 0.029154252057757457
leaf_weight=27.847091756761074 21.863715201616287 15.614369589835404 17.146930895745754 40.687543176114559 25.613674182444811 25.211995717138052 43.112248960882425
leaf_count=209 112 108 111 327 178 181 374
internal_value=0 0.108584 -0.0712433 -0.257895 0.281684 0.0791002 0.416154
internal_weight=0 189.25 124.275 83.0465 41.228 42.3589 64.976
internal_count=1600 1391 905 619 286 292 486
cat_boundaries=0 6 7 8 9 10 11 12
cat_threshold=0 33554432 268959744 402653184 2154070016 35988 809 897 617 214 537 20
shrinkage=0.05


Tree=72
num_leaves=8
num_cat=7
split_feature=10 7 11 2 0 9 12
split_gain=11.6535 9.29803 5.95673 4.97541 5.32429 3.46898 0.0263394
threshold=0 1 2 3 4 5 6
decision_type=1 1 1 1 1 1 1
left_child=1 3 -3 4 -1 -2 -6
right_child=5 2 -4 -5 6 -7 -8
leaf_value=0.015714446554772787 -0.0017352555870688551 -0.0097842821743658343 0.021795034559392322 -0.024863237587782677 -0.019849606033999764 0.024864071063178193 -0.0012586022416329317
leaf_weight=17.844134587794542 22.747091509401798 19.519796282052994 29.29267992451787 57.413638096302748 12.859460871666668 42.765412297099829 13.108739055693151
leaf_count=132 158 114 204 412 101 379 100
internal_value=0 -0.144196 0.193005 -0.309532 -0.0168292 0.332432 -0.268479
internal_weight=0 150.038 48.8125 101.226 43.8123 65.5125 25.9682
internal_count=1600 1063 318 745 333 537 201
cat_boundaries=0 1 2 3 4 5 6 7
cat_threshold=151 406 20 226 144 19 146
shrinkage=0.05


Tree=73
num_leaves=7
num_cat=6
split_feature=14 7 9 13 11 0
split_gain=11.6105 10.047 8.20639 4.69106 4.36514 2.06609
threshold=0 1 2 3 4 5
decision_type=1 1 1 1 1 1
left_child=-1 -2 3 -3 -4 -5
right_child=1 2 4 5 -6 -7
leaf_value=-0.024909736286797095 0.023606645561086145 0.0049868639284130593 -0.0044844135294931668 0.0017899664332301707 0.022159920211046461 -0.025866524320537394
leaf_weight=27.928389191627502 44.800378896296024 29.1120226085186 25.050552301108837 14.964675795286894 32.984192989766598 39.691983539611101
leaf_count=207 345 192 130 107 313 306
internal_value=0 0.10614 -0.0329744 -0.223023 0.233806 -0.383773
internal_weight=0 186.604 141.803 83.7687 58.0347 54.6567
internal_count=1600 1393 1048 605 443 413
cat_boundaries=0 6 7 8 9 10 11
cat_threshold=0 33554436 524288 402653184 2422505472 33940 616 150 769 22 80
shrinkage=0.05


Tree=74
num_leaves=9
num_cat=8
split_feature=14 7 6 12 9 10 13 11
split_gain=11.108 9.56295 6.82389 7.42375 5.19934 1.8419 0.791719 0.678203
threshold=0 1 2 3 4 5 6 7
decision_type=1 1 1 1 1 1 1 1
left_child=-1 4 3 -3 -2 -4 -5 -6
right_child=1 2 5 6 7 -7 -8 -9
leaf_value=0.023082992824954435 0.0081092616451384058 0.016775906428677191 0.0020268995813801059 -0.0014517705806406664 -0.0033587201792306884 0.028631708553401931 -0.028508648287996402 -0.027260446951334151
leaf_weight=33.824036244302988 16.803026366978884 14.233529403805731 22.148983102291822 15.525677658617498 19.641582258045673 23.375622153282166 16.545342959463593 51.285250142216682
leaf_count=314 122 106 153 100 118 152 126 409
internal_value=0 -0.0970035 0.124419 -0.13757 -0.317788 0.36768 -0.377376 -0.437487
internal_weight=0 179.559 91.8292 46.3046 87.7299 45.5246 32.071 70.9268
internal_count=1600 1286 637 332 649 305 226 527
cat_boundaries=0 6 7 8 9 10 11 12 13
cat_threshold=2451753744 537411752 463942 0 0 131072 146 22 616 608 139 779 329
shrinkage=0.05


Tree=75
num_leaves=9
num_cat=8
split_feature=14 8 0 9 12 13 6 12
split_gain=10.7332 10.7373 9.7588 5.52201 4.82499 4.47494 2.64641 2.43537
threshold=0 1 2 3 4 5 6 7
decision_type=1 1 1 1 1 1 1 1
left_child=-1 -2 3 -3 -4 -5 -6 -7
right_child=1 2 4 5 6 7 -8 -9
leaf_value=-0.023903404168381881 0.02482375817547236 0.02298035688072321 0.0090643592393489566 0.014143373753622797 -0.037685674920516228 -0.024889702750615555 -0.0056448606626850438 0.001995484827950581
leaf_weight=27.963072214275599 41.614456616342068 32.029404908418655 13.558105409145353 16.773121569305658 19.360055420547724 12.747236263006924 29.141502361744642 19.060269210487608
leaf_count=213 344 241 100 114 140 107 199 142
internal_value=0 0.103326 -0.0363572 0.1846 -0.30915 -0.0442195 -0.453801 -0.243106
internal_weight=0 184.284 142.67 80.61 62.0597 48.5806 48.5016 31.8075
internal_count=1600 1387 1043 604 439 363 339 249
cat_boundaries=0 6 7 8 9 10 11 12 13
cat_threshold=0 33554436 268959744 404750336 2153807872 3220 545 180 611 520 353 20 146
shrinkage=0.05


Tree=76
num_leaves=9
num_cat=8
split_feature=10 11 8 6 9 0 1 7
split_gain=10.5111 7.86202 7.57338 6.08548 4.19921 3.78354 3.28039 3.64379
threshold=0 1 2 3 4 5 6 7
decision_type=1 1 1 1 1 1 1 1
left_child=1 4 3 -3 -1 -5 7 -2
right_child=6 2 -4 5 -6 -7 -8 -9
leaf_value=0.00132983472317147 -0.013278563010633879 -0.022724179888645932 0.024184601120538017 0.020951826405844295 -0.026126243021224363 -0.0081027155691594972 0.025529961507878052 0.014243701857142492
leaf_weight=25.835795123130083 14.648700207471846 20.441687174141407 21.780464142560959 14.78319825977087 48.47487360984087 15.896553859114647 35.75949402526021 13.487814281135799
leaf_count=159 109 132 171 100 393 108 313 115
internal_value=0 -0.139151 0.0931839 -0.125109 -0.3511 0.152125 0.318148 0.00380428
internal_weight=0 147.213 72.9019 51.1214 74.3107 30.6798 63.896 28.1365
internal_count=1600 1063 511 340 552 208 537 224
cat_boundaries=0 1 2 3 4 5 6 7 8
cat_threshold=151 148 406 18 299 144 518 146
shrinkage=0.05


Tree=77
num_leaves=9
num_cat=8
split_feature=14 13 11 11 10 12 3 9
split_gain=10.3872 8.84948 7.19045 6.40659 4.72458 3.9294 3.0902 4.92436
threshold=0 1 2 3 4 5 6 7
decision_type=1 1 1 1 1 1 1 1
left_child=-1 2 4 -3 -2 -5 7 -4
right_child=1 3 6 5 -6 -7 -8 -9
leaf_value=-0.023600745342513153 -0.019418146855330089 0.012741848675520593 -0.01223439663944538 0.0031328871322518236 0.013246329643672033 -0.024762532306603802 0.031366235329495909 0.019928120355595297
leaf_weight=27.769736006855965 17.648190774023533 21.806970775127411 16.060942448675632 21.811068419367075 11.0762100443244 35.849614139646292 45.158190511167049 12.765115458518268
leaf_count=216 115 127 118 150 101 282 377 114
internal_value=0 0.101659 0.285202 -0.140925 -0.133091 -0.306143 0.444114 0.0694513
internal_weight=0 182.176 102.709 79.4677 28.7244 57.6607 73.9842 28.8261
internal_count=1600 1384 825 559 216 432 609 232
cat_boundaries=0 6 7 8 9 10 11 12 13
cat_threshold=0 33554436 524288 402653184 2154070016 101524 553 24 297 147 368 774 658
shrinkage=0.05


Tree=78
num_leaves=9
num_cat=8
split_feature=2 7 9 8 5 11 2 11
split_gain=9.81493 8.60415 4.21243 3.84952 3.09316 2.41107 2.00044 0.704769
threshold=0 1 2 3 4 5 6 7
decision_type=1 1 1 1 1 1 1 1
left_child=5 3 4 -2 -3 -1 -5 -4
right_child=1 2 7 6 -6 -7 -8 -9
leaf_value=-0.0017190486729057608 -0.0090903145599076536 -0.010142687752701243 -0.0018168023276816958 -0.0017269940863466116 0.014943838390999095 0.025142423553743933 0.023250775823025208 -0.027225731585947117
leaf_weight=17.29156768321991 18.055820476263762 16.490775603801012 16.016998268663883 16.891135908663273 13.410174895077946 34.608459401875734 27.414052531123161 48.606321103870869
leaf_count=119 135 121 102 142 102 291 202 386
internal_value=0 -0.119039 -0.298824 0.157109 0.0406758 0.347221 0.303273 -0.440309
internal_weight=0 156.885 94.5243 62.361 29.901 51.9 44.3052 64.6233
internal_count=1600 1190 711 479 223 410 344 488
cat_boundaries=0 1 2 3 4 5 6 7 8
cat_threshold=416 620 872 144 720 20 581 73
shrinkage=0.05


Tree=79
num_leaves=11
num_cat=10
split_feature=12 3 8 0 6 13 6 9 0 10
split_gain=9.60799 6.83129 6.42578 4.67803 4.33736 4.12331 3.91842 3.39569 1.88453 4.64584
threshold=0 1 2 3 4 5 6 7 8 9
decision_type=1 1 1 1 1 1 1 1 1 1
left_child=1 4 -2 6 -1 -6 -4 -5 9 -3
right_child=2 8 3 7 5 -7 -8 -9 -10 -11
leaf_value=-0.013281293675815702 0.030832086958788918 -0.023031148240559206 -0.007183528619429955 0.0071331306296526249 -0.0067803861771371238 0.025272444118182115 0.021057964473448904 -0.021292733204810555 -0.032991280445027589 0.0078490865123345532
leaf_weight=15.427843298763037 21.3975471816957 12.620765358209608 16.026288617402315 14.43103566020727 14.878514800220726 19.530308172106743 31.033104751259089 18.604743387550116 23.029908686876297 20.996208313852549
leaf_count=125 257 106 115 113 105 118 238 119 168 136
internal_value=0 -0.193587 0.217119 0.0537897 0.0801858 0.260136 0.237336 -0.202066 -0.410339 -0.127331
internal_weight=0 106.484 101.493 80.0952 49.8367 34.4088 47.0594 33.0358 56.6469 33.617
internal_count=1600 758 842 585 348 223 353 232 410 242
cat_boundaries=0 1 2 3 4 5 6 7 8 9 10
cat_threshold=150 651 609 148 20 720 6 908 181 195
shrinkage=0.05


Tree=80
num_leaves=9
num_cat=8
split_feature=14 7 6 12 9 11 13 1
split_gain=9.49421 8.29469 6.26172 6.74829 4.39117 1.46234 1.41541 0.633466
threshold=0 1 2 3 4 5 6 7
decision_type=1 1 1 1 1 1 1 1
left_child=-1 4 3 -3 -2 -6 -5 -4
right_child=1 2 7 6 5 -7 -8 -9
leaf_value=0.021425873848649579 0.0091768713890851335 0.017719906497507803 0.0043889858985241446 -1.2466000861436464e-05 -0.0016248601965649556 -0.025796875655887525 -0.025440114194359799 0.028943488485596136
leaf_weight=33.155605293810368 13.333766885101793 12.745381999760864 22.373928684741259 16.742015179246668 20.10090505331755 51.910646919161081 19.527451597154137 17.157732136547565
leaf_count=309 100 106 151 109 124 430 148 123
internal_value=0 -0.0926872 0.117642 -0.118095 -0.300357 -0.40141 -0.324843 0.374762
internal_weight=0 173.892 88.5465 49.0148 85.3453 72.0116 36.2695 39.5317
internal_count=1600 1291 637 363 654 554 257 274
cat_boundaries=0 6 7 8 9 10 11 12 13
cat_threshold=2451622672 537411752 463942 4194304 0 131072 146 30 552 544 329 779 596
shrinkage=0.05


Tree=81
num_leaves=8
num_cat=7
split_feature=10 3 8 13 1 11 12
split_gain=9.34355 7.18293 8.77806 6.02999 3.15579 3.22728 2.85395
threshold=0 1 2 3 4 5 6
decision_type=1 1 1 1 1 1 1
left_child=1 3 -3 -1 5 -2 -4
right_child=4 2 6 -5 -6 -7 -8
leaf_value=0.019615021270325713 -0.014199225423867107 0.013408401430730958 0.00082592211812912214 -0.010426847390053407 0.024700129902322121 0.011930482549105472 -0.028718289918061884
leaf_weight=30.730109240859747 11.929272402077912 17.597140818834305 18.092715471982956 22.08196822181344 34.680083628743887 15.629538640379907 55.209672175347805
leaf_count=215 106 114 126 170 313 118 438
internal_value=0 -0.132074 -0.293257 0.147872 0.303991 -0.00298514 -0.444047
internal_weight=0 143.712 90.8995 52.8121 62.2389 27.5588 73.3024
internal_count=1600 1063 678 385 537 224 564
cat_boundaries=0 1 2 3 4 5 6 7
cat_threshold=151 713 552 553 518 648 840
shrinkage=0.05


Tree=82
num_leaves=8
num_cat=7
split_feature=14 8 0 10 2 4 13
split_gain=9.35353 8.29177 9.44303 4.30831 5.75817 3.40791 3.39436
threshold=0 1 2 3 4 5 6
decision_type=1 1 1 1 1 1 1
left_child=-1 -2 3 -3 -5 -6 -4
right_child=1 2 6 4 5 -7 -8
leaf_value=-0.022789307130633367 0.022759223425559371 0.022926047501597688 0.0039547867302362483 0.016269800400743648 -0.024383671645062877 0.0036736436728186232 -0.024261633363243922
leaf_weight=26.478922065347433 38.680987268686295 26.158160522580147 17.344224844127893 22.596919398754835 15.9656702876091 20.863953430205584 36.87205258384347
leaf_count=210 336 238 119 156 108 151 282
internal_value=0 0.0974569 -0.0253 0.175667 0.00305075 -0.221977 -0.320496
internal_weight=0 178.482 139.801 85.5847 59.4265 36.8296 54.2163
internal_count=1600 1390 1054 653 415 259 401
cat_boundaries=0 6 7 8 9 10 11 12
cat_threshold=0 33554436 524288 404750336 2154070016 33940 545 244 553 130 20 513
shrinkage=0.05


Tree=83
num_leaves=10
num_cat=9
split_feature=14 11 1 2 12 10 9 7 12
split_gain=8.94777 7.67665 7.1111 6.87006 4.10745 1.79957 1.51521 1.43369 1.39932
threshold=0 1 2 3 4 5 6 7 8
decision_type=1 1 1 1 1 1 1 1 1
left_child=-1 4 3 6 -2 -4 -3 -6 -5
right_child=1 2 5 8 7 -7 -8 -9 -10
leaf_value=-0.02210304875384192 0.0082473003919986097 -0.0015510831687252074 0.0026657885965484743 0.0014144842139301012 0.00064332161447418744 0.030105400805332218 0.025166118917176284 -0.025672320810840435 -0.025424487579901553
leaf_weight=26.999836474657059 18.605620224028826 14.131164558231829 21.483398865908384 13.498389635235069 14.971309781074522 42.016436088830233 11.82153080776334 24.179706852883101 16.345703285187486
leaf_count=220 107 108 140 125 106 392 112 187 103
internal_value=0 0.0961823 0.235899 -0.0379514 -0.184628 0.448954 0.284671 -0.350515 -0.319539
internal_weight=0 177.053 119.297 55.7968 57.7566 63.4998 25.9527 39.151 29.8441
internal_count=1600 1380 980 448 400 532 220 293 228
cat_boundaries=0 6 7 8 9 10 11 12 13 14
cat_threshold=0 33554436 268959744 402653184 2153807872 101524 20 519 930 361 82 178 457 649
shrinkage=0.05


Tree=84
num_leaves=10
num_cat=9
split_feature=2 7 9 2 5 11 8 11 7
split_gain=8.54146 7.46828 4.96489 3.70651 3.52403 1.93322 1.68096 0.518221 0.350682
threshold=0 1 2 3 4 5 6 7 8
decision_type=1 1 1 1 1 1 1 1 1
left_child=5 3 7 6 -4 -1 -2 -3 -7
right_child=1 2 4 -5 -6 8 -8 -9 -10
leaf_value=-0.0013287676163547129 0.029373258302966828 -0.0018285472227066034 -0.011298160056129552 -0.0068104925606974039 0.015333434343889422 0.001816054930348889 0.00093487042740918029 -0.025483002296124282 0.032822787706547993
leaf_weight=16.974642127752304 14.787471670657395 15.797043956816195 14.064067583531141 21.261625960469246 17.353755082935095 13.48308042436838 18.296697754412889 51.128159880638123 19.958643652498722
leaf_count=119 104 110 106 173 135 120 144 418 171
internal_value=0 -0.112573 -0.269026 0.168351 0.0712482 0.327769 0.350264 -0.417263 0.472344
internal_weight=0 152.689 98.343 54.3458 31.4178 50.4164 33.0842 66.9252 33.4417
internal_count=1600 1190 769 421 241 410 248 528 291
cat_boundaries=0 1 2 3 4 5 6 7 8 9
cat_threshold=416 556 151 26 600 20 15 41 134
shrinkage=0.05


Tree=85
num_leaves=9
num_cat=8
split_feature=14 10 3 7 11 1 9 12
split_gain=8.55426 6.97497 6.87924 5.20894 4.90651 4.77553 4.10785 1.88393
threshold=0 1 2 3 4 5 6 7
decision_type=1 1 1 1 1 1 1 1
left_child=-1 2 6 5 -4 -3 -2 -6
right_child=1 3 4 -5 7 -7 -8 -9
leaf_value=0.020572964913872279 -0.010622492223674031 -0.018711920300743774 0.0058190632549608165 0.027483846522438283 0.0003765103290182053 0.011369467857968739 0.018771214981592389 -0.030362162393910059
leaf_weight=32.483165325596929 13.318634312599896 14.41095110028982 18.17077811807394 16.452917035669088 14.889674112200735 19.557328045368195 20.635004688054323 52.370390772819519
leaf_count=323 103 102 115 138 102 151 137 429
internal_value=0 -0.0875104 -0.215334 0.200692 -0.360555 -0.0549144 0.148954 -0.487789
internal_weight=0 169.806 119.384 50.4212 85.4308 33.9683 33.9536 67.2601
internal_count=1600 1277 886 391 646 253 240 531
cat_boundaries=0 6 7 8 9 10 11 12 13
cat_threshold=2451753744 537411752 463878 4194304 0 1179648 151 641 659 353 518 140 840
shrinkage=0.05


Tree=86
num_leaves=9
num_cat=8
split_feature=13 10 12 2 0 6 4 4
split_gain=8.25618 5.70882 5.06614 4.92135 4.39693 3.59368 1.52813 0.211497
threshold=0 1 2 3 4 5 6 7
decision_type=1 1 1 1 1 1 1 1
left_child=3 -2 -3 -1 6 -6 7 -5
right_child=1 2 -4 4 5 -7 -8 -9
leaf_value=-0.012038720582177441 0.0088752424028668685 0.0034378283218359875 -0.027019076180752055 0.0080535781206546829 -0.018588608423564242 0.010182919561342534 0.027968827736894183 -0.00080983595985527216
leaf_weight=16.443190943449736 24.329807706177235 22.844503097236156 43.241311851888895 13.007028603926299 11.561234962195156 14.009082898497583 40.960754074156284 14.838278707116844
leaf_count=123 156 171 357 104 101 105 352 131
internal_value=0 -0.203341 -0.348453 0.184711 0.274808 -0.0878883 0.403646 0.087289
internal_weight=0 90.4156 66.0858 110.82 94.3764 25.5703 68.8061 27.8453
internal_count=1600 684 528 916 793 206 587 235
cat_boundaries=0 1 2 3 4 5 6 7 8
cat_threshold=553 300 376 521 150 21 838 516
shrinkage=0.05


Tree=87
num_leaves=8
num_cat=7
split_feature=14 7 10 4 9 5 2
split_gain=8.09144 8.17875 6.4509 5.57846 4.73375 4.15918 2.87532
threshold=0 1 2 3 4 5 6
decision_type=1 1 1 1 1 1 1
left_child=-1 -2 5 4 -4 -3 -5
right_child=1 2 3 6 -6 -7 -8
leaf_value=-0.021269983834545845 0.021700359898502723 -0.0062739534253806366 -0.010930484077830059 -0.026960036379778396 0.019058148929436417 0.025595269727321547 -0.0010267669051640708
leaf_weight=26.021079484373331 41.351527439430356 15.574113585054873 16.232932351529598 33.036462258547544 20.368018519133329 21.565589005127549 26.403949692845345
leaf_count=207 343 137 135 239 147 190 202
internal_value=0 0.0927969 -0.0360585 -0.170806 0.125328 0.274706 -0.344941
internal_weight=0 174.533 133.181 96.0414 36.601 37.1397 59.4404
internal_count=1600 1393 1050 723 282 327 441
cat_boundaries=0 6 7 8 9 10 11 12
cat_threshold=0 2181038084 524288 402653184 2151972864 35988 616 616 681 644 593 541
shrinkage=0.05


Tree=88
num_leaves=9
num_cat=8
split_feature=14 8 0 11 9 12 6 4
split_gain=7.90852 7.40173 7.89496 5.63879 5.76232 3.86546 0.333006 0.273824
threshold=0 1 2 3 4 5 6 7
decision_type=1 1 1 1 1 1 1 1
left_child=-1 -2 5 4 -4 -3 -5 -6
right_child=1 2 3 6 7 -7 -8 -9
leaf_value=-0.021680732983134856 0.021419821728173954 -0.026379455149650951 0.012069992829722291 0.0019964616771787052 -0.0010577790340903623 0.003570768025527059 0.025925924646690992 -0.026042306753128925
leaf_weight=24.273069810122252 38.229937765747309 29.047201629728079 21.643894463777542 15.240923117846249 13.000118546187876 18.975846007466316 25.846084825694561 13.630815595388414
leaf_count=213 335 215 158 121 114 142 194 108
internal_value=0 0.089265 -0.0277682 0.145317 -0.0884733 -0.319383 0.383556 -0.349284
internal_weight=0 175.615 137.385 89.3618 48.2748 48.023 41.087 26.6309
internal_count=1600 1387 1052 695 380 357 315 222
cat_boundaries=0 6 7 8 9 10 11 12 13
cat_threshold=16777216 33554432 268959744 404750336 2151710720 35988 545 523 660 625 179 70 652
shrinkage=0.05


Tree=89
num_leaves=10
num_cat=9
split_feature=13 11 11 9 9 7 2 2 6
split_gain=7.74584 5.48673 4.86273 4.69298 4.31192 3.02002 4.10437 0.916024 0.357014
threshold=0 1 2 3 4 5 6 7 8
decision_type=1 1 1 1 1 1 1 1 1
left_child=2 -2 4 -3 -1 6 -4 -6 -5
right_child=1 3 5 8 7 -7 -8 -9 -10
leaf_value=0.014872249829071505 0.011575775850706814 0.0063375879280521729 0.01807141904958862 -0.0017245887551093242 -0.019213842661645553 0.029433594976769568 -0.010823954368621986 -0.00047813063511984751 -0.028884774966238522
leaf_weight=14.31141112744808 17.615561187267303 17.800649769604206 12.555322876200078 13.964910190552471 16.644173640757799 28.24480053037405 17.863111887127165 20.027688547968864 40.047055874019861
leaf_count=117 108 101 114 114 112 282 163 128 361
internal_value=0 -0.199353 0.178354 -0.320425 -0.0540242 0.358765 0.05246 -0.22553 -0.464578
internal_weight=0 89.4282 109.647 71.8126 50.9833 58.6632 30.4184 36.6719 54.012
internal_count=1600 684 916 576 357 559 277 240 475
cat_boundaries=0 1 2 3 4 5 6 7 8 9
cat_threshold=553 265 92 97 808 402 130 583 617
shrinkage=0.05


Tree=90
num_leaves=10
num_cat=9
split_feature=14 6 4 8 7 0 13 12 13
split_gain=7.63406 6.90268 7.54113 5.27338 4.08065 3.81345 5.04285 3.21377 2.00422
threshold=0 1 2 3 4 5 6 7 8
decision_type=1 1 1 1 1 1 1 1 1
left_child=-1 2 3 -2 8 7 -7 -6 -3
right_child=1 4 -4 -5 5 6 -8 -9 -10
leaf_value=0.025337831969852339 -0.01135673775673739 0.028461989222121765 -0.028178887317887803 0.01965984692843973 0.00507584593177239 -0.012021161306302607 0.019551458793511951 -0.023564421559351394 0.00025091730191648571
leaf_weight=16.856297627091408 20.890725340694189 16.444636242464185 36.747681606560946 15.358583778142927 15.806612960994242 13.753745034337042 23.850552823394537 19.55859337374568 18.734187755733728
leaf_count=208 160 123 294 118 121 106 182 159 129
internal_value=0 -0.06267 -0.281834 0.0638833 0.0965932 -0.0456217 0.158087 -0.249328 0.336386
internal_weight=0 181.145 72.997 36.2493 108.148 72.9695 37.6043 35.3652 35.1788
internal_count=1600 1392 572 278 820 568 288 280 252
cat_boundaries=0 3 4 5 6 7 8 9 10 11
cat_threshold=2451622160 160 398342 20 171 402 617 334 90 617 43
shrinkage=0.05


Tree=91
num_leaves=8
num_cat=7
split_feature=14 7 10 4 13 2 13
split_gain=7.42343 6.29793 7.25926 5.27221 5.04159 3.81114 3.21996
threshold=0 1 2 3 4 5 6
decision_type=1 1 1 1 1 1 1
left_child=-1 6 -3 4 -4 -5 -2
right_child=1 2 3 5 -6 -7 -8
leaf_value=-0.020832339755544393 0.026235742100837123 0.019845902518533177 -0.012998333338767541 0.0035345416560220591 0.018872462578244757 -0.024006918399610361 -0.0020492051920100807
leaf_weight=24.584918897598982 34.100662536919117 19.842333246022463 12.95826857537031 20.361855715513229 21.974151050671935 43.80337293446064 19.50862468406558
leaf_count=215 307 196 115 161 164 322 120
internal_value=0 0.0886847 -0.044529 -0.1612 0.135765 -0.319378 0.344775
internal_weight=0 172.549 118.94 99.0976 34.9324 64.1652 53.6093
internal_count=1600 1385 958 762 279 483 427
cat_boundaries=0 6 7 8 9 10 11 12
cat_threshold=16777216 33554436 524288 402653184 2151972864 101524 617 544 649 150 130 555
shrinkage=0.05


Tree=92
num_leaves=9
num_cat=8
split_feature=9 6 12 10 8 4 2 11
split_gain=7.32805 7.04869 5.02141 4.36188 4.02867 5.66813 2.27371 1.50252
threshold=0 1 2 3 4 5 6 7
decision_type=1 1 1 1 1 1 1 1
left_child=2 4 3 -1 7 -6 -3 -2
right_child=1 6 -4 -5 5 -7 -8 -9
leaf_value=-0.013351827000649623 -0.001572073558688588 -0.0051395633778471006 0.026761118403729203 0.013371940096494962 0.013691546569702936 -0.015970935999511184 0.019314039830315946 -0.031665100820508732
leaf_weight=21.061947962269187 17.043614473193884 13.79691559076309 27.470441319048405 20.039857108145952 23.038691559806466 21.500059336423874 21.475265108048916 30.840568259358406
leaf_count=134 121 111 278 173 180 162 157 284
internal_value=0 -0.130849 0.251923 -0.00510455 -0.270734 -0.018605 0.214529 -0.46152
internal_weight=0 127.695 68.5722 41.1018 92.4229 44.5388 35.2722 47.8842
internal_count=1600 1015 585 307 747 342 268 405
cat_boundaries=0 1 2 3 4 5 6 7 8
cat_threshold=872 150 55 145 146 656 519 355
shrinkage=0.05


Tree=93
num_leaves=9
num_cat=8
split_feature=14 9 6 12 0 8 5 12
split_gain=6.96349 6.3952 6.51838 4.63007 4.48224 3.38004 2.2495 1.2071
threshold=0 1 2 3 4 5 6 7
decision_type=1 1 1 1 1 1 1 1
left_child=-1 2 5 4 -3 -2 -4 -7
right_child=1 3 6 -5 -6 7 -8 -9
leaf_value=0.024490626087976815 0.0040653424266360724 0.014460748077395731 0.019281066898982402 0.023568255051999807 -0.014046698491505617 -0.0014697553039898523 -0.0039850891929272625 -0.027435300676047408
leaf_weight=16.343690242618322 18.38283920660615 13.980845700949429 14.324471186846493 23.225540352985263 23.412040831521153 17.382990647107363 18.395033214241266 50.131428308784962
leaf_count=208 122 103 113 217 152 106 127 452
internal_value=0 -0.0589974 -0.189515 0.187067 -0.0517157 -0.32839 0.166596 -0.43604
internal_weight=0 179.235 118.617 60.6184 37.3929 85.8973 32.7195 67.5144
internal_count=1600 1392 920 472 255 680 240 558
cat_boundaries=0 3 4 5 6 7 8 9 10
cat_threshold=2451622160 160 398342 151 150 55 645 801 740 104
shrinkage=0.05


Tree=94
num_leaves=10
num_cat=9
split_feature=14 13 11 12 1 11 3 9 11
split_gain=6.96685 6.41872 5.04299 4.69804 4.03522 3.59709 2.8749 3.68009 2.61488
threshold=0 1 2 3 4 5 6 7 8
decision_type=1 1 1 1 1 1 1 1 1
left_child=-1 2 4 8 -2 -5 7 -4 -3
right_child=1 3 6 5 -6 -7 -8 -9 -10
leaf_value=-0.020325379284505205 0.010867257924690114 0.019031357788909527 -0.013085010108359897 0.0039068273620070336 -0.01939446655478707 -0.025588866706951936 0.028192773433087345 0.014874079752083935 -0.006237147041473586
leaf_weight=23.908787950873375 13.259087914600967 14.740819584578274 12.518864618614314 17.819996532052755 13.80402083694935 27.26917053386569 41.376458371058106 15.208701590076091 14.78396635502577
leaf_count=216 102 103 103 122 112 232 371 136 103
internal_value=0 0.0875224 0.248634 -0.124972 -0.112729 -0.306771 0.386514 0.0425666 0.160036
internal_weight=0 170.781 96.1671 74.614 27.0631 45.0892 69.104 27.7276 29.5248
internal_count=1600 1384 824 560 214 354 610 239 206
cat_boundaries=0 6 7 8 9 10 11 12 13 14
cat_threshold=16777216 167772164 524288 402653184 2154070016 66708 553 24 376 530 331 519 153 401
shrinkage=0.05


Tree=95
num_leaves=10
num_cat=9
split_feature=2 7 8 6 4 12 12 1 3
split_gain=6.82661 5.71693 3.34485 2.92022 4.4967 3.22458 2.13842 1.57187 0.351113
threshold=0 1 2 3 4 5 6 7 8
decision_type=1 1 1 1 1 1 1 1 1
left_child=7 2 6 5 -5 -3 -2 -1 -9
right_child=1 3 -4 4 -6 -7 -8 8 -10
leaf_value=-0.0032154329532869718 0.0075730303988230906 -0.011586826113271836 0.017209323062883256 0.0057150169520271922 -0.027389204512860185 0.013764183149712887 -0.013788703913039008 0.0018004772900512148 0.028709422565222173
leaf_weight=12.374881163239477 14.077017107978461 15.247762020677326 27.093649104237556 15.272862192243336 42.22403116710484 15.161779321730139 16.879576707258824 14.209253277629614 21.46526918746531
leaf_count=106 119 119 232 127 346 119 128 123 181
internal_value=0 -0.100296 0.132272 -0.251699 -0.381037 0.0266224 -0.0919503 0.301465 0.414646
internal_weight=0 145.957 58.0502 87.9064 57.4969 30.4095 30.9566 48.0494 35.6745
internal_count=1600 1190 479 711 473 238 247 410 304
cat_boundaries=0 1 2 3 4 5 6 7 8 9
cat_threshold=416 620 242 779 136 412 782 17 274
shrinkage=0.05


Tree=96
num_leaves=8
num_cat=7
split_feature=10 7 8 13 1 11 11
split_gain=6.83626 5.54041 3.90998 2.89392 2.87819 2.86359 2.0685
threshold=0 1 2 3 4 5 6
decision_type=1 1 1 1 1 1 1
left_child=1 6 3 -3 5 -2 -1
right_child=4 2 -4 -5 -6 -7 -8
leaf_value=-0.0047072753278741648 -0.014125382479353164 0.0015596421852450118 0.0053772713791890893 -0.023247571941833287 0.022734228078556008 0.010838028283894532 0.018729525418962271
leaf_weight=14.165024878457187 11.462712984532116 21.434777230024338 25.147860120981932 54.758530946448445 32.073913771659136 14.857992578297855 19.685300018638372
leaf_count=104 106 140 182 489 313 118 148
internal_value=0 -0.113672 -0.22767 -0.33795 0.269834 -0.0185885 0.201704
internal_weight=0 135.191 101.341 76.1933 58.3946 26.3207 33.8503
internal_count=1600 1063 811 629 537 224 252
cat_boundaries=0 1 2 3 4 5 6 7
cat_threshold=151 609 406 33 518 648 656
shrinkage=0.05


Tree=97
num_leaves=9
num_cat=8
split_feature=12 3 8 1 0 6 7 10
split_gain=6.49147 5.71874 4.80529 4.19147 3.60139 3.29268 3.28017 2.4088
threshold=0 1 2 3 4 5 6 7
decision_type=1 1 1 1 1 1 1 1
left_child=1 3 -2 -1 5 -4 -6 -3
right_child=2 7 4 -5 6 -7 -8 -9
leaf_value=0.016948020603160922 0.027563842216346054 -0.024988730122629033 -0.0070289360187747721 -0.0096079398047215943 -0.020092050406310881 0.019218575163633927 0.0078766434142565397 0.0017500445342879369
leaf_weight=23.52061377838254 18.64937349781394 38.396348850801587 15.203333068639038 19.541368030011654 18.088168259710073 28.826197376474738 13.391014497727157 17.189972262829542
leaf_count=169 257 334 115 146 125 238 107 109
internal_value=0 -0.161531 0.187909 0.107149 0.0441886 0.210637 -0.183276 -0.354275
internal_weight=0 98.6483 94.1581 43.062 75.5087 44.0295 31.4792 55.5863
internal_count=1600 758 842 315 585 353 232 443
cat_boundaries=0 1 2 3 4 5 6 7 8
cat_threshold=150 643 609 408 148 6 23 211
shrinkage=0.05


Tree=98
num_leaves=9
num_cat=8
split_feature=14 11 12 7 12 8 4 10
split_gain=6.45846 6.20439 5.46372 5.61122 4.79996 2.1288 1.5968 1.21356
threshold=0 1 2 3 4 5 6 7
decision_type=1 1 1 1 1 1 1 1
left_child=-1 2 5 -4 -3 -2 -5 -6
right_child=1 4 3 6 7 -7 -8 -9
leaf_value=-0.019821454234138752 -0.0042084628884548709 -0.0066933931380075201 0.010650102886874714 0.0006511715791940112 0.00058161627458992737 0.017963865810928636 -0.032844509301820597 0.026087507578367121
leaf_weight=23.074635170400143 17.3914540335536 20.764796957373619 13.230544578284023 13.111141636967659 16.114010632038116 19.018367057666183 24.796032564714551 44.528230730444193
leaf_count=207 132 182 102 113 106 153 198 407
internal_value=0 0.0846447 -0.0972645 -0.288006 0.269514 0.174966 -0.470831 0.407035
internal_weight=0 168.955 87.5475 51.1377 81.407 36.4098 37.9072 60.6422
internal_count=1600 1393 698 413 695 285 311 513
cat_boundaries=0 6 7 8 9 10 11 12 13
cat_threshold=16777216 2315255808 524288 402653184 2151972864 3220 534 109 840 5 148 680 336
shrinkage=0.05


Tree=99
num_leaves=9
num_cat=8
split_feature=2 9 7 1 3 12 1 3
split_gain=6.28564 5.05311 4.09306 4.00152 3.72983 2.28575 1.49713 0.255787
threshold=0 1 2 3 4 5 6 7
decision_type=1 1 1 1 1 1 1 1
left_child=6 2 4 -3 -2 -5 -1 -8
right_child=1 3 -4 5 -6 -7 7 -9
leaf_value=-0.0032556512464242261 -0.01190863862856585 -0.011110779194777877 -0.019210304247430112 -0.0012735782445000758 0.013541018487520904 0.026859315823476362 0.0018061694794788471 0.027773580649063198
leaf_weight=12.195911310613154 17.088332179933786 13.856441341340542 56.729315221309662 17.453560572117567 21.392102763056755 17.424566868692636 14.024617314338684 21.124155104160309
leaf_count=106 127 109 487 117 154 196 123 181
internal_value=0 -0.0965047 -0.224199 0.148661 0.0422834 0.312687 0.291417 0.402147
internal_weight=0 143.944 95.2098 48.7346 38.4804 34.8781 47.3447 35.1488
internal_count=1600 1190 768 422 281 313 410 304
cat_boundaries=0 1 2 3 4 5 6 7 8
cat_threshold=416 151 557 578 838 54 17 274
shrinkage=0.05


end of trees

feature importances:
p_10=92
p_14=82
p_12=80
p_13=74
p_11=65
p_8=64
p_9=59
cluster=42
p_7=31
p_3=25
p_4=22
p_1=21
p_5=18
p_2=15
p_6=6

parameters:
[boosting: gbdt]
[objective: binary]
[metric: binary_logloss]
[tree_learner: serial]
[device_type: cpu]
[data: ]
[valid: ]
[num_iterations: 100]
[learning_rate: 0.05]
[num_leaves: 200]
[num_threads: -1]
[max_depth: 10]
[min_data_in_leaf: 20]
[min_sum_hessian_in_leaf: 0.001]
[bagging_fraction: 1]
[pos_bagging_fraction: 1]
[neg_bagging_fraction: 1]
[bagging_freq: 0]
[bagging_seed: 3]
[feature_fraction: 1]
[feature_fraction_bynode: 1]
[feature_fraction_seed: 2]
[early_stopping_round: 0]
[first_metric_only: 0]
[max_delta_step: 0]
[lambda_l1: 0]
[lambda_l2: 0]
[min_gain_to_split: 0]
[drop_rate: 0.1]
[max_drop: 50]
[skip_drop: 0.5]
[xgboost_dart_mode: 0]
[uniform_drop: 0]
[drop_seed: 4]
[top_rate: 0.2]
[other_rate: 0.1]
[min_data_per_group: 100]
[max_cat_threshold: 32]
[cat_l2: 10]
[cat_smooth: 10]
[max_cat_to_onehot: 4]
[top_k: 20]
[monotone_constraints: ]
[feature_contri: ]
[forcedsplits_filename: ]
[forcedbins_filename: ]
[refit_decay_rate: 0.9]
[cegb_tradeoff: 1]
[cegb_penalty_split: 0]
[cegb_penalty_feature_lazy: ]
[cegb_penalty_feature_coupled: ]
[verbosity: 0]
[max_bin: 255]
[max_bin_by_feature: ]
[min_data_in_bin: 3]
[bin_construct_sample_cnt: 200000]
[histogram_pool_size: -1]
[data_random_seed: 1]
[output_model: LightGBM_model.txt]
[snapshot_freq: -1]
[input_model: ]
[output_result: LightGBM_predict_result.txt]
[initscore_filename: ]
[valid_data_initscores: ]
[pre_partition: 0]
[enable_bundle: 1]
[max_conflict_rate: 0]
[is_enable_sparse: 1]
[sparse_threshold: 0.8]
[use_missing: 1]
[zero_as_missing: 0]
[two_round: 0]
[save_binary: 0]
[header: 0]
[label_column: ]
[weight_column: ]
[group_column: ]
[ignore_column: ]
[categorical_feature: ]
[predict_raw_score: 0]
[predict_leaf_index: 0]
[predict_contrib: 0]
[num_iteration_predict: -1]
[pred_early_stop: 0]
[pred_early_stop_freq: 10]
[pred_early_stop_margin: 10]
[convert_model_language: ]
[convert_model: gbdt_prediction.cpp]
[num_class: 1]
[is_unbalance: 0]
[scale_pos_weight: 1]
[sigmoid: 1]
[boost_from_average: 1]
[reg_sqrt: 0]
[alpha: 0.9]
[fair_c: 1]
[poisson_max_delta_step: 0.7]
[tweedie_variance_power: 1.5]
[max_position: 20]
[lambdamart_norm: 1]
[label_gain: ]
[metric_freq: 1]
[is_provide_training_metric: 0]
[eval_at: ]
[multi_error_top_k: 1]
[num_machines: 1]
[local_listen_port: 12400]
[time_out: 120]
[machine_list_filename: ]
[machines: ]
[gpu_platform_id: -1]
[gpu_device_id: -1]
[gpu_use_dp: 0]

end of parameters

pandas_categorical:[["AO", "AU", "CG", "CO", "GC", "GO", "GU", "UA", "UG", "UO"], ["AO", "AU", "CG", "CO", "GC", "GO", "GU", "UA", "UG", "UO"], ["AO", "AU", "CG", "CO", "GC", "GO", "GU", "UA", "UG", "UO"], ["AO", "AU", "CG", "CO", "GC", "GO", "GU", "UA", "UG", "UO"], ["AO", "AU", "CG", "CO", "GC", "GO", "GU", "UA", "UG", "UO"], ["AO", "AU", "CG", "CO", "GC", "GO", "GU", "UA", "UG", "UO"], ["AO", "AU", "CG", "CO", "GC", "GO", "GU", "UA", "UG", "UO"], ["AO", "AU", "CG", "CO", "GC", "GO", "GU", "UA", "UG", "UO"], ["AO", "AU", "CG", "CO", "GC", "GO", "GU", "UA", "UG", "UO"], ["AO", "AU", "CG", "CO", "GC", "GO", "GU", "UA", "UG", "UO"], ["AO", "AU", "CG", "CO", "GC", "GO", "GU", "UA", "UG", "UO"], ["AO", "AU", "CG", "CO", "GC", "GO", "GU", "UA", "UG", "UO"], ["AO", "AU", "CG", "CO", "GC", "GO", "GU", "UA", "UG", "UO"], ["AO", "AU", "CG", "CO", "GC", "GO", "GU", "UA", "UG", "UO"], [0, 1, 2, 3, 4, 5, 6, 7, 8, 9, 10, 11, 12, 13, 14, 15, 16, 17, 18, 19, 20, 21, 22, 23, 24, 25, 26, 27, 28, 29, 30, 31, 32, 33, 34, 35, 36, 37, 38, 39, 40, 41, 42, 43, 44, 45, 46, 47, 48, 49, 50, 51, 52, 53, 54, 55, 56, 57, 58, 59, 60, 61, 62, 63, 64, 65, 66, 67, 68, 69, 70, 71, 72, 73, 74, 75, 76, 77, 78, 79, 80, 81, 82, 83, 84, 85, 86, 87, 88, 89, 90, 91, 92, 93, 94, 95, 96, 97, 98, 99, 100, 101, 102, 103, 104, 105, 106, 107, 108, 109, 110, 111, 112, 113, 114, 115, 116, 117, 118, 119, 120, 121, 122, 123, 124, 125, 126, 127, 128, 129, 130, 131, 132, 133, 134, 135, 136, 137, 138, 139, 140, 141, 142, 143, 144, 145, 146, 147, 148, 149, 150, 151, 152, 153, 154, 155, 156, 157, 158, 159, 160, 161, 162, 163, 164, 165, 166, 167, 168, 169, 170, 171, 172, 173, 174, 175, 176, 177, 178, 179, 180, 181, 182, 183]]
